%YAML:1.0
frame_side_hand_svm: !!opencv-object-detector-hog
   winSize: [ 160, 176 ]
   blockSize: [ 16, 16 ]
   blockStride: [ 8, 8 ]
   cellSize: [ 8, 8 ]
   nbins: 9
   derivAperture: 1
   winSigma: 4.
   histogramNormType: 0
   L2HysThreshold: 2.0000000000000001e-001
   gammaCorrection: 1
   nlevels: 64
   signedGradient: 0
   SVMDetector: [ -1.08329672e-003, 3.78650380e-003, 8.61726142e-003,
       1.26602734e-002, 1.12280231e-002, 3.56395519e-003,
       -4.84619010e-003, -8.59806500e-003, -8.17988813e-003,
       -1.54362142e-003, 5.43773593e-003, 4.24772780e-003,
       9.85253882e-003, 2.20636167e-002, 1.78947835e-003,
       -6.65251492e-003, -8.57007969e-003, 7.80908813e-005,
       -9.21349321e-003, -5.07197715e-003, -2.65471893e-003,
       -8.17628950e-003, -4.97006346e-003, -3.98256117e-003,
       6.48499175e-004, -7.25290691e-003, -1.44219967e-002,
       -1.95720512e-003, -2.73013860e-003, -1.94076786e-003,
       -3.19315819e-003, 3.50817427e-004, -2.13387497e-002,
       4.70960571e-004, -4.20094142e-003, -1.12616888e-003,
       -2.04598438e-003, 6.26308174e-005, 4.60749213e-003,
       8.22049193e-003, 1.91028155e-002, 1.01037277e-003,
       -1.03878994e-002, 2.68858206e-003, -6.09217910e-003,
       6.59249304e-003, 3.67278233e-003, 3.93462367e-003,
       7.70360092e-003, 3.45781632e-003, 4.58737416e-003,
       -2.13242751e-002, 9.51481459e-004, -5.00490982e-003,
       5.93033037e-004, 1.87384593e-003, 4.19031922e-003,
       -7.76158064e-004, 1.08060129e-002, -1.39728058e-002,
       -8.41873046e-003, -9.05556721e-004, -4.07150527e-003,
       1.05795879e-002, 1.53007591e-002, 1.79792233e-002,
       -8.12903699e-003, -3.03962058e-003, -8.08287505e-003,
       -1.17127970e-002, -9.05511156e-003, -1.47157619e-002,
       1.39854373e-002, 1.77208222e-002, 9.85648856e-003,
       2.66175885e-002, -3.33757419e-003, -4.79268609e-003,
       -2.76801307e-002, -1.45862065e-002, 1.07017835e-003,
       1.85910845e-003, -5.87897561e-003, -3.89448076e-004,
       4.73369891e-003, -7.87462480e-003, -6.80800714e-003,
       -2.00297125e-002, -1.66695770e-002, -1.26616424e-003,
       4.04143613e-003, 8.79119523e-003, 9.03637800e-003,
       1.51810388e-003, -1.60410143e-002, -2.11274810e-002,
       -1.95094347e-002, -2.04971973e-002, -5.16054407e-003,
       -4.21833526e-003, 3.50005273e-003, 9.69574135e-003,
       1.48855150e-003, 4.81515937e-003, -1.95405483e-002,
       -1.51932547e-002, -1.68268885e-002, 1.82050979e-003,
       -5.76911960e-003, -6.84929034e-003, -8.31435807e-003,
       -2.18285481e-003, 2.75783637e-003, 5.44273586e-004,
       -7.51175266e-003, -1.69839803e-002, -7.44716218e-003,
       -1.16272625e-002, -1.84588823e-002, -2.37927325e-002,
       -1.22347316e-002, -5.77336038e-003, -1.03487484e-002,
       -1.28170345e-002, -2.62302384e-002, -9.27600265e-003,
       -6.69067539e-003, 5.92443720e-003, 1.63786788e-003,
       2.64743622e-003, 1.10366987e-002, 4.74011432e-003,
       -2.68108939e-004, -5.64521737e-003, -8.15630890e-003,
       2.44581606e-003, 1.39868399e-003, -1.07460760e-003,
       -2.60077138e-003, 9.49885882e-003, -8.05923436e-003,
       -1.56971924e-002, -1.58310458e-002, -9.37806815e-003,
       -9.01962444e-003, -2.39943694e-002, -1.73840802e-002,
       -1.09162163e-002, -6.00845646e-003, -3.39488010e-003,
       -6.82168966e-003, -1.85565576e-002, -2.79814331e-003,
       -2.76031997e-003, -1.07961353e-002, -1.90475322e-002,
       2.60077254e-003, -6.02855394e-003, 1.04241101e-002,
       3.50918691e-003, -1.83315459e-003, -3.38916061e-003,
       -1.36608421e-003, -9.81210545e-003, 5.05365618e-003,
       -3.50572495e-003, 7.96343957e-005, 4.29837004e-004,
       -1.68840121e-002, -1.54796764e-002, 3.15481884e-004,
       3.33127356e-003, -1.56133855e-002, -9.70892049e-003,
       2.02258117e-002, -7.64072454e-003, 9.95751470e-003,
       7.02791032e-004, -4.89624217e-003, 5.79513935e-003,
       3.08919721e-003, -2.38326285e-002, -1.86807420e-002,
       7.14291958e-003, -4.05827397e-003, 1.24978907e-002,
       1.65707003e-002, 4.29553818e-003, 3.76590266e-004,
       -2.49523274e-003, -2.95233745e-002, -1.65194590e-002,
       -8.04801937e-003, -1.71863381e-002, 1.92489999e-003,
       1.63854323e-002, -4.02363949e-003, -5.79722179e-003,
       -1.18136092e-003, -7.90671259e-003, -4.00896743e-003,
       2.07011495e-002, 4.22010245e-003, 8.06836039e-003,
       1.23520251e-002, 5.99499140e-003, -1.78963435e-003,
       1.16734789e-003, -2.90050521e-003, 9.55409650e-003,
       -7.95911439e-003, -2.81427130e-002, -1.35035375e-002,
       5.43051120e-003, 5.79184806e-003, -1.87297375e-003,
       4.37447196e-003, -3.83496308e-003, -7.61336088e-003,
       -1.96627388e-003, -1.69094224e-002, 2.32097250e-003,
       1.07218670e-002, -5.26831159e-003, 3.69359460e-003,
       1.44991251e-002, -3.90182808e-003, -2.97416956e-003,
       3.27122770e-003, -1.31562529e-002, 1.56553125e-003,
       -1.02186948e-002, -5.97996451e-003, 9.78343375e-003,
       8.58091284e-003, 4.14775743e-004, 1.77561827e-002,
       -8.79030116e-003, -2.86074225e-002, -1.61862280e-002,
       3.00641265e-003, 1.48013444e-003, 1.49696157e-003,
       1.08340364e-002, 1.25826942e-003, 1.09053552e-002,
       -9.75939073e-003, -1.18717672e-002, -1.36854425e-002,
       -1.37874708e-002, -7.22375698e-003, 4.24847705e-003,
       1.13575757e-002, 6.27128058e-004, 1.48042878e-002,
       8.45990703e-003, -1.25030624e-002, -4.40454902e-003,
       -9.89064202e-003, 1.09552396e-002, 6.30568992e-003,
       9.73257702e-003, 5.08203451e-003, 9.17920563e-003,
       -2.88657204e-004, -4.31659457e-004, -9.99948289e-003,
       -5.06996550e-003, 2.30265409e-002, 9.05447174e-003,
       2.64211488e-003, -6.19895849e-003, -7.01298565e-003,
       -6.77642971e-003, -1.50566250e-002, -7.77507853e-003,
       -7.39718089e-003, 2.19630310e-003, -5.01806429e-003,
       -3.88031802e-003, -1.15764339e-003, -6.46031927e-003,
       8.42640363e-003, -1.01756500e-002, -3.82151268e-003,
       -2.77205580e-003, -2.24544294e-003, -7.01661734e-003,
       1.22267595e-002, 8.94464925e-003, 4.95393015e-003,
       1.64340867e-003, -2.02939417e-002, -9.14547592e-003,
       -1.59419709e-004, 5.38170105e-003, 1.64293014e-002,
       4.87423223e-003, 3.35111399e-003, 1.16565228e-002,
       3.15309060e-003, -2.69743986e-002, 1.77140173e-003,
       -3.49625573e-003, -2.49159196e-003, 1.24755325e-002,
       1.04261690e-003, 3.16215819e-003, 3.93179664e-003,
       7.36734923e-003, -2.07237452e-002, 2.36513908e-003,
       -2.93728081e-003, -8.48405715e-003, -3.73597769e-003,
       1.68790648e-004, -9.24797350e-005, 7.09449931e-004,
       1.17696878e-002, -3.73221328e-003, 9.16672777e-003,
       -1.61820520e-002, -1.09359547e-002, 9.14707722e-004,
       -1.87830592e-003, 4.75469651e-003, 8.64621252e-003,
       1.67870079e-003, -1.15404865e-002, -4.67851438e-004,
       -1.61078963e-002, -5.29988995e-003, 4.74028336e-003,
       2.98772659e-003, -1.73831219e-003, 1.92213617e-003,
       9.65812418e-004, -8.19144014e-004, -4.31738049e-003,
       -2.03135218e-002, -1.25499107e-002, -2.87575531e-003,
       6.79196091e-004, 8.97300371e-004, -9.42873023e-003,
       5.56753657e-004, 1.53923663e-003, 6.63246354e-003,
       -1.13259191e-002, -8.11148994e-003, 6.18814898e-004,
       4.76130564e-003, -6.23508450e-003, -1.47465710e-002,
       -5.74320043e-003, -1.24025065e-002, -7.34369596e-003,
       7.66527466e-003, -7.16668041e-003, 3.21109407e-003,
       1.83441844e-002, 3.69816879e-003, 3.26229783e-004,
       4.57784114e-003, -1.14067588e-002, -4.46873344e-003,
       -7.97739252e-003, -1.28774820e-002, 9.16828029e-003,
       5.68133593e-003, -3.89623479e-003, -3.38778691e-003,
       2.29206897e-004, -2.55097225e-002, 1.28409782e-004,
       1.00301942e-002, -4.87895822e-003, 9.88845807e-003,
       1.09087629e-002, -8.42277613e-003, -1.21731393e-003,
       -2.80457293e-003, -1.89151466e-002, -3.84171400e-003,
       1.33290393e-002, 6.50088210e-003, 8.83366726e-003,
       4.98540746e-003, -1.00644249e-002, -8.60364269e-003,
       -8.22851248e-003, -2.03516409e-002, -1.12558599e-003,
       1.88668128e-004, 7.33137224e-003, 1.09946718e-002,
       7.13776890e-003, -1.37192449e-002, -1.14357974e-002,
       2.84789689e-003, -1.13072852e-002, 9.38067120e-003,
       1.49260843e-002, -8.71677417e-004, 9.87718441e-003,
       -6.35395874e-004, -1.05868159e-002, -2.92771403e-002,
       -5.49713569e-003, -1.53553970e-002, 8.92373268e-003,
       1.20768752e-002, -1.52309914e-003, -1.42172177e-003,
       9.14602913e-003, -1.40320249e-002, -2.23145075e-002,
       -7.07632955e-003, 1.48460995e-002, 1.31755099e-002,
       -6.02366682e-003, -7.28598284e-003, 1.52171655e-002,
       1.41435594e-004, -1.48068217e-003, -2.03069188e-002,
       -1.91005114e-002, 8.40039738e-003, 2.50381627e-003,
       6.85059698e-003, -9.25889425e-003, -2.05600343e-004,
       2.49761669e-003, 2.07574805e-003, -1.89800300e-002,
       2.08121157e-004, -1.12773916e-002, -9.29255318e-003,
       2.38332921e-003, -4.42190748e-003, -2.04291637e-003,
       5.95095428e-003, 4.14001010e-003, -2.93966220e-003,
       8.05810851e-004, 2.55457941e-003, 1.26000578e-002,
       -5.39480709e-003, -1.02945613e-002, -8.66950769e-003,
       -2.95890641e-004, 6.61450624e-003, -1.03754280e-002,
       1.60595728e-003, 1.66153628e-002, -4.23729653e-003,
       2.90058879e-003, -4.51678038e-003, -7.31823035e-003,
       -4.33330890e-003, -1.14695225e-002, -5.55787329e-003,
       5.26412856e-003, 1.09121380e-002, 1.97276529e-002,
       2.55987444e-003, -6.59476826e-003, -7.24266237e-003,
       1.00835217e-002, 9.22994409e-003, -4.84005455e-003,
       8.18079617e-003, 7.30332336e-004, 1.44148907e-002,
       -1.04362853e-002, -7.95831531e-003, 3.41998716e-003,
       6.47303823e-004, -3.28942621e-003, -2.33093668e-002,
       2.92648969e-004, -4.94628353e-003, 8.84936377e-003,
       -9.00903158e-003, -2.13199435e-003, 5.21775940e-003,
       -7.14717433e-003, -1.72315519e-002, -1.32962251e-002,
       1.15139841e-003, 2.08483892e-003, 1.98076982e-002,
       7.26390863e-003, -5.46417944e-003, -3.68944509e-003,
       -8.10948573e-003, -1.00740278e-002, -1.95819419e-002,
       -7.28292763e-003, -1.24030625e-002, 5.44544077e-003,
       5.11829415e-003, -3.90250632e-003, -4.92388755e-003,
       6.83699641e-003, -1.74487960e-002, -2.31899396e-002,
       -3.95001238e-003, 8.69183801e-003, 1.58858858e-002,
       -3.39616719e-003, 1.07156858e-003, 5.92215965e-003,
       5.33263758e-003, -8.48898850e-003, -1.84816662e-002,
       -6.31491421e-004, -4.07409435e-003, 8.58069770e-003,
       6.78536063e-003, 8.51263641e-004, -5.81942080e-003,
       2.29438860e-003, -1.33397314e-003, -1.05238026e-002,
       -5.90893906e-004, 2.72462750e-003, 5.52659854e-003,
       6.52513374e-003, -3.85136716e-003, -5.34098083e-003,
       -9.51733600e-005, -3.91925359e-003, -9.54106357e-003,
       9.62785538e-003, -9.56258085e-003, 1.12774055e-002,
       2.23717652e-002, 1.75284839e-003, -1.04896501e-002,
       1.99208572e-003, -5.99170430e-003, -2.05778051e-002,
       -9.67186119e-004, -6.67743850e-003, 7.67280441e-003,
       4.04969091e-003, -2.71097710e-003, -7.88814202e-003,
       4.83759819e-003, -5.29913604e-003, -2.68378630e-002,
       -1.31950239e-002, -3.46019259e-003, 1.94247942e-002,
       -6.60800701e-003, -1.02385362e-004, 1.35689471e-002,
       -3.53830867e-003, -4.65674559e-003, -1.55459717e-002,
       1.53767420e-002, -1.09557323e-002, 1.03239585e-002,
       1.24040991e-002, -4.44610603e-003, -1.44986541e-003,
       -1.64567679e-003, -4.32070286e-004, -1.06116282e-002,
       1.40845301e-002, 1.17915869e-002, 1.71770025e-002,
       -4.71770298e-003, -9.95423086e-003, 1.42829884e-002,
       -1.89605064e-003, -8.04323331e-003, -1.09449103e-002,
       1.17654458e-003, -1.63372606e-004, 7.99086038e-003,
       -4.69116122e-003, -4.20058938e-003, 5.64134959e-003,
       -2.17891880e-003, 4.35723970e-003, 9.72263329e-003,
       1.98416989e-002, -3.22651770e-003, -7.58785149e-003,
       -5.33255888e-003, -9.03396215e-003, 9.09755751e-003,
       3.96582810e-003, -5.50522376e-003, -6.58681057e-003,
       6.00063475e-003, 6.78969454e-003, 8.69544409e-003,
       -5.89021528e-003, -7.61076435e-003, 1.87586937e-002,
       1.18536036e-002, 8.00050888e-003, 1.34595798e-003,
       1.33563140e-002, -7.97710661e-003, -5.29600866e-003,
       -1.38993515e-002, -8.51946976e-003, 1.89683493e-002,
       5.99409221e-003, 7.80113693e-003, 7.25339865e-003,
       1.32322414e-002, -1.18269993e-003, 3.85489943e-003,
       -5.03468327e-005, 2.68165092e-003, 8.26287176e-003,
       -1.04183089e-002, -1.37620866e-002, -1.05268334e-003,
       -5.98784676e-003, -9.82866157e-003, 1.20641361e-003,
       3.53806908e-003, 1.19335307e-002, -3.60616879e-003,
       2.68563293e-002, 1.94019731e-002, 4.07235371e-003,
       1.13148075e-002, -1.21324221e-002, 6.40152721e-003,
       -8.52171332e-003, 2.29048077e-003, 2.01479848e-002,
       -1.14941904e-002, 4.88010526e-004, -5.59455948e-003,
       -8.36254563e-003, -1.04223220e-002, 1.33803785e-002,
       5.30337496e-003, 2.03642771e-002, 1.33817410e-002,
       -5.35323424e-003, -1.27007514e-002, -1.26919197e-003,
       -7.49004446e-003, -7.44890980e-003, -2.72995327e-003,
       -6.19845605e-003, -5.94888302e-003, -5.70972217e-003,
       7.08485907e-003, -5.82357962e-003, -2.68777320e-003,
       -1.89589069e-003, -2.25841301e-003, 7.64351571e-003,
       -8.34885170e-004, -4.66311816e-003, -3.19097773e-003,
       -1.17551461e-002, -7.57995015e-003, 9.13738215e-004,
       -1.24836864e-003, -2.37848191e-003, -9.50176455e-003,
       5.40257851e-003, 1.34950774e-002, 1.71054981e-003,
       1.18716725e-003, 3.14501231e-003, 3.06831896e-002,
       9.14203376e-003, 9.81028075e-004, -1.35364532e-002,
       -1.54427672e-003, -1.01937754e-002, -5.03301201e-003,
       -1.08273106e-003, -3.54058761e-003, -2.50693155e-003,
       -2.58381385e-003, 5.33056969e-004, 6.42391946e-003,
       -6.97561959e-003, -2.04558158e-003, -5.85859828e-003,
       7.37882731e-003, -4.42590611e-003, 5.93438419e-003,
       6.64325105e-003, -2.11764104e-003, 4.13839612e-003,
       -2.48783734e-003, -1.00465314e-002, -2.22735619e-003,
       -9.47695575e-004, 1.12956883e-002, 6.72723446e-003,
       -4.16817842e-003, -3.37029668e-003, 4.96839546e-003,
       -5.40312799e-003, -5.08178677e-003, 9.60627757e-003,
       -1.52091617e-002, 2.92163482e-003, 5.82462875e-003,
       -4.75421827e-003, -8.40283930e-003, 5.75571042e-003,
       2.11846433e-003, -3.71940644e-003, 7.20942719e-003,
       2.64734379e-003, 7.10842619e-003, -1.36758434e-004,
       8.17423221e-003, 3.46940779e-003, 7.57142110e-003,
       7.00386055e-003, -7.35983439e-003, 2.54207733e-003,
       -7.93402176e-003, -5.52362436e-003, -1.57381943e-003,
       -5.27885649e-003, -7.94900395e-003, -7.34239770e-003,
       4.05963743e-003, -5.00385417e-003, 7.28769274e-003,
       2.14089500e-003, 6.06507994e-003, 1.60229318e-002,
       -3.00050550e-003, -7.63291353e-003, -9.59831942e-003,
       5.73303131e-003, -3.17037990e-003, 9.53139551e-003,
       -2.25435331e-004, -1.76728668e-003, 6.15800964e-003,
       -4.44239657e-003, -4.12752572e-003, -9.02916491e-003,
       3.65705695e-003, 7.54830835e-004, 5.18865359e-004,
       -6.60370989e-003, -6.12974120e-003, -3.16713029e-003,
       -1.67558901e-002, 5.36660140e-004, -6.78135874e-003,
       -4.62924968e-003, -1.08201811e-002, 8.92736443e-006,
       -9.90834273e-003, -1.01835076e-002, -6.31297845e-003,
       -1.92306489e-002, 4.03454155e-003, -1.56783406e-002,
       -2.24522152e-003, -2.82125501e-003, 6.61055045e-003,
       -4.06597089e-003, -2.40597315e-003, -6.43424597e-003,
       -9.22534987e-003, 1.72120538e-002, -5.13804797e-003,
       -1.32694263e-002, -5.85548114e-003, 5.46390796e-003,
       -5.89807378e-003, -1.27723636e-002, -2.03527436e-002,
       -2.26137228e-002, 9.91253927e-003, 1.18807855e-003,
       -2.54112645e-003, 1.27904369e-002, 7.22176302e-003,
       1.16305593e-002, -2.83260713e-004, -4.56840359e-003,
       -1.47884730e-002, 1.75227728e-002, -6.73119118e-003,
       -2.33917916e-003, 6.70375710e-004, 1.67403314e-002,
       1.02141248e-002, 1.67720225e-002, 2.70948783e-002,
       -5.13184164e-003, -8.71275552e-003, -1.97975035e-003,
       -1.27858045e-002, -1.70087330e-002, -2.80889333e-003,
       7.18668057e-003, -7.50853971e-004, -6.61938963e-003,
       -2.05835588e-002, 9.44475830e-003, -4.99853631e-003,
       1.81973558e-002, 1.39980819e-002, 1.27555709e-002,
       5.00127394e-003, 3.99813335e-003, 1.50909098e-002,
       -5.68814110e-003, 5.78052318e-003, -7.30714295e-003,
       -4.38550906e-003, -3.09082889e-003, 4.05277777e-003,
       1.21359508e-002, 1.64201111e-002, 2.51535885e-002,
       2.85412953e-003, -1.27420360e-002, -3.75992339e-003,
       -1.61450878e-002, -1.57225505e-002, 3.48201045e-003,
       -3.04589304e-003, 5.66626526e-003, 1.55805713e-002,
       3.40303552e-004, 2.59876717e-002, 1.16755348e-002,
       4.43405658e-003, 5.28892037e-004, 3.37426155e-003,
       8.16200953e-003, 6.76271552e-003, 1.25939418e-002,
       -3.52413219e-004, -7.31837051e-003, -2.62431946e-004,
       -1.76472627e-002, -5.34423580e-003, -1.05963310e-003,
       -3.08372168e-004, 6.50019944e-003, 9.82804038e-003,
       7.36729288e-003, 2.11117417e-002, 4.67063393e-003,
       -5.54329390e-003, -6.88998355e-003, -6.29486796e-003,
       -9.03008692e-003, -9.21898242e-003, -1.10663576e-002,
       -9.01082996e-003, 1.94591116e-002, 1.77583247e-002,
       6.33393181e-003, 6.25961181e-003, 4.11903625e-003,
       -3.45376646e-003, -8.84550065e-003, -9.55933612e-003,
       -3.75638274e-003, 7.90048763e-003, -4.67196899e-003,
       6.64643449e-005, -3.32497526e-003, 3.10861762e-003,
       1.42576429e-003, -1.34333810e-002, -5.56507800e-003,
       -2.03231536e-003, 2.34705564e-002, 1.15174539e-002,
       -1.67553290e-003, -1.94815057e-003, 3.29702068e-003,
       -1.12388851e-002, -2.56457608e-002, -1.37634706e-002,
       -1.56513005e-002, 2.04531513e-002, 1.73841417e-002,
       7.19240261e-003, -3.51631688e-003, -6.92774949e-004,
       3.83552769e-003, -1.94550888e-003, -2.24471837e-003,
       -1.83335934e-002, -8.86308774e-003, -1.49506908e-002,
       -7.32407859e-003, -2.54730810e-003, 5.88180684e-003,
       1.99651113e-003, -8.22155457e-003, -3.45147052e-003,
       2.67335959e-003, 1.72787681e-002, -4.27869614e-003,
       -3.88884073e-004, -7.48951221e-003, 9.57015995e-003,
       -8.51144083e-003, -1.43963359e-002, -5.18372189e-003,
       -1.83271579e-002, -4.90440149e-003, 1.91553973e-003,
       1.89256459e-003, 1.50461588e-003, -6.01820298e-004,
       -5.44512691e-003, -1.17434720e-002, 9.43024002e-004,
       7.22549018e-003, 2.00205725e-002, 1.15069766e-002,
       7.48519436e-004, -3.74881522e-004, -7.08071236e-003,
       -1.00890351e-002, 3.04595334e-003, 1.32742552e-002,
       1.46182394e-002, 2.60091648e-002, 5.13581559e-003,
       1.13136433e-002, -4.25433135e-003, -4.62868623e-003,
       -6.58999709e-003, 2.85980129e-003, 1.60555094e-002,
       -2.67598927e-002, -2.05461010e-002, -1.76102426e-002,
       1.75190289e-002, 5.92977740e-003, -1.04900869e-003,
       -1.51253697e-002, -2.41780141e-003, 2.07739547e-002,
       4.38242871e-003, 4.03825305e-002, 1.19474735e-002,
       1.43777560e-002, 8.58594198e-003, -9.85165685e-003,
       -5.51301194e-003, -4.82306350e-003, 1.32437581e-002,
       -3.87847647e-002, -1.61935599e-003, -1.54653220e-002,
       1.18053118e-002, 2.70079519e-003, -1.27003361e-002,
       -7.05948332e-003, -1.76067825e-003, 1.43514657e-002,
       -1.90170594e-002, -1.91016700e-002, -7.43206544e-003,
       1.70869920e-002, 7.62318494e-003, 2.66747153e-003,
       -9.11747292e-003, 3.83126875e-003, 1.18686706e-002,
       -6.29249634e-003, 4.72848862e-003, -7.01762363e-003,
       7.87261128e-003, 7.41488207e-003, 1.57023023e-004,
       -1.59079637e-002, 2.93410732e-003, 1.20653436e-002,
       -1.55946976e-002, 3.80011881e-003, -3.07968527e-004,
       1.25364894e-002, 8.46536597e-004, -8.85488372e-003,
       -7.20119197e-003, 8.80985893e-003, 1.59028582e-002,
       -3.64062819e-003, 2.39108913e-002, -2.29829201e-003,
       7.97073543e-003, 2.56327889e-003, -9.22186021e-003,
       -1.16878366e-002, -4.88897879e-003, -1.88390166e-003,
       -9.26416309e-004, 2.82913470e-003, -6.26395363e-003,
       9.98076983e-004, 3.76060489e-003, -6.99105673e-003,
       -1.49314860e-002, -5.55651169e-003, -2.12725601e-003,
       -5.29295008e-004, 1.31435785e-003, -3.68799386e-003,
       1.60215925e-002, 1.02890225e-003, -7.53203314e-003,
       9.01402032e-004, -4.07580100e-003, -4.34271106e-003,
       -5.86418610e-004, 1.63116958e-002, -3.51212453e-003,
       4.77897329e-003, 4.93795425e-003, -6.39075367e-003,
       -3.13927955e-003, -1.63475610e-002, -1.29750010e-003,
       8.56983569e-003, 1.53708905e-002, 1.29196339e-003,
       5.94595040e-004, 2.77697039e-003, -3.44291772e-003,
       -1.14977192e-002, 1.63281907e-003, 8.72931350e-003,
       7.92914710e-004, -4.31793882e-003, -4.58500301e-003,
       5.29699959e-003, -5.94608113e-003, -9.68896225e-003,
       -5.78266103e-003, 4.18114476e-003, 7.61330780e-003,
       7.26392586e-003, 8.56765639e-003, -3.07031535e-003,
       4.99135954e-003, -4.73138317e-003, -6.20116666e-003,
       7.43690599e-003, 3.78674269e-003, 7.29538593e-003,
       7.53450533e-003, -6.66018622e-003, -3.41348420e-003,
       -9.17972717e-003, -6.20343443e-003, 3.59377638e-003,
       2.50796601e-003, 3.88965011e-003, 7.15840328e-003,
       7.55714672e-003, -1.25499088e-002, 3.60342651e-003,
       1.32648065e-003, -5.48539869e-003, 1.39370863e-003,
       5.28671918e-003, -3.58179957e-003, -4.78947815e-003,
       -4.03856579e-003, 7.58171082e-004, -6.25281362e-003,
       1.68981906e-002, -1.03777437e-003, 3.28139775e-003,
       6.27433788e-003, -2.39653699e-003, 5.89180551e-003,
       -5.17461542e-003, 2.44344468e-003, -1.10064261e-002,
       1.34609127e-002, 6.20563235e-003, -1.06245221e-003,
       9.49699059e-003, 4.42221033e-004, 1.11591360e-002,
       -1.01204608e-002, -8.93477723e-003, -1.14416974e-002,
       5.45331696e-003, -9.99042299e-003, 1.15065770e-002,
       2.21077502e-002, 3.18000838e-003, 9.84219648e-003,
       -1.23524424e-002, -6.23437623e-003, -2.17420924e-002,
       -1.42038176e-002, -1.10377036e-002, 2.58302838e-002,
       -1.58477505e-003, -2.40716990e-003, 6.86550420e-003,
       -1.71108439e-003, -6.45981636e-003, -1.09467804e-002,
       6.43626321e-003, 9.06843971e-003, -8.28813482e-003,
       -5.20519121e-003, -6.54099369e-003, -1.19318650e-003,
       -1.32183265e-002, 1.32606062e-003, 4.96993680e-003,
       -8.24602693e-003, -1.51183782e-003, -1.74105109e-003,
       1.63546074e-002, 6.68647978e-003, 5.55971032e-003,
       -9.03198496e-003, -6.32257340e-003, -1.52614079e-002,
       -1.45642720e-002, -1.11425174e-002, 2.17583980e-002,
       5.72620891e-003, -2.24642525e-003, 5.95736876e-003,
       -1.00526854e-003, 6.75940281e-003, 6.23011962e-004,
       -2.03654822e-002, -1.51917255e-002, 2.57726642e-003,
       8.61101435e-004, 9.52997827e-004, 2.50487705e-004,
       -1.03758816e-002, 1.83940083e-002, 1.23934140e-002,
       -7.63924420e-003, -6.10558549e-003, 6.54486939e-003,
       -8.46444722e-003, 6.38890546e-003, 1.10805510e-002,
       -1.97927561e-002, -2.84967967e-003, -6.59226265e-004,
       3.77138820e-003, -3.72973341e-003, -7.09590409e-003,
       1.60083231e-002, 9.71766596e-004, 6.31275680e-003,
       -9.86033352e-004, 1.11892028e-002, 8.45402852e-003,
       -5.35556069e-003, -3.23445559e-003, 1.16737159e-002,
       8.01756606e-003, 5.55203017e-003, 1.73364878e-002,
       -2.43837629e-002, -7.37366639e-003, 3.43339681e-003,
       -1.67377049e-003, -1.06155211e-002, 4.81501920e-003,
       -1.25070019e-002, 5.08902734e-003, 1.20518887e-002,
       -3.11842142e-003, 1.18769426e-003, 3.81612708e-003,
       2.18029344e-003, -6.89731119e-003, -1.88193787e-002,
       -7.51042040e-004, 2.66255368e-003, 1.24147972e-002,
       3.42464796e-003, -4.92462677e-005, 1.48344571e-002,
       7.10314792e-003, -1.21805286e-002, -1.15871439e-002,
       4.58065362e-004, -6.07445324e-003, 1.73764136e-002,
       -1.16399536e-002, -4.53513395e-003, -1.02724682e-003,
       -3.65543854e-003, -2.25085132e-002, -9.26031673e-004,
       1.25431009e-002, 5.26710901e-005, 7.70848710e-003,
       -1.30056101e-003, -7.37985596e-003, 4.72312048e-003,
       -3.94168729e-003, -1.31026022e-002, 1.70046836e-002,
       -6.79107732e-004, -3.20300274e-003, -3.22911190e-004,
       -4.77383751e-003, 3.64045775e-003, 1.76360887e-002,
       1.36063704e-002, -1.37984660e-003, -1.10549284e-002,
       -1.39587969e-002, 6.09255396e-004, -7.74501916e-003,
       -1.68480035e-002, -5.31453919e-003, 5.74972527e-003,
       5.71834762e-003, 1.82764186e-003, -8.86103045e-003,
       6.40414050e-003, -5.94670558e-003, -1.09150494e-002,
       -1.33434404e-002, 5.56459744e-003, 3.68883950e-003,
       5.58425067e-003, 1.41368043e-002, 1.23864897e-002,
       1.88069447e-004, 5.23041934e-003, 1.78275129e-003,
       -2.18778923e-002, -5.07894962e-004, -3.74673307e-003,
       1.67347130e-003, 1.72293913e-002, 8.46973713e-003,
       -6.26311405e-003, 6.30144076e-003, -2.86953477e-003,
       -1.18006412e-002, -1.00913048e-002, -4.35072789e-003,
       2.84872222e-004, -3.58325022e-004, -6.09284453e-003,
       3.01736360e-003, -7.56036118e-003, -4.40517731e-004,
       3.97193525e-003, -1.57137606e-002, 1.13039529e-002,
       1.17318407e-002, 1.49135338e-003, 7.47781951e-006,
       1.44350715e-002, 1.06015233e-002, 5.19762700e-003,
       -9.70044732e-003, -2.14286260e-002, -6.59524696e-004,
       -1.03502069e-002, 9.10143135e-004, 1.38496337e-002,
       2.37405207e-002, 2.65907543e-003, -8.33819993e-003,
       1.53586082e-003, -1.73448808e-002, 4.41597775e-003,
       3.96875665e-003, 6.10756176e-003, 1.67954322e-002,
       -4.17357404e-003, -2.28762217e-002, -9.61721502e-003,
       1.19822072e-002, -3.36773042e-003, 8.91210884e-003,
       1.04026068e-002, -7.33032729e-003, 3.60876950e-003,
       -1.09117040e-002, -8.52986425e-003, -6.76170690e-003,
       1.78404842e-002, -4.70744772e-003, 8.17989931e-003,
       1.01625277e-002, -1.49333393e-002, -5.33040846e-003,
       1.41010033e-002, -2.14239564e-002, -1.24414712e-002,
       7.12804915e-003, -2.48118700e-003, 3.31095653e-003,
       5.45687927e-003, -6.13557268e-003, 1.58418939e-002,
       9.98158660e-003, -2.02159937e-002, -8.97275656e-003,
       6.48977095e-003, -6.47457642e-003, 1.48313446e-002,
       -2.29936349e-003, -1.63750593e-002, 1.03806769e-002,
       -8.29991512e-003, -3.64668621e-003, -8.10023397e-003,
       6.54006610e-004, -3.66053451e-003, 6.45565474e-003,
       1.18577853e-003, -5.12702158e-003, -5.10790525e-003,
       -9.92170535e-003, 7.76733330e-004, -8.99790693e-003,
       1.03814679e-003, -1.33183869e-002, -1.56602031e-003,
       -1.37147028e-002, -2.23843311e-003, -1.02082491e-002,
       1.14416769e-002, -8.26438144e-003, -5.57938358e-003,
       -5.07177087e-003, -1.99025567e-003, 1.86318625e-002,
       -1.47470995e-003, -1.22039486e-002, 2.93379184e-003,
       3.45505984e-003, -8.04290175e-003, 2.76889303e-003,
       -4.39083017e-003, -2.05005854e-002, 1.35498233e-002,
       -4.11676522e-003, -5.46541112e-003, 1.80225167e-003,
       9.05033760e-003, 6.81616878e-003, -1.22183086e-002,
       6.44433172e-003, -1.75566096e-002, 6.32641197e-004,
       -1.90580904e-003, 1.59452464e-002, 4.55618277e-003,
       -4.53860080e-003, -5.68907242e-003, 4.51139454e-003,
       7.72961369e-003, -2.48957276e-002, 4.47415607e-003,
       3.59278219e-003, 1.46886548e-002, -1.49416577e-004,
       7.33609917e-003, 2.55349412e-004, -6.75668987e-003,
       5.49827470e-004, -7.79520255e-003, 1.82245951e-002,
       1.02246841e-002, 1.36139272e-002, 1.37123186e-002,
       -1.24483497e-003, 5.93655650e-003, 9.78833064e-003,
       2.31041852e-003, -1.60337109e-002, -3.46991722e-003,
       2.53152195e-002, 8.85990728e-003, -5.12940227e-004,
       -1.39482589e-002, -7.48487609e-003, -3.34990124e-004,
       3.43478145e-003, -1.88855082e-002, -1.79491006e-002,
       -7.11323833e-003, 9.37594450e-004, -1.38796102e-002,
       -9.21340659e-003, 6.54094154e-003, 1.07595436e-002,
       1.34575339e-002, -5.12950122e-003, -2.41693612e-002,
       -1.84534620e-002, -1.12940148e-002, -1.94999948e-002,
       -2.01735855e-003, -3.79909156e-003, 2.42487825e-002,
       1.19754318e-002, -8.88933800e-003, -1.05285645e-002,
       5.72815677e-003, -3.82060371e-003, -1.07036671e-002,
       -7.39583187e-003, -5.63731976e-003, 8.67238734e-003,
       1.52728092e-002, -8.10644217e-003, -5.96827315e-003,
       -9.85996239e-003, -1.51667846e-002, -6.01515826e-003,
       -4.01978800e-003, 1.26408199e-002, 3.70888738e-003,
       2.05636118e-002, -5.56403259e-003, -1.18344510e-002,
       -1.43251047e-002, -5.20974537e-003, -3.71518149e-003,
       -1.78912282e-003, -1.45384343e-003, -1.18800653e-002,
       -2.11608876e-003, -1.24440016e-002, -9.63105261e-003,
       -7.48363184e-003, -3.37891490e-003, 7.69939506e-003,
       -5.80018666e-003, -9.60606989e-003, 7.91233778e-003,
       2.14820951e-002, -1.14286263e-002, -6.81740697e-003,
       -1.59649793e-002, -9.31315497e-003, -5.70051931e-003,
       3.94933159e-003, -1.05276173e-002, -5.17926645e-003,
       5.54769626e-003, -8.65291990e-003, -1.43778082e-002,
       -1.46065140e-002, -1.40250362e-002, -1.30871224e-004,
       1.04660401e-002, 8.22917791e-005, -6.11805450e-003,
       -1.03030223e-002, -6.94917515e-003, -6.32527750e-003,
       1.56234636e-003, 2.72589445e-004, 1.32800508e-002,
       1.15749361e-002, -3.83202871e-003, 1.13300961e-002,
       7.83248513e-004, -7.75831006e-003, -6.18735189e-003,
       -4.21375781e-003, -2.49622227e-003, 2.45347456e-003,
       6.60006143e-003, -6.45752018e-003, -2.05889787e-003,
       -7.99162500e-003, 4.15511226e-004, -6.37135981e-003,
       -1.95293932e-003, -8.76309443e-003, 1.40820984e-002,
       -2.04768614e-003, -7.66090676e-003, 7.10946566e-004,
       -8.27132538e-003, -1.57894138e-002, -7.65800010e-003,
       -4.73355316e-003, -4.23583807e-003, -3.20855342e-003,
       -9.35827568e-003, 7.15973438e-004, 3.86243948e-004,
       7.49975629e-003, 1.73703637e-002, -2.59213411e-004,
       -1.09117236e-002, -8.37356132e-003, -6.44708239e-003,
       8.43876507e-004, -3.90702672e-003, 1.53020804e-003,
       -1.65873431e-002, 1.04005085e-002, -2.48723035e-003,
       -2.87825335e-003, -6.22374413e-004, 8.56264867e-003,
       -1.43545344e-002, -5.80879208e-003, -3.20831756e-003,
       1.61573011e-002, 1.58742070e-002, -7.56269740e-003,
       -2.66929511e-002, -2.35181041e-002, -1.65211000e-002,
       -1.55488346e-002, -1.07564335e-003, 5.86033380e-003,
       2.66343751e-003, 1.75201278e-002, -1.24880171e-003,
       -5.22026513e-003, -7.56708533e-003, -4.29495238e-003,
       -3.11150542e-003, -4.25138744e-003, -1.86208147e-003,
       -1.47198709e-002, 4.45660762e-003, -1.10900141e-002,
       1.05881756e-002, 9.11117811e-003, -1.92540814e-003,
       -1.89419184e-002, -5.30389557e-003, -8.73186567e-004,
       -7.44511373e-003, 3.99522716e-003, -1.66288950e-002,
       -6.36018952e-003, -2.69968723e-006, -1.53647251e-002,
       2.96266959e-003, 1.93973687e-002, 8.88187438e-003,
       4.60620504e-003, 1.48308678e-002, 2.97586480e-003,
       8.76419060e-003, 7.44503876e-003, -3.60332997e-005,
       -6.52334420e-003, 4.42298688e-003, 1.27616869e-002,
       -3.70030612e-004, 1.35661457e-002, 1.60332507e-004,
       -3.36210500e-003, -6.49157865e-003, -3.64347757e-003,
       -8.64340831e-003, -2.03151372e-003, -5.31577412e-003,
       1.44255278e-003, -1.64876576e-004, -3.85405356e-003,
       -1.53558468e-002, 5.02402312e-004, 1.99004123e-003,
       4.93194675e-003, 7.42277456e-003, 1.00371754e-002,
       4.43561235e-003, 9.42135882e-003, -1.15786409e-002,
       -1.04145184e-002, -7.36893388e-003, 3.92392976e-003,
       -8.33565276e-003, -1.55166711e-003, 6.82326173e-003,
       3.25798476e-003, 1.16442414e-002, 1.20753306e-003,
       5.56006678e-004, 2.88272789e-003, 2.76582385e-003,
       8.99694161e-004, 1.03957104e-002, 1.34115694e-002,
       1.30244531e-002, 1.47245284e-002, -5.62169775e-003,
       -7.78265344e-003, -7.55438989e-004, 4.94703092e-003,
       1.16838180e-002, 8.33147019e-003, 1.67028289e-002,
       8.15573521e-003, 1.22563085e-002, -6.53113332e-003,
       -9.25633067e-004, -7.09272875e-003, 4.93602827e-003,
       1.54456785e-002, -4.22467897e-003, -4.59123868e-003,
       -2.13958733e-002, -5.65272802e-003, 2.66851392e-003,
       6.51255297e-003, -5.97615913e-003, 1.35599310e-002,
       8.62432644e-003, 1.50131006e-002, 2.45591924e-002,
       1.26884039e-002, 1.55963730e-002, -8.42142571e-003,
       3.39122373e-003, -2.23410098e-004, 1.02408892e-002,
       2.41837204e-002, 6.06137887e-003, -3.44893686e-003,
       -2.62301471e-002, -2.04053000e-002, -1.16883153e-002,
       2.87399981e-002, 1.10310009e-002, 1.95742864e-002,
       3.64077440e-003, -6.15684781e-003, -1.53582105e-002,
       -2.02839859e-002, -8.57469998e-003, -4.23501246e-003,
       5.79020660e-003, -6.51856710e-004, -1.16930087e-003,
       5.93453355e-004, -1.12205371e-002, -9.50255059e-003,
       1.09297438e-002, 2.68015694e-002, 1.39654300e-003,
       5.05657634e-003, 1.81963237e-003, -4.88690613e-003,
       1.87288895e-002, 6.71264064e-003, 3.07032518e-004,
       -2.37324759e-002, -1.70163959e-002, -1.19707854e-002,
       1.69036686e-002, 2.10474827e-003, 1.83023443e-003,
       6.25745347e-003, 2.00981665e-002, 2.12591700e-002,
       2.79858187e-002, 5.12146112e-003, -7.12776976e-003,
       7.12064374e-003, -6.99079875e-003, -1.01561018e-003,
       -5.39339706e-003, -4.44203056e-003, 1.68961287e-002,
       5.60896937e-003, 3.10462862e-002, -2.84538954e-003,
       -2.23536487e-003, -2.03754310e-003, -8.79457314e-003,
       -2.29035481e-003, 8.29072087e-004, 1.76311042e-002,
       -2.53803264e-002, 4.60570352e-003, -2.24023666e-002,
       -9.24763922e-003, -6.99314056e-003, 9.21884610e-004,
       -1.87331345e-003, 1.05720758e-002, 1.48876496e-002,
       1.05162598e-002, 1.93364676e-002, -1.07236132e-002,
       4.80345869e-003, 6.95574970e-004, -9.30939615e-003,
       3.32964445e-003, 1.51919834e-002, 1.15152393e-002,
       -2.97472719e-002, 2.07205880e-002, -2.95663476e-002,
       -1.61420014e-002, -1.10433716e-003, 1.65010281e-002,
       -1.43274982e-002, -5.82609931e-003, 1.28684705e-002,
       -2.18466464e-002, 5.51840616e-003, -3.18687037e-003,
       9.16869147e-004, -5.52078057e-003, -1.01924175e-002,
       -1.57052837e-002, 3.56150814e-003, 9.49648395e-003,
       -2.53346795e-003, 1.34475091e-002, 2.14028917e-003,
       -3.03068059e-003, -2.52346066e-003, -1.49368532e-002,
       -5.69644757e-003, 9.46023688e-003, 6.52808836e-003,
       -2.51492299e-002, 1.41499136e-002, -5.08845737e-003,
       8.39971472e-003, -8.79161060e-003, 5.19306725e-003,
       -1.00857439e-003, 5.56558045e-003, 1.30483741e-002,
       1.15122402e-003, -4.99504153e-003, -2.05346174e-003,
       -2.07678531e-003, -8.81719682e-003, -8.34186096e-003,
       -2.92317849e-003, -1.20505029e-002, -9.32482816e-003,
       1.46976544e-003, 6.68707723e-003, 3.53136362e-004,
       -6.98172906e-003, -4.52125445e-003, -1.51493568e-002,
       -1.79589237e-003, -1.59508344e-002, -9.62019339e-003,
       9.29399300e-003, 5.12967771e-003, 6.70361985e-003,
       -4.93107131e-003, -5.20866690e-003, -9.39978845e-003,
       1.37678124e-002, -7.22299563e-003, -4.55358066e-003,
       -2.95699202e-003, -2.32861284e-002, -5.77703724e-003,
       -4.58037574e-003, -1.06909461e-002, 8.63415934e-003,
       1.44456951e-002, -1.06886001e-002, -1.44238696e-002,
       -1.19676460e-002, -1.62514225e-002, 8.13318603e-003,
       1.32076778e-002, 4.89749387e-003, 1.07010901e-002,
       -4.01954446e-003, 1.98353920e-003, -1.72304956e-003,
       5.75420121e-003, -6.75129285e-003, 5.35997795e-004,
       -1.04680778e-002, -1.11539317e-002, -2.68876646e-003,
       -8.17534234e-003, -1.98401837e-003, 5.41740214e-004,
       1.32328086e-002, -9.62282810e-003, -9.25205182e-004,
       -1.22326529e-002, -1.59106683e-002, -9.09436494e-003,
       1.09250639e-002, 6.28728373e-003, 3.53290210e-003,
       1.76043587e-003, -1.39524881e-002, -6.20215945e-003,
       -9.14547592e-003, -5.16775949e-003, -9.92820784e-003,
       1.25568109e-002, 6.09943084e-003, 1.07439291e-002,
       1.02942633e-002, -1.08195553e-002, -2.91241356e-003,
       -7.78262410e-003, -1.27740307e-002, 1.62883140e-002,
       -4.63011349e-003, 1.05979538e-003, 6.58643339e-003,
       3.33112571e-003, -6.67394465e-003, -2.46760435e-003,
       -1.32906381e-002, -1.77421998e-002, -3.95658333e-003,
       2.81272689e-003, -7.84162711e-003, -3.77830002e-003,
       -6.96646422e-003, -2.08560452e-002, -9.85536259e-003,
       -1.73992589e-002, -1.70164276e-002, 9.67776775e-003,
       1.35820732e-003, -3.71019327e-004, 8.30892660e-003,
       6.87341345e-003, -7.10522244e-003, -2.02249526e-003,
       -5.78167709e-003, -3.37362709e-003, 1.06084161e-002,
       8.03283881e-003, -1.16732167e-002, -4.07502288e-003,
       4.91506234e-003, -1.89741608e-002, 5.79215307e-003,
       -3.34482105e-003, 1.19838526e-003, 1.19017940e-002,
       1.23450551e-002, -4.56785318e-003, -1.24198366e-002,
       -6.50461670e-003, -2.13018488e-002, -6.04620902e-003,
       -1.29013555e-002, -1.37945348e-002, 2.08725091e-002,
       8.03336967e-003, -1.08976010e-002, -8.61069467e-003,
       -2.65106629e-003, -1.83777865e-002, 3.27555835e-003,
       -1.38566690e-002, -1.26664145e-002, 4.54264227e-003,
       4.55728872e-003, -5.66112529e-003, -6.30458025e-003,
       6.34841248e-003, -1.37660205e-002, 8.58433638e-003,
       -1.02723800e-002, -5.97380102e-003, 1.16293952e-002,
       9.92578920e-003, 1.19333770e-002, -9.79184266e-003,
       8.40209238e-003, -2.07969975e-002, 1.50701264e-003,
       -1.38286659e-002, -3.46940686e-003, 7.85443932e-003,
       7.65790418e-003, -3.57221137e-003, -8.15442950e-003,
       1.69849454e-003, -9.26085096e-003, 1.07831471e-002,
       -7.08571263e-003, -2.84617371e-003, 6.81564736e-004,
       4.43951320e-003, -7.38911657e-003, -1.55003918e-002,
       -1.57199800e-002, -2.02636272e-002, 1.31304003e-003,
       -9.85788554e-003, -1.46680605e-002, 1.68030115e-003,
       3.49290459e-003, -1.14307636e-002, -2.09243111e-002,
       8.00591544e-004, -8.15980695e-003, 1.49873579e-002,
       -9.48604476e-003, -6.08926360e-003, 5.48482500e-003,
       1.26355682e-002, -1.19813504e-002, -2.04355102e-002,
       -7.74678681e-003, -1.53595963e-002, 1.77532900e-002,
       -6.86929002e-003, -5.93911903e-003, -4.60598385e-003,
       3.17556015e-003, -1.24954013e-002, -4.98870714e-003,
       -1.08887674e-002, -6.26209984e-003, 2.02729879e-003,
       -2.34575989e-003, -2.01131608e-002, 4.51520691e-003,
       6.67948858e-004, -1.39781730e-002, -1.08123692e-002,
       -1.94532360e-004, -7.94470869e-003, 3.62389910e-005,
       -1.15316771e-002, -1.34665305e-002, 9.48662776e-003,
       4.62119142e-003, -1.02448883e-002, -5.28452499e-003,
       4.34377417e-003, 1.37246249e-003, 1.77652612e-002,
       6.99657109e-003, 2.35080300e-003, 1.59814227e-002,
       -1.77513901e-003, -1.13940770e-002, -7.40385894e-003,
       8.27039871e-003, -9.94682778e-003, 8.31839629e-003,
       -9.44797788e-003, -1.54584860e-002, 5.42163034e-004,
       2.46865535e-003, -6.61643082e-003, -1.89891383e-002,
       -1.13253882e-002, -2.21213722e-003, -1.75917544e-003,
       -5.93565172e-003, 1.01349065e-002, 1.16997529e-002,
       -4.95855790e-003, -2.24712328e-003, -8.11172242e-004,
       -1.31698297e-002, -6.72062673e-003, -3.94501863e-003,
       -9.62024275e-003, 1.43163586e-002, 8.26123822e-003,
       7.10540731e-003, -1.30353943e-002, -1.74068045e-002,
       -5.14729181e-004, -8.74013826e-003, 8.40688124e-003,
       2.36129836e-005, -3.17198667e-003, 1.22760572e-002,
       8.76502774e-004, -1.31216906e-002, -1.12404916e-002,
       -5.59989130e-003, -1.85194910e-002, 1.57003407e-003,
       -3.89857241e-003, 6.95737731e-003, 1.11286817e-002,
       -1.09075028e-002, -3.52385832e-004, -9.61688068e-003,
       -7.08058383e-003, -1.56348012e-002, -2.67900690e-003,
       -1.22575853e-002, -1.31388588e-004, 3.10106855e-003,
       3.51960515e-003, 1.04581192e-002, -4.48445440e-004,
       1.06692687e-002, -1.78736597e-002, 2.23768596e-003,
       -1.02049736e-002, -3.43241566e-003, 1.07010407e-003,
       -8.02221615e-003, -7.51919812e-003, -8.86114221e-003,
       1.01003749e-002, -1.15908887e-002, 2.54862406e-003,
       -2.60474393e-003, 4.59518796e-003, 6.97417324e-003,
       5.42905554e-003, -4.78368206e-003, 4.99191647e-003,
       1.73276290e-002, -2.26308033e-002, 7.15782447e-003,
       1.89481070e-003, -6.50628423e-003, 1.38382986e-002,
       5.61230874e-004, 7.51641928e-005, 1.95464375e-003,
       1.45877516e-002, -9.87506937e-003, -1.97586021e-003,
       -7.90583435e-003, -4.52208100e-003, -3.06255301e-003,
       -7.43121468e-003, -1.23825464e-002, -3.91869061e-003,
       6.31800806e-003, -3.74406017e-003, 5.94289415e-003,
       -5.54792304e-003, -4.83247917e-003, 7.63876643e-003,
       1.82805583e-002, -1.84313115e-003, -2.48372671e-003,
       1.29248230e-002, -1.78362727e-002, -3.14513617e-003,
       -7.94136524e-003, -1.17198834e-002, 2.86528319e-002,
       7.75684509e-003, -2.47853342e-002, -2.70746909e-002,
       2.80856946e-003, -1.35594178e-002, -1.48273760e-003,
       -7.76787801e-003, 2.83200498e-004, 2.05826648e-002,
       -9.19645838e-003, -9.71439108e-003, -4.66168160e-003,
       1.48951542e-003, 1.17911510e-002, 1.41770234e-002,
       -3.35152284e-003, -1.51707120e-002, -3.53546784e-004,
       -1.10025676e-002, -6.17766380e-003, -5.94640942e-003,
       6.61320006e-003, 7.88913108e-004, 9.82819963e-003,
       -2.24265619e-003, -1.22180562e-002, -4.43704473e-003,
       5.20775095e-003, -3.74855623e-002, -2.21812706e-002,
       7.15586310e-003, -1.08930469e-002, -2.28951382e-003,
       -5.10146748e-003, 2.94304918e-003, 2.18647663e-002,
       2.13474501e-003, -1.02327736e-002, -1.23321237e-002,
       1.04563599e-002, -4.92361747e-003, 1.08827495e-004,
       -7.44542014e-003, 1.28756138e-003, 1.18485149e-002,
       -1.19163804e-002, -4.76181926e-003, -7.78224180e-003,
       7.53120240e-003, 2.44683772e-003, 2.14963239e-002,
       6.53556176e-003, 1.44371856e-003, -5.36957663e-003,
       -6.90070679e-003, 2.37420341e-003, -4.36670991e-004,
       -1.17191339e-004, -1.50634479e-002, 1.05906921e-002,
       1.58386584e-002, 8.66617914e-003, -8.15936457e-003,
       -2.78290152e-003, 8.07339605e-003, -3.69881326e-003,
       4.24400717e-003, 4.32723209e-005, 1.39320493e-002,
       4.67779487e-003, 1.07533922e-002, 1.06294872e-002,
       -6.81231124e-003, 6.73346687e-003, -7.44045293e-003,
       -1.98191945e-002, -2.31647342e-002, 7.25752953e-003,
       3.85107636e-003, 1.71170384e-002, 2.63714441e-003,
       -5.57309715e-003, -4.86230850e-003, 1.56275611e-002,
       1.00853769e-002, -2.36511007e-002, -5.56585845e-003,
       1.05317333e-003, -1.28233824e-002, -6.96807262e-003,
       -6.52107783e-003, -9.57997143e-003, 3.27506522e-003,
       1.11691467e-002, -2.17217399e-004, 5.71657624e-003,
       -2.87420535e-003, -1.56821888e-002, -1.06611773e-002,
       -1.36283273e-002, 1.19064506e-002, 1.71891265e-002,
       3.41088977e-003, -2.71572322e-002, -1.36787035e-002,
       -1.22553995e-002, -1.59484230e-003, -2.88652186e-003,
       -1.13432249e-002, -1.41692359e-003, 1.27611673e-002,
       8.84702057e-003, -7.27199344e-003, 3.78892780e-003,
       -1.19947195e-002, -1.42117050e-002, -2.44602561e-002,
       -1.08088367e-003, -1.01041012e-002, 8.67481995e-003,
       4.11549443e-003, -9.15884972e-004, 4.65678424e-003,
       -2.48103379e-003, -1.83399173e-003, -6.58723991e-003,
       -6.44859718e-003, -1.84706133e-002, -9.99193639e-003,
       3.29726579e-004, 7.35303992e-003, -7.04225851e-003,
       -9.84061137e-003, -1.10984063e-002, -1.14631681e-002,
       -1.11647323e-002, -1.48956534e-002, 1.74197759e-002,
       1.19830314e-002, -4.00503166e-003, 4.54297150e-003,
       -5.06674964e-003, -9.26494040e-003, -2.01010481e-002,
       -2.32549477e-002, -1.73886642e-002, -2.70572910e-003,
       7.64750456e-003, 9.59688611e-003, -7.65309390e-003,
       -9.28471796e-003, -1.82001311e-002, -3.22406068e-002,
       1.23509793e-002, -5.59939025e-003, 8.96586105e-003,
       2.67320429e-003, 3.54081239e-005, -4.44261963e-003,
       -1.30413158e-003, -1.11421468e-002, 5.50893927e-003,
       7.37939635e-003, 5.03586326e-003, 4.31621447e-003,
       -1.24429744e-002, -1.95040181e-002, -1.19504491e-002,
       6.28034491e-003, -4.84875345e-005, 4.76834783e-003,
       -1.17544988e-002, -8.40452127e-003, 1.44964538e-003,
       2.09130999e-002, -5.37479483e-003, 2.53978232e-003,
       -1.37819431e-003, -1.20376823e-002, -2.86335554e-002,
       -3.93374963e-003, 7.80218455e-004, 1.31510280e-003,
       -5.05028618e-003, -1.31160216e-002, -8.00425000e-003,
       -5.35205181e-004, -1.73099281e-003, -3.79462517e-003,
       -1.09378751e-002, -9.29060392e-004, -7.82946125e-003,
       2.55922065e-003, 4.25196625e-003, -7.72720948e-003,
       -1.07086524e-002, -8.01420771e-003, -1.27394829e-004,
       -1.51834553e-002, 4.83944919e-003, 5.93827199e-003,
       -6.23040507e-003, -9.72173817e-004, -5.56276273e-003,
       8.90552124e-004, -2.70491058e-004, 3.41121713e-003,
       6.99101062e-003, 3.24179698e-003, -5.20507433e-003,
       -3.68518406e-003, 1.81127188e-003, 7.23583810e-003,
       -3.82302067e-004, -2.12797383e-003, 1.50031201e-003,
       8.22632108e-004, 6.88660052e-003, 6.32794434e-003,
       -1.53453108e-002, 6.15346828e-004, 6.92190486e-004,
       4.08591144e-003, -1.05124433e-002, -4.04325221e-003,
       -1.32979751e-002, 9.40097310e-003, -2.06369138e-003,
       -1.48061663e-003, 1.50220504e-003, 1.04831774e-002,
       2.18160474e-003, 9.16030537e-003, -1.41744893e-002,
       -5.34023112e-003, -1.80756324e-003, -1.54572157e-002,
       -7.40303937e-003, 5.66381635e-003, 6.75921794e-003,
       -2.28646398e-003, -1.51790783e-003, -2.57020853e-002,
       1.14996321e-002, 5.51380869e-003, 1.05709792e-003,
       -1.51761994e-002, 3.19403800e-004, 3.15990811e-003,
       -4.09220438e-003, -5.97199542e-004, 6.39756257e-003,
       9.64630395e-004, -9.79362230e-005, -5.19735133e-003,
       -1.45699293e-003, 1.09763937e-002, -3.83617938e-004,
       -3.57127539e-003, 8.77491385e-003, 1.17009794e-002,
       -8.42028670e-003, -1.44780809e-002, -8.30979180e-003,
       2.07693712e-003, -1.89830887e-003, -2.65934272e-003,
       -5.71128633e-003, -6.70447666e-003, -4.76498995e-003,
       -7.15103047e-003, -7.02171400e-003, 9.00081731e-003,
       8.69913679e-003, -8.00910220e-003, -3.46505572e-003,
       -1.31865293e-002, -1.67098306e-002, -5.63853886e-003,
       3.70011921e-003, -3.57816997e-003, 6.08341163e-003,
       3.84944957e-003, -1.57430966e-003, -6.41455641e-003,
       -9.03744530e-003, 1.59599690e-003, 1.87871363e-002,
       -5.73865836e-003, -9.47265886e-003, -4.54721088e-003,
       3.93056124e-003, -6.18519867e-003, 7.44924042e-003,
       -1.58866844e-003, -1.30046420e-002, 8.40659440e-003,
       2.68687285e-003, 7.54138408e-003, 1.16367582e-002,
       4.91331425e-003, -7.48681789e-003, -3.61929764e-003,
       -2.00607232e-003, -1.33875879e-002, -4.67140181e-003,
       1.34624010e-002, 2.39492441e-003, -5.21409512e-003,
       -1.10472078e-002, -2.40911245e-002, -1.70081425e-002,
       1.34993123e-003, -7.51717575e-003, 6.17776718e-003,
       1.05613926e-002, 7.12194061e-003, 4.07099677e-003,
       3.38348304e-003, 3.27704195e-003, 5.75247034e-003,
       8.33513029e-003, -1.42188901e-002, -3.81562230e-003,
       2.45288629e-002, 5.34005743e-003, -6.09409530e-003,
       2.35517020e-003, 7.97362253e-003, 8.68998934e-004,
       9.82711371e-003, -4.59067477e-003, 6.75643655e-003,
       8.64766166e-003, -2.05611927e-003, 3.77115374e-003,
       -1.80517766e-003, -1.06156534e-002, -1.65170338e-002,
       -4.65882150e-003, -1.57415271e-002, -7.17772357e-003,
       -1.01664681e-002, 1.85931213e-002, 1.42721971e-002,
       2.20114589e-002, 1.76513905e-003, -6.49981201e-003,
       -5.49280201e-004, -9.46454611e-003, -1.69886500e-002,
       1.88261122e-002, -1.68708619e-002, -1.59462765e-002,
       -1.72865042e-003, 8.82762391e-003, 4.60867211e-003,
       3.47765419e-003, -9.75626614e-003, 1.15731573e-002,
       1.24711217e-003, -2.13228515e-003, 2.49340758e-003,
       1.17883366e-002, 1.72329396e-002, 4.82093124e-003,
       -5.20313733e-005, -6.72270358e-003, 3.02008353e-004,
       -9.03687067e-003, 6.05935790e-003, 5.42157977e-005,
       7.08964374e-003, -2.36768206e-003, -1.33382957e-002,
       -2.81939656e-003, 1.06187386e-003, -9.10439529e-003,
       -9.67345107e-003, -6.22191932e-003, -4.07377258e-003,
       -1.18024452e-002, -9.93085280e-003, -2.78110001e-002,
       -4.17090906e-003, 2.59096338e-003, -4.15715855e-003,
       8.59431922e-003, 1.11762993e-002, 6.79362984e-003,
       1.18233031e-002, 1.28391320e-002, -8.05365015e-003,
       -1.16740093e-002, -4.38576285e-003, 3.42868408e-003,
       2.00623274e-002, 1.76888239e-003, -4.94018989e-003,
       -3.92806530e-003, -4.55720583e-003, -8.87319911e-003,
       -1.37998404e-005, 5.93138253e-003, 4.38299309e-003,
       5.99295250e-004, -1.14961686e-002, -2.86975992e-003,
       -1.21792620e-002, -4.46518138e-003, -2.47358084e-002,
       5.31869149e-003, -1.85287709e-003, 5.69539424e-003,
       9.47823934e-003, -8.35143402e-003, -9.51279514e-003,
       -6.48615975e-003, -1.28224446e-002, -1.20170107e-002,
       -4.47715726e-003, -3.10843228e-004, -3.42973205e-003,
       1.93585064e-002, -1.55736553e-003, -3.20393685e-003,
       -8.54532514e-003, -1.07190525e-002, -3.53112184e-002,
       1.20726116e-002, 2.53670104e-002, 2.04762537e-002,
       1.50798708e-002, -6.66144397e-003, -1.72410756e-002,
       -8.74693412e-003, -2.32153460e-002, -1.85759626e-002,
       -3.25013883e-003, 9.39602312e-003, 7.30023626e-003,
       8.40973202e-003, -4.24612034e-003, -4.50462522e-003,
       -1.36286113e-002, -2.61830650e-002, -1.02908239e-002,
       -4.33382532e-003, -4.22565592e-003, -1.38347829e-003,
       7.90834799e-003, -1.18168280e-003, -1.41950836e-002,
       -1.31412726e-002, -2.51913909e-002, -2.32092524e-003,
       -1.45657721e-003, -1.21082435e-003, 1.89799210e-003,
       1.40944927e-003, 5.96690783e-003, -9.27269179e-003,
       -4.02477849e-003, -2.56727710e-002, -2.04558065e-003,
       1.39349815e-003, 1.26824416e-002, -4.24879603e-003,
       3.98806203e-003, 2.12807320e-002, -6.84637111e-003,
       8.97771399e-003, -3.26157846e-002, 5.90302236e-003,
       1.24252886e-002, 1.80645566e-002, 5.25532640e-004,
       -2.75101815e-003, 8.44004005e-003, 4.12747962e-003,
       7.88833108e-003, -1.10619990e-002, -5.42690605e-003,
       -1.17778629e-002, -7.69242970e-003, -1.53664649e-002,
       -1.36887850e-002, 6.67582545e-003, 7.07749045e-003,
       9.57150885e-004, -7.79635552e-003, -3.53903766e-003,
       -5.11919614e-003, -1.10520581e-002, -2.06855275e-002,
       3.81880323e-003, 2.44778916e-002, 3.18264053e-003,
       1.33607956e-002, -2.57627834e-002, 2.84925918e-003,
       3.86048364e-003, 1.17623567e-004, -2.44175713e-003,
       -8.63631547e-004, 2.39157248e-002, 5.36472397e-003,
       1.54082983e-004, -1.19035244e-002, -6.06349949e-003,
       -4.37595835e-003, -1.22376187e-002, -1.60976462e-002,
       -4.40489128e-003, -4.16187476e-003, 2.38468894e-003,
       1.42854662e-003, 9.87356179e-004, 1.16062118e-003,
       -1.05833067e-002, -1.17873335e-002, -1.50468769e-002,
       9.31299850e-003, -4.55754250e-003, -5.80137456e-003,
       4.68222005e-003, -1.02771483e-002, -3.70051246e-003,
       -1.44900680e-002, -2.62939483e-002, -2.43638884e-002,
       1.17721837e-002, -1.34664506e-003, -1.03251263e-002,
       -5.04464749e-003, -8.47960729e-003, 1.13383504e-002,
       1.32678403e-003, -3.62290244e-004, 1.68552215e-003,
       7.87762180e-003, -9.05360281e-003, -1.33307558e-002,
       -8.17482173e-003, -2.03304980e-002, 5.72194206e-003,
       -7.27193197e-003, -1.66318808e-002, -1.02464948e-002,
       1.84459146e-002, 8.35822988e-003, 3.45583889e-003,
       1.18006906e-002, -5.33371093e-003, 1.64534915e-002,
       -6.23405073e-003, -1.86336320e-002, -1.46682290e-002,
       1.48460763e-002, 1.28983762e-002, -3.03624407e-003,
       1.22880358e-002, -1.31408859e-003, 1.36598544e-002,
       -7.39903189e-003, -1.09814731e-002, -2.16129399e-003,
       5.39790886e-003, 1.33841147e-003, -3.84510844e-003,
       5.69623243e-003, -1.16396593e-002, 1.28484052e-002,
       -9.33939684e-003, -2.53302213e-002, -4.74457489e-003,
       1.92764476e-002, -9.36094485e-003, -1.50710503e-002,
       9.23512387e-004, -1.12369442e-002, 1.39418328e-002,
       -6.66064257e-003, -1.96318477e-002, -1.03379665e-002,
       2.66641323e-002, -5.01343049e-003, -1.71949361e-002,
       8.23568832e-003, 3.13473982e-003, 1.55605394e-002,
       1.03598595e-005, -5.53049194e-003, -4.42885375e-003,
       1.22814355e-002, -6.76800357e-003, -1.12852110e-002,
       5.65211568e-003, -4.88935411e-003, 1.77519508e-002,
       1.26618973e-003, -3.31768836e-003, -1.87147618e-003,
       1.24828815e-002, -8.45446996e-003, -1.79137420e-002,
       3.00372089e-003, -1.34646082e-002, 1.01212319e-002,
       4.45473893e-003, 1.09901221e-003, -2.91937235e-004,
       2.89648422e-003, -4.90549533e-003, -9.13031679e-003,
       1.00523494e-002, -1.92413647e-002, 7.23762350e-005,
       -5.08275069e-003, 7.59846764e-003, -5.04665170e-003,
       -8.11581500e-003, -9.39081516e-003, -1.19562130e-002,
       1.06164794e-002, -1.16260094e-003, 1.27738742e-002,
       4.81073558e-003, 4.75986814e-003, 8.67872499e-003,
       -1.27928155e-002, -5.44731412e-003, -1.00262398e-002,
       6.67254534e-003, -9.33517329e-003, 9.04527027e-003,
       -7.02881347e-003, -2.46023433e-003, -7.09923857e-004,
       -2.29004095e-003, -6.44862652e-003, -1.76803046e-003,
       9.66485962e-003, -1.62666533e-002, -3.92161403e-003,
       3.31174419e-003, 1.50002688e-002, 5.70102129e-003,
       -1.97207499e-002, 2.48472462e-003, -9.20171477e-003,
       -4.09502827e-004, -2.50596628e-002, 8.06393859e-004,
       3.35317291e-003, 1.05291083e-002, 2.58414121e-003,
       -6.55393407e-004, -3.12349922e-003, -1.45398239e-002,
       -3.87867377e-003, -6.26355968e-003, 1.05409762e-002,
       -1.38540068e-004, 5.53395506e-003, -7.17540365e-003,
       -1.19899800e-002, -4.59823152e-003, -1.23710996e-002,
       2.47585442e-004, -1.68259826e-003, 5.74013684e-003,
       -6.79782685e-003, 7.17420690e-003, 3.07989004e-003,
       -8.84171203e-003, 6.88594591e-004, -7.85469636e-003,
       -3.47129325e-003, -6.67950977e-003, 1.53073110e-002,
       -4.95053641e-003, -4.59616102e-004, -2.93736882e-003,
       -1.11528309e-002, -3.25700198e-003, -8.40871688e-003,
       2.99863494e-003, 8.88162525e-004, 5.68268169e-003,
       -1.56967789e-002, -4.53052809e-003, 6.62854034e-003,
       -7.21678231e-003, -1.26924645e-002, -1.53308958e-002,
       -6.81576785e-005, -1.23178465e-002, 8.82487837e-003,
       -4.59180959e-003, 3.68426641e-004, 3.65751353e-003,
       -3.35025624e-003, -8.69888719e-003, -7.17339432e-003,
       6.34411257e-003, -1.80481039e-002, 1.04703465e-002,
       -3.05005698e-003, -5.50323073e-003, 1.18585844e-002,
       -4.71055182e-003, -1.44269727e-002, -1.88651737e-002,
       -1.66728359e-003, -5.00477245e-003, -4.29065758e-003,
       -1.22433435e-002, -5.14090061e-003, 7.67867127e-003,
       9.54547711e-003, 3.96002829e-003, -1.14007108e-002,
       2.17812005e-002, -1.40158506e-003, 5.63062727e-004,
       -1.71296932e-002, -7.61258602e-003, 1.13120368e-002,
       2.19712798e-002, -6.56612450e-003, -3.43892793e-003,
       1.18644452e-002, -1.24410912e-002, 9.10865318e-004,
       -1.44765470e-002, -1.68004595e-002, 2.34527644e-002,
       5.64005598e-003, -3.01002972e-002, -2.65551694e-002,
       -9.71554546e-004, -1.41718173e-002, -2.00415659e-003,
       -3.04740090e-002, -9.97189805e-003, 2.41114125e-002,
       1.40778320e-002, 6.36121910e-003, -3.21943522e-003,
       2.43024481e-003, -7.80468341e-003, 5.86034451e-003,
       -9.00131930e-003, -3.57805844e-003, 1.65150203e-002,
       8.39645602e-003, 2.15385429e-004, 6.36710669e-004,
       -5.98799845e-004, -2.36892924e-002, -1.24903638e-002,
       -3.36460844e-002, 4.22866782e-004, 1.14645045e-002,
       -7.12423492e-003, -2.10818183e-002, -2.31739767e-002,
       5.25901443e-004, -1.60413757e-002, 1.20985834e-003,
       -1.26106776e-002, 5.61434252e-004, 1.67528279e-002,
       5.36641898e-003, -1.03584994e-002, -2.48909369e-002,
       -1.09326011e-002, -1.50853386e-002, 2.00452865e-003,
       -4.72490618e-004, -4.63174609e-003, 1.83473360e-002,
       1.48434266e-002, 9.32837930e-003, 1.00795254e-002,
       1.17361806e-002, -1.57540385e-002, -1.97851509e-002,
       -2.49657836e-002, -1.12131480e-002, 1.43329464e-002,
       3.41796875e-003, -9.99941607e-004, 3.38996970e-003,
       9.84926056e-003, -4.09332057e-003, -7.19630253e-003,
       3.39599303e-003, -4.88844793e-003, 8.33805464e-003,
       1.94575381e-003, -1.64298841e-003, -1.19998530e-002,
       -1.71073042e-002, -1.49654401e-002, -4.26300569e-003,
       5.15272981e-003, -4.65166941e-003, 1.51413539e-002,
       -5.46219107e-003, -7.38675892e-003, -1.82721335e-002,
       -1.37757454e-002, -2.70989239e-002, -6.43191580e-003,
       6.86500594e-003, 1.33095658e-003, 5.58699481e-003,
       3.76939401e-003, -1.17094340e-002, 5.46852453e-003,
       3.64016683e-004, -1.24947823e-004, 1.09548066e-002,
       2.49508917e-002, 1.10488816e-003, 8.32113205e-004,
       -7.81160221e-003, -1.02885691e-002, -6.27551461e-003,
       1.30322715e-002, -2.86291377e-003, 5.40276617e-003,
       5.84730599e-003, -2.06754357e-003, -6.51993556e-003,
       -4.86843614e-003, 7.37503171e-003, 4.30503720e-003,
       1.23127992e-003, -1.54249202e-002, -3.42522399e-003,
       -3.12320748e-003, 1.91370572e-003, 1.23115163e-002,
       -3.61579051e-003, -2.91574164e-004, 1.73052233e-002,
       1.89178847e-002, -1.10219177e-002, 1.28564751e-003,
       -1.34411603e-002, -1.87199246e-002, -1.28907785e-002,
       -2.36788522e-002, -1.05570033e-002, -8.38776492e-003,
       1.48598859e-002, -4.67877631e-004, -2.70087901e-003,
       -1.68722719e-002, 1.76958111e-003, -1.62297338e-002,
       -2.50618029e-002, 6.69751971e-005, -7.18926638e-003,
       1.51154604e-002, -1.97447725e-002, -1.23157743e-002,
       -1.99641772e-002, -2.77322624e-002, -2.36957353e-002,
       4.69410094e-003, -9.24372952e-003, 1.17606735e-002,
       9.68236942e-003, -8.49507004e-003, -1.37116655e-003,
       -3.64371156e-003, -1.14663830e-002, -3.47894570e-003,
       -9.99420136e-003, -1.17946975e-002, 6.09266944e-003,
       -1.78146781e-003, -7.30935717e-004, -7.83867948e-003,
       -1.44313043e-002, -2.09127031e-002, -5.48577309e-003,
       -7.03254528e-003, 3.50077846e-003, 1.11802109e-003,
       -2.02498212e-003, -9.02288780e-003, 2.79321219e-003,
       -5.41999796e-003, -1.38727222e-002, -5.50412945e-003,
       -3.59558081e-003, -1.41532719e-002, -5.97763946e-003,
       -9.56562720e-003, -7.30400346e-003, 1.14359995e-002,
       2.41797417e-003, -5.14594978e-003, 4.14284616e-004,
       5.10897487e-003, -5.66162681e-003, -5.11002087e-004,
       1.19187161e-002, -3.64846853e-003, 6.10729738e-004,
       -3.97310685e-003, -4.86719795e-003, -9.33373440e-003,
       1.89943817e-002, 1.62522923e-002, 3.81859322e-003,
       -3.60180187e-004, -1.43478103e-002, -1.59700159e-002,
       -1.49050383e-002, -5.11917938e-003, 1.60431061e-002,
       3.23372358e-003, -7.58489314e-003, -7.65514746e-003,
       9.00147279e-005, -9.66602471e-003, 6.28906954e-003,
       1.05910618e-002, 5.16006211e-003, -1.44288351e-003,
       2.29638885e-003, -6.98060263e-003, -3.21797212e-003,
       -6.48362655e-003, 1.77158124e-003, -9.82183497e-003,
       -8.57343990e-003, -7.85836857e-003, 1.64807495e-003,
       -6.37972262e-003, -1.22472327e-002, -4.83036786e-003,
       1.33579019e-002, 2.31971461e-002, 7.75137730e-003,
       1.04328496e-002, 1.53547414e-002, -7.23300362e-003,
       -6.67445548e-003, -1.05167106e-002, 6.35563582e-003,
       -4.78599779e-003, 6.97551935e-004, 9.20934882e-003,
       1.70201901e-002, 2.13178806e-002, -1.84859720e-003,
       -6.80547720e-003, -1.64680313e-002, -4.52767638e-003,
       1.76935662e-002, 1.45754041e-002, 8.83812178e-003,
       -7.54654640e-004, 8.02700967e-003, -1.08386660e-002,
       3.96499922e-003, -2.33990252e-002, 3.84593662e-003,
       1.89303898e-003, -3.31049250e-003, 2.58908048e-003,
       9.46610793e-003, 2.13670023e-002, 4.57730237e-003,
       2.51198560e-003, -4.80765710e-003, 8.30863696e-003,
       -7.40913721e-003, -3.15611623e-003, 3.72587150e-004,
       2.99605727e-003, 3.32441810e-003, 2.33312254e-003,
       8.57197307e-003, 5.97817125e-003, 1.82741247e-002,
       9.24734585e-003, 2.18719281e-002, -4.71102679e-003,
       3.17728496e-003, 5.75555535e-003, 1.47586968e-002,
       7.57440226e-003, -9.44040157e-003, 5.82120754e-003,
       4.02899896e-004, -8.12011212e-003, -4.31138230e-003,
       -9.49040148e-003, -3.27032525e-003, 8.03877972e-003,
       -5.09814452e-003, -1.18347583e-002, 6.93272380e-003,
       9.39973444e-003, -3.30543087e-004, -3.79818282e-003,
       -1.84504725e-002, -7.05288677e-003, -4.40328335e-003,
       2.60385219e-002, 7.79234385e-003, 1.65881570e-002,
       5.74431708e-003, 1.08259972e-002, -2.01350823e-003,
       1.32419297e-003, 1.38032087e-003, 1.86880343e-002,
       2.05471963e-002, 6.03437377e-003, 1.33133726e-003,
       -6.74938131e-003, 3.18417978e-003, 6.11800747e-003,
       -2.49789143e-003, -5.53140743e-003, 1.31183276e-002,
       1.13400109e-002, -1.34734521e-002, 2.68325838e-003,
       1.42166521e-002, -5.48388157e-003, 5.03742229e-003,
       -1.22946715e-002, 4.15589567e-003, 4.49498976e-003,
       3.04155331e-003, 3.86838056e-003, -7.09282095e-003,
       1.01895188e-003, -9.16981604e-003, 2.43855175e-003,
       -1.17093343e-002, 5.07834274e-003, 3.11887916e-003,
       1.20259430e-002, 2.98174506e-004, -4.98778606e-003,
       5.72773814e-003, -3.27586051e-004, -1.06934272e-003,
       3.36134527e-003, -8.16775206e-003, 6.78022904e-003,
       4.49238950e-003, -7.64618628e-003, -7.56334281e-003,
       6.72241719e-003, -1.32760443e-002, 2.23672832e-003,
       8.80448427e-003, 3.29588004e-003, 1.28346859e-002,
       6.19602902e-003, 6.10213960e-003, -1.93887809e-003,
       4.60397685e-003, -4.77329455e-003, 1.39185181e-002,
       -6.52483257e-004, 4.71344544e-003, 1.76842585e-002,
       8.35467689e-003, -1.65423173e-002, -9.46684089e-003,
       -3.40248778e-004, -1.39306467e-002, 2.44566612e-002,
       1.27720395e-002, 6.09437982e-003, 8.72300193e-003,
       -1.39242569e-002, -1.64246522e-002, -2.63492740e-003,
       9.66576044e-004, -9.09506530e-003, 1.05310353e-002,
       7.32555613e-003, 5.21405227e-003, -1.03509717e-003,
       -7.15303281e-003, -3.91352782e-003, -4.66316426e-003,
       2.07500486e-003, -9.05139372e-003, 1.05723285e-003,
       -6.34377450e-003, -1.12134439e-003, -1.37228018e-003,
       5.79732889e-003, -1.60613712e-002, -4.56289155e-003,
       1.97637756e-003, -9.86671541e-003, 1.22591294e-002,
       1.12911845e-002, 3.54788755e-003, 1.14907091e-002,
       9.33272019e-003, -3.59720411e-003, 1.20006446e-002,
       2.18743384e-002, 1.79917563e-003, 1.64544191e-002,
       -8.99702404e-003, 9.38112289e-003, 6.10313378e-003,
       -1.03234435e-002, 7.05459272e-004, 6.49918395e-004,
       -2.26435834e-003, -5.61708631e-003, -1.14661444e-003,
       -8.48462991e-003, -3.72086489e-003, -6.92851236e-003,
       2.23388779e-004, -3.76393716e-003, 2.05880613e-003,
       -5.93185239e-003, -9.09572188e-003, -2.73887068e-003,
       -3.96542298e-003, -4.94342064e-003, -6.66242279e-003,
       1.09438337e-002, 4.40195529e-003, 9.68174078e-003,
       4.41251881e-003, -2.05704407e-003, 2.04967372e-002,
       -1.51693802e-002, 5.96060697e-003, -1.14839396e-003,
       5.33523643e-003, 3.54428450e-003, 1.57439299e-002,
       1.97925214e-002, -8.51971935e-003, 5.47804218e-003,
       -5.05495677e-003, -1.12859672e-002, -1.21034365e-002,
       8.01354181e-003, 1.56485401e-002, 9.22170375e-003,
       2.53621140e-003, -2.13573431e-003, 5.79577580e-004,
       6.10918738e-003, 9.69802681e-003, 1.04910685e-002,
       -1.38724013e-003, 1.87294781e-002, -4.34848759e-003,
       -5.68682700e-003, -1.98602453e-002, -8.96974816e-004,
       -6.09351834e-003, 3.26078292e-003, 7.81977084e-003,
       1.44565608e-002, 1.78927649e-002, 2.33878661e-002,
       1.42336413e-002, 3.68134235e-003, 5.24906674e-003,
       -8.75476981e-004, 4.14984021e-003, -2.25545766e-004,
       3.81006533e-003, 1.43131670e-002, -6.72907569e-003,
       -1.58102624e-002, -1.48236770e-002, 4.53460915e-003,
       -1.97179466e-002, -1.29953427e-002, -1.10314051e-002,
       -5.95949404e-003, 1.86084080e-002, 3.67660099e-003,
       4.34662960e-003, -1.79514773e-002, -9.88376909e-004,
       3.77470464e-003, 6.28396124e-003, -2.29514996e-003,
       1.18244421e-002, 3.70071679e-002, 1.29210791e-002,
       6.72089681e-003, -1.81696974e-002, 3.66487191e-003,
       5.85098751e-003, 1.23392707e-002, 9.59567609e-004,
       4.04674048e-003, 5.66154392e-003, -2.94992467e-003,
       -8.63382127e-003, -1.86400600e-002, -4.36074147e-003,
       -1.05890408e-002, -9.97816771e-003, -1.04474714e-002,
       6.00627018e-003, 2.46448517e-002, 1.19700199e-002,
       2.73521221e-003, 1.12762721e-003, 1.67463825e-003,
       -4.11429768e-003, 3.97762051e-003, 5.45438938e-003,
       3.26260459e-003, 2.95194704e-002, 6.28948212e-003,
       -5.01215318e-003, -1.63385309e-002, 4.13321238e-003,
       -3.29498039e-003, 1.72522466e-003, 1.54193968e-003,
       4.35467158e-003, 1.01989498e-002, -2.35084095e-003,
       1.10815503e-002, -2.22279807e-003, -1.49641454e-003,
       9.93719907e-004, 4.50546294e-003, -8.07566685e-004,
       -8.36920086e-003, 6.57623820e-003, 3.72431683e-003,
       -2.09811423e-003, -1.47357844e-002, 4.42999508e-003,
       -6.63351035e-003, 6.58651406e-005, -4.34693880e-003,
       -3.33901378e-003, 5.83945354e-003, -2.10712533e-002,
       -4.74224798e-003, 7.28082797e-003, -7.85488915e-003,
       -1.19452653e-002, -6.18860824e-003, -1.48904631e-002,
       1.21979397e-002, 1.06175058e-003, -6.39656698e-003,
       1.39927473e-002, 5.45869116e-003, 5.34908613e-003,
       6.67666132e-003, 2.65657203e-003, -3.21925827e-003,
       1.80557792e-004, -1.85742043e-002, -2.45747436e-002,
       -4.09535319e-003, -2.14623380e-002, 9.67879687e-003,
       1.10218497e-002, -3.47376405e-003, -2.84462888e-003,
       -6.12828042e-003, 9.15023685e-003, -6.87090587e-003,
       5.41657582e-003, 7.98737106e-004, 7.32637360e-004,
       -9.06249043e-003, -1.00670448e-002, -1.83569863e-002,
       -9.95624065e-003, -1.51823973e-002, -1.41766993e-002,
       8.35888088e-003, -6.27497211e-003, 2.44388706e-004,
       3.07874614e-003, 6.28849817e-003, -6.56632800e-003,
       2.74408446e-003, -1.83437411e-002, -1.67170670e-002,
       7.39736424e-004, -1.79696232e-002, 6.23923028e-003,
       -5.10361744e-004, -1.29674384e-002, -4.19080516e-006,
       1.50732808e-002, -1.32172573e-002, -1.24656521e-002,
       -5.65712294e-003, -1.60806142e-002, 6.33977866e-003,
       -1.04609709e-002, -1.73263513e-002, -8.29064939e-003,
       1.83293018e-002, -1.43617485e-002, -5.50105469e-003,
       1.13217626e-002, -2.07413156e-002, -6.68449677e-004,
       5.16348565e-003, 1.57883074e-002, 2.61576027e-002,
       2.87427865e-002, 5.79542108e-003, 3.56412306e-003,
       1.36310430e-002, -1.56395473e-002, -2.40385951e-003,
       -9.20382421e-003, 8.62014305e-004, 2.69529596e-002,
       8.99311248e-003, -1.08111203e-002, -2.12624203e-002,
       -1.10946107e-003, -1.41887600e-002, -1.50225149e-003,
       -6.98173977e-003, -8.14975798e-003, -1.11170011e-002,
       4.39487537e-003, -9.56407562e-003, -1.66705884e-002,
       6.80541247e-003, -1.35277249e-002, -7.72389350e-003,
       -1.53529663e-002, -5.06426906e-004, -9.21784248e-003,
       1.84048489e-002, 8.00299807e-004, -5.99189661e-003,
       3.81034752e-003, -1.01311393e-002, -4.97817434e-003,
       -1.54838897e-002, -5.31460624e-003, 2.32709702e-002,
       2.26536021e-003, -1.21433623e-002, -1.30213425e-002,
       9.06587113e-003, -7.57099222e-003, -9.31952335e-003,
       -1.11196116e-002, 2.17997725e-003, 1.08631756e-002,
       -7.41933519e-003, -8.56081955e-003, 4.12624941e-004,
       1.31752416e-002, -1.15463437e-004, -3.58078466e-003,
       -7.78320199e-003, 8.77398532e-003, 1.89262861e-003,
       -1.41631989e-002, -8.30321852e-003, -3.20542348e-003,
       1.38647854e-003, -1.24843633e-002, -1.56607516e-002,
       -1.66225508e-002, -7.20572891e-004, 1.33242132e-002,
       -2.52215983e-003, -8.55050422e-003, -3.41680832e-003,
       1.62209887e-002, 4.39370424e-003, -1.09270839e-002,
       -1.05927438e-002, 7.08375638e-003, 1.01138875e-002,
       -8.30999482e-003, -1.70911029e-002, 4.73730406e-003,
       1.07886856e-002, -8.09809752e-003, -2.39066575e-002,
       -2.08641626e-002, -5.55898041e-005, 1.12303980e-002,
       -3.68678221e-003, -4.81352583e-003, -7.50019355e-003,
       8.46973388e-004, 1.93107303e-003, -6.27545873e-003,
       -1.49930399e-002, -7.02876039e-003, -3.32827633e-003,
       6.68953313e-003, 7.33986450e-003, -9.35764145e-003,
       1.09582329e-002, 7.98005611e-004, -2.73215992e-004,
       -8.94484296e-003, -3.45117948e-003, 2.08500191e-003,
       -7.98496418e-004, -1.12226056e-002, -5.77069074e-003,
       -4.95281210e-003, -3.25835217e-003, -1.27842594e-002,
       -1.38805583e-002, -1.47613359e-003, -2.79464177e-004,
       1.85739398e-002, 1.91247799e-002, -9.16289072e-003,
       -1.82351172e-002, -7.99485855e-003, 2.50400230e-003,
       -9.05020162e-003, 4.99875471e-003, -7.18988990e-003,
       -1.35773327e-002, -3.72423558e-003, -1.03996694e-002,
       9.09746625e-003, 2.16795015e-003, -9.19445883e-003,
       -1.63171384e-002, -7.58415228e-003, -3.39613436e-003,
       7.34137604e-004, -3.81238619e-003, -5.67445345e-003,
       7.34810904e-003, -1.97196705e-003, 5.07132057e-003,
       -8.40180647e-003, 5.18154912e-003, 1.34358434e-002,
       -4.11606254e-003, 1.78695295e-003, -1.21049462e-002,
       4.22226964e-003, -9.15356167e-003, -8.77640862e-003,
       -1.48798842e-002, -6.45535905e-003, -1.11001795e-002,
       -1.05124842e-002, -1.32372370e-002, -1.19323842e-002,
       1.12350816e-002, -1.37015935e-002, 5.72500005e-003,
       -2.09664600e-003, -3.55793512e-003, 9.50616505e-003,
       1.15018338e-002, 5.35547035e-003, -2.95333564e-003,
       -9.45433509e-003, -1.77363474e-002, 1.34752598e-003,
       3.75644024e-003, 7.50868395e-003, 1.44128669e-002,
       9.16119386e-003, 2.76978198e-003, -4.23997734e-003,
       -1.25266397e-002, -2.56137270e-002, -1.55098783e-002,
       -1.26600312e-002, 5.78750530e-003, 7.60699017e-003,
       4.73930640e-003, -7.44603435e-003, -1.46597968e-002,
       -1.25685446e-002, -1.38121778e-002, 1.54519062e-002,
       7.08928611e-003, 5.75589808e-003, 2.10393555e-002,
       -9.60736629e-003, -8.22496600e-003, -2.23402027e-002,
       -1.31162470e-002, -8.70818552e-003, 1.35199511e-002,
       2.41866754e-003, 3.91574251e-003, 4.83357208e-003,
       1.53157543e-002, 7.40760705e-003, 6.17267005e-003,
       4.26892843e-003, -1.69041678e-002, -1.68726854e-002,
       -2.49405997e-003, -9.29872785e-003, 4.00262605e-003,
       7.64026726e-003, 3.54206515e-003, 1.41497198e-002,
       1.69172548e-002, -3.83660523e-003, -9.92634241e-003,
       4.43876768e-003, -1.37771396e-002, -4.54507489e-003,
       -1.09138070e-002, -5.75706735e-003, 4.89530712e-003,
       -4.02185513e-004, -1.84238423e-002, -4.12744377e-003,
       -2.87620840e-003, -1.06718363e-002, -1.19019318e-002,
       1.20918630e-002, 5.62305422e-003, 1.04763182e-002,
       6.48644753e-003, -1.44265918e-002, -8.19504913e-003,
       -1.31691983e-002, -1.96996182e-002, -5.76554518e-003,
       -8.83733504e-004, 1.14005001e-003, 1.14697320e-002,
       1.38043687e-002, 1.09950604e-003, 8.52036849e-003,
       1.10658212e-002, -2.98356707e-003, 1.15549401e-003,
       -1.56953596e-002, -3.83578893e-003, -7.38276495e-003,
       8.31820164e-003, -9.03242081e-003, 5.61896432e-003,
       -2.50385446e-003, 1.67938089e-003, -8.50258395e-003,
       -3.72431683e-003, 1.20312972e-002, 7.18531385e-003,
       7.26276962e-003, -4.88940906e-003, 1.15752267e-002,
       -9.24913678e-003, -1.37433298e-002, -1.26575502e-002,
       -1.92321669e-002, 1.60034467e-003, -1.29907560e-002,
       1.65886935e-002, 1.64608154e-002, 7.43112015e-003,
       -4.05743066e-003, -5.59957977e-003, -2.22994313e-002,
       -1.83048006e-002, 4.13568085e-003, -7.06008542e-003,
       8.98914319e-003, -5.98356186e-004, -7.47531303e-004,
       -1.32636738e-003, 2.10987832e-002, -7.05396896e-003,
       -1.60176344e-002, 9.45220049e-003, -6.42444659e-003,
       6.21491997e-003, -2.79043615e-003, -9.15190391e-003,
       -9.04099178e-003, -1.62426941e-002, -2.41985656e-002,
       -9.39784851e-003, 3.07158963e-003, -5.12314495e-003,
       1.78913977e-002, 1.12392614e-002, -2.15586927e-003,
       5.50846243e-003, 2.19203047e-002, -1.33753065e-002,
       -1.16613172e-002, -1.10297753e-002, -8.29939730e-003,
       -1.51452199e-002, -1.66096928e-004, 6.51086541e-003,
       1.14511829e-002, 3.86615167e-003, -2.18936242e-002,
       -1.18541848e-002, 1.22775203e-002, 3.37795378e-003,
       -3.82126844e-003, -9.29576717e-003, 6.24683360e-003,
       -1.29064554e-002, -1.70371812e-002, -1.53038781e-002,
       3.78554757e-003, -5.75937890e-003, -4.37030662e-003,
       -2.09588953e-003, -5.66937774e-003, 1.10582095e-002,
       1.29200919e-002, -2.87418050e-004, -5.63341333e-003,
       -1.28082203e-004, -1.47988042e-002, -4.14754776e-003,
       -9.60405078e-003, 1.17138717e-002, 1.41043693e-003,
       -3.29786283e-003, 4.82847542e-003, -1.09447343e-002,
       1.65638886e-002, -1.55451465e-002, -1.44162709e-002,
       -1.48583157e-002, 1.17672412e-002, -7.11365044e-003,
       2.52485741e-003, 6.73431810e-003, 4.95869084e-004,
       9.83726513e-003, 1.90454783e-004, -1.00294882e-002,
       -7.09671760e-003, -1.00119356e-002, 6.83141989e-004,
       1.46806575e-002, 6.99888915e-003, -5.73187973e-003,
       -5.46935946e-003, -4.27314965e-003, -5.45435119e-003,
       -8.23379215e-003, 1.11248177e-002, 2.25753710e-003,
       -5.04864939e-003, -1.54592341e-003, 1.93848088e-003,
       1.11645693e-002, -5.04061207e-003, -1.18962508e-002,
       -8.39374121e-003, -4.79175709e-003, -2.83018430e-003,
       4.49800212e-003, 6.32233825e-003, -2.71159457e-003,
       3.23224440e-003, -1.21961525e-002, -1.95309625e-003,
       1.43011894e-005, -1.46715945e-004, -4.38169052e-004,
       -5.28614642e-003, 4.98815998e-003, 1.02194762e-002,
       -2.42267782e-003, -7.62010095e-005, 3.92233394e-003,
       4.62390250e-003, 9.62406304e-003, 4.69246367e-003,
       -7.39994040e-003, 3.29480600e-003, -4.36051469e-003,
       6.02832937e-004, -1.03956964e-002, 9.93203954e-004,
       1.75568531e-003, -7.73817999e-003, -3.92269902e-003,
       4.13120398e-003, 5.77929663e-003, 8.97518825e-003,
       8.14717636e-003, 3.44265159e-003, 2.49493169e-003,
       6.81277364e-003, -7.00967968e-004, 1.21295257e-002,
       -1.23246564e-002, -6.50416873e-003, -6.89433794e-003,
       2.61664297e-003, 3.67349799e-004, 7.72873545e-003,
       7.68801104e-003, 4.96668799e-004, 8.64575151e-004,
       5.36098750e-003, 3.17927712e-004, 7.90466089e-003,
       8.76204576e-004, -3.36720143e-003, 1.25454124e-002,
       4.15155850e-003, 2.00230489e-003, -4.69175121e-003,
       -1.63752958e-003, -2.19199504e-003, 2.74622231e-003,
       4.29754425e-003, 2.30773841e-003, 1.52273849e-002,
       1.15524996e-002, 4.81466902e-003, 6.05140440e-003,
       -2.55993940e-003, 3.51468846e-003, 3.97528335e-003,
       -3.23692313e-003, -1.50057906e-003, 1.11664142e-002,
       7.27273244e-003, 3.16952518e-003, -2.86627468e-003,
       6.15535025e-003, -3.37708369e-003, 6.62419247e-003,
       -1.33967130e-002, -2.12230138e-003, 1.03810346e-002,
       7.14795990e-003, 6.28438825e-003, 6.45569293e-003,
       1.08426204e-002, 5.22805797e-003, -9.09492187e-003,
       6.00954844e-003, -4.75141045e-004, 7.23785488e-003,
       1.31779257e-002, -9.71116964e-003, 9.79425758e-003,
       -1.21712673e-003, -5.88124851e-004, 5.51992096e-003,
       1.39600467e-002, 3.18214367e-003, -7.03737373e-003,
       5.20927040e-003, -7.11719552e-003, 6.29040692e-003,
       -2.62597110e-003, -6.99039130e-003, 1.19932340e-002,
       1.05239486e-003, 5.00275148e-003, 8.75318702e-003,
       1.20265391e-002, 5.04567381e-003, 1.06734671e-002,
       -6.19695784e-005, 1.09732496e-002, 6.85318513e-003,
       -2.03472050e-003, 4.34017973e-003, 1.48520235e-003,
       6.02258509e-003, 6.19578757e-004, 2.66634044e-003,
       7.74916552e-004, 3.78311658e-003, -1.83475495e-004,
       8.93499237e-003, 4.85900891e-005, -1.67718600e-003,
       -1.28451991e-003, -1.43487230e-002, 1.41335260e-002,
       -8.49302160e-004, -4.06016642e-003, 8.38237163e-003,
       4.06445516e-003, -1.15234060e-002, -3.40159540e-003,
       -4.26355191e-003, -1.05737010e-002, 1.88564453e-002,
       7.97390938e-003, -2.49512959e-003, -2.23481026e-003,
       -6.13878714e-003, 6.68799877e-003, -5.05844783e-003,
       3.25149740e-003, -1.64370891e-002, 9.52668081e-004,
       3.28630675e-003, 2.32550292e-003, -9.58433747e-003,
       7.36024743e-003, 2.39275163e-003, 7.01691257e-003,
       1.55627625e-002, -6.07898599e-003, 6.90932386e-003,
       7.30601232e-003, 5.49079338e-003, 3.25613981e-003,
       -6.08054502e-003, -9.24084615e-003, 3.42553225e-003,
       -4.57176520e-003, -1.51242111e-002, 2.35502119e-003,
       8.59038718e-003, 2.23861937e-003, -1.03527149e-002,
       3.17997695e-003, 1.45868175e-002, 2.00642068e-002,
       2.00115964e-002, -1.32645329e-003, 3.93863302e-003,
       -7.83227198e-003, -4.31468384e-003, 6.72987383e-003,
       -1.28132254e-002, 1.77914668e-002, 1.69264115e-002,
       2.44433712e-003, -7.41663715e-003, 5.32487640e-003,
       8.64543021e-003, 9.73447692e-003, 1.64290401e-003,
       2.49581342e-003, 2.68913824e-002, 2.70147696e-002,
       1.24331601e-002, -8.94689281e-003, 9.92269348e-003,
       3.39328032e-003, 3.99581995e-003, -2.60426989e-003,
       -5.12060616e-003, 6.62659761e-003, 1.74085852e-002,
       1.13905920e-002, -1.07514637e-003, 1.22665269e-002,
       -1.20027671e-002, -6.94795791e-003, -5.69622219e-003,
       -4.49425634e-003, -3.60212463e-004, 6.31462084e-003,
       5.95895154e-003, -1.10840565e-002, -4.13025031e-003,
       -4.25142515e-003, -8.35314300e-003, -5.59819490e-003,
       -5.23579959e-003, 9.82121751e-003, 1.03100138e-002,
       4.53986460e-003, -9.39290132e-003, -1.51187205e-003,
       -1.98200205e-003, 7.71773839e-003, -4.19231365e-003,
       5.08804631e-004, 7.61649106e-004, -6.47059130e-003,
       1.95966815e-004, -7.10096117e-003, -1.05084442e-002,
       2.84624199e-004, 5.08955354e-003, 2.31798715e-003,
       6.04028441e-003, 3.69485212e-003, -3.35219956e-005,
       -1.41338371e-002, -1.46243488e-002, -7.40332482e-003,
       -8.10330920e-003, -4.11938177e-003, 3.18212481e-003,
       -7.49431178e-003, -1.77335693e-003, -1.85717568e-002,
       -2.56215874e-002, -1.17272856e-002, -2.32116808e-003,
       -1.14671467e-002, -1.23588815e-002, -1.19099524e-002,
       1.52352359e-002, 1.11993412e-002, 8.97845905e-003,
       -1.15287397e-002, 8.14195164e-003, 5.10489522e-003,
       5.06401202e-003, 1.66118387e-002, 2.23450903e-002,
       1.71190575e-002, 1.44626703e-002, 1.33013176e-002,
       -4.51832049e-004, 1.11944461e-003, 1.06763821e-002,
       5.19625843e-003, -5.80858160e-003, 9.12175048e-004,
       -1.03067942e-002, 1.73694838e-003, -6.53540622e-003,
       -2.32949164e-002, -1.04508623e-002, 4.72713640e-004,
       -6.89946534e-003, -1.23815658e-002, -2.49406882e-002,
       -1.67729706e-002, -3.82202840e-003, 1.64114265e-003,
       -2.81325425e-003, -7.38045154e-003, -2.15205736e-003,
       -5.89518948e-003, 3.42725689e-004, -8.99263844e-003,
       1.72565971e-003, 1.98256690e-002, 1.13920448e-002,
       1.89273385e-003, 1.10573918e-002, 1.30975321e-002,
       3.50540108e-003, -8.18326883e-003, 5.51725412e-003,
       -2.74238351e-004, 1.65963918e-002, 1.02439076e-002,
       -1.97146297e-003, -1.63289625e-003, 9.59401950e-003,
       -1.20371561e-002, -1.40508581e-002, 2.07786402e-003,
       -4.89217881e-003, 2.49700760e-003, 1.41466991e-003,
       -3.86233465e-003, 8.46082903e-003, 9.07021202e-003,
       4.61290241e-004, 1.72583829e-003, -1.63868703e-002,
       9.64926928e-003, 1.19116262e-003, -1.45920170e-002,
       -1.06202364e-002, -1.30373088e-003, -9.94013343e-003,
       -1.24501232e-002, -2.32924102e-003, -1.48135342e-003,
       3.99968820e-003, 8.90460890e-003, 7.87744485e-003,
       -1.02539896e-004, -1.06673464e-002, 3.97270406e-003,
       -1.44045129e-002, 1.04574152e-004, -1.07327150e-002,
       1.09109217e-002, 5.47902938e-003, 6.10374799e-003,
       9.18455049e-003, 4.87919571e-003, -3.40267527e-003,
       -1.17453989e-002, 5.65485889e-003, -4.61310335e-003,
       5.33135235e-003, 8.12733360e-003, -6.24485174e-003,
       -1.03020724e-002, -3.64931417e-003, -1.62808225e-002,
       -1.16930539e-002, 4.80299257e-003, 6.72316505e-003,
       -6.23346632e-003, 7.02459551e-003, 7.46396696e-003,
       1.38182342e-002, -9.18194128e-004, -5.02170762e-003,
       -1.67126674e-003, 1.00709312e-002, -1.04780700e-002,
       1.32172462e-002, 8.04072246e-003, -5.70635125e-003,
       -4.21477761e-003, -3.42320674e-003, -1.24195181e-002,
       -5.26907668e-003, 2.25639548e-002, 7.73045421e-003,
       5.09331562e-003, -6.96087023e-003, 7.14809750e-004,
       5.79551968e-004, -1.41757736e-002, -9.15891118e-003,
       6.49024686e-003, 1.34318788e-002, 1.05904508e-002,
       9.73899849e-003, 4.54276247e-004, 3.34222778e-003,
       1.01874499e-002, -2.64575761e-002, -8.02391022e-003,
       -6.84269099e-003, 1.31007638e-002, -1.19757454e-003,
       2.07129344e-002, 6.11085258e-003, 8.15643754e-004,
       9.37760342e-003, -1.43723981e-002, -3.86513420e-003,
       -1.80235729e-002, 3.16084293e-003, 1.82070322e-002,
       3.88614531e-003, -1.31982686e-002, -8.58276803e-003,
       -3.10906675e-003, -4.14881371e-002, -4.64494759e-003,
       1.92331197e-003, 5.32360189e-003, 1.93027940e-004,
       1.37996895e-003, -1.65085606e-002, -1.23356404e-002,
       7.87323806e-003, -1.45981573e-002, 1.01722600e-002,
       -8.63399240e-004, -2.40539177e-003, -8.15589633e-003,
       1.28138652e-002, 2.99015688e-003, -2.38567335e-003,
       9.55795695e-004, -2.70032347e-003, -3.10601172e-004,
       -8.07113014e-003, 1.51457533e-003, 1.57906041e-002,
       -2.26614112e-003, -1.51393963e-002, -8.38840287e-003,
       1.16811061e-004, -1.41472332e-002, -1.36991451e-002,
       -2.44343583e-003, 2.82399333e-003, 6.16864255e-003,
       -5.97228017e-003, -1.67063661e-002, -3.88043816e-003,
       6.99224556e-003, -8.89543165e-003, 1.17325447e-002,
       -3.65912938e-003, 8.32151435e-003, 9.39716585e-003,
       -1.80009678e-002, -2.34282631e-002, -1.44308163e-002,
       5.20425197e-003, -7.75192166e-003, 2.10975832e-003,
       -2.01364188e-003, 8.43365863e-003, -2.48765084e-003,
       -1.39824813e-003, -4.52598743e-003, 1.88914128e-003,
       6.39769109e-003, 9.25743859e-003, -8.26909300e-003,
       -7.32665975e-003, 8.01220711e-004, 2.79660360e-003,
       -9.31680389e-003, -2.25027278e-003, 1.11497492e-002,
       -2.15822505e-003, -9.20468196e-003, -5.48123429e-003,
       -1.26784313e-002, -3.95815726e-003, -2.11632019e-003,
       -1.22017311e-002, -5.72364312e-003, -4.04031994e-003,
       3.69236455e-003, 1.42349768e-002, 1.11196171e-002,
       -1.10151637e-002, -2.78716860e-003, -1.14010274e-003,
       2.33140076e-003, -3.42360931e-003, 8.43480881e-003,
       3.70841287e-003, -2.19918117e-002, 1.65028255e-002,
       -1.35198608e-002, -1.41595872e-002, -9.15430300e-003,
       5.31223835e-004, -1.36116371e-002, -3.64172482e-003,
       -1.75391324e-002, -1.51994769e-002, 1.76668516e-003,
       -3.95443756e-003, 2.20344774e-003, 2.62843235e-003,
       5.82120195e-003, 1.15357041e-002, -3.67629714e-003,
       -1.76234711e-002, -1.12453364e-002, -9.75658465e-003,
       -1.38192344e-002, -1.97356939e-003, -1.45728735e-003,
       1.34384204e-002, -1.02195945e-002, -6.26071449e-003,
       -1.02080749e-002, -2.76393481e-002, 8.09908006e-003,
       -1.05227865e-002, -4.96019330e-003, -1.56021118e-003,
       1.03822304e-002, -2.21390091e-003, 9.16922640e-004,
       6.22601295e-003, -8.40466283e-003, 4.90167504e-003,
       -8.77269637e-003, -3.92016536e-003, -1.08109303e-002,
       -1.74099940e-003, 1.86184235e-003, -9.43032186e-003,
       5.46985818e-003, -1.33598607e-003, -7.74893444e-003,
       -1.75143722e-002, -5.85199986e-003, -3.76248430e-003,
       -9.62926634e-003, -1.48767335e-002, -1.62790343e-002,
       1.13733737e-002, -4.53757559e-004, -8.96065962e-003,
       -1.19500263e-002, -6.12655422e-003, 3.77200916e-003,
       1.85444709e-002, 4.84668231e-003, 1.77334447e-003,
       6.79310039e-003, -1.20294588e-002, -2.74532591e-003,
       -2.63620503e-002, -1.45602301e-002, 5.77351777e-003,
       1.25069218e-002, -9.35169216e-003, -2.12425422e-002,
       -1.16623808e-002, -7.17886863e-003, -2.59574573e-003,
       -1.69925038e-002, -3.09203030e-003, 1.82227511e-002,
       -4.40438464e-003, -1.23367654e-002, -1.28584346e-002,
       -7.53211277e-003, -9.63298604e-003, 2.37135449e-003,
       -4.45001526e-003, -2.03969725e-003, 1.22725554e-002,
       -8.07774067e-003, -1.05001945e-002, 6.18570438e-003,
       4.01714060e-004, -3.33428499e-003, 7.72571331e-003,
       -4.60133509e-004, -3.79758468e-003, 1.00170989e-002,
       5.40872745e-004, -1.74343660e-002, -2.04393994e-002,
       -8.65035970e-003, -5.37808239e-003, -2.23683266e-004,
       -5.74727729e-003, -3.34226876e-003, 6.46001985e-003,
       1.22841785e-003, -7.30361044e-003, 8.67969915e-003,
       1.20224738e-002, 3.78693826e-003, 2.39238585e-003,
       -1.44917276e-002, -5.91190485e-003, 6.61360985e-003,
       -1.03067122e-002, -7.29324389e-003, 1.12986509e-002,
       9.81704704e-003, -7.40656909e-003, -1.55337784e-003,
       -1.22066960e-002, -3.60533618e-003, -2.31106766e-003,
       3.81391495e-003, -5.13767218e-003, -4.55404725e-003,
       5.79195656e-003, -1.22084469e-002, -6.13875082e-003,
       -2.74600442e-002, -1.11369230e-002, 1.40136220e-002,
       -1.59993197e-003, 5.26105845e-003, 1.10921795e-002,
       1.44064613e-002, -3.41119128e-003, 4.20760643e-003,
       -2.60418616e-002, -5.46540972e-003, -2.12864834e-003,
       3.84703657e-004, -9.63685289e-003, -2.04964057e-002,
       6.78556366e-003, 1.07514847e-003, -5.91730326e-003,
       -1.88871026e-002, -1.18032182e-002, -1.82618306e-003,
       4.90463397e-004, 7.22973794e-003, -8.80163629e-003,
       2.14107614e-003, 5.86755690e-004, 1.51826022e-002,
       -1.67365000e-002, -1.34979654e-002, 3.76114715e-003,
       -1.19875856e-002, 7.31583172e-003, -8.67557898e-003,
       9.45460144e-003, 7.74457399e-003, 1.20508634e-002,
       -9.18270461e-003, -1.59163363e-002, -1.47429509e-002,
       -6.72114920e-003, -1.79492701e-002, -2.04997621e-002,
       -4.85389819e-003, 6.60977559e-003, 7.28462357e-003,
       -9.61723085e-003, -1.18628535e-002, 5.94859850e-003,
       3.65378219e-003, -1.49415666e-002, -1.00830253e-002,
       -9.96651128e-003, -2.53467774e-003, 1.24729704e-002,
       -1.10959113e-002, -1.29730962e-002, 1.32528963e-002,
       -1.20957140e-002, 9.98361502e-004, -2.93085910e-003,
       1.00847827e-002, -2.05378892e-005, 4.28491767e-004,
       -4.55877604e-003, -2.15168158e-003, -1.78415887e-002,
       -1.45523688e-002, -1.13205425e-002, -1.68686211e-002,
       -1.07911956e-002, -2.68680472e-002, -5.87280467e-003,
       9.67660817e-005, 3.60822841e-003, -1.36535019e-002,
       -8.49726330e-003, -1.44201228e-002, -1.08362334e-002,
       -1.72291175e-002, -4.99707460e-003, 1.71871968e-002,
       6.82104705e-003, -5.26808156e-003, 7.30977918e-004,
       -6.33826107e-003, 4.55391360e-003, -1.57914273e-002,
       3.01353890e-003, -1.76753011e-002, -8.49847216e-003,
       -6.39680214e-003, -1.67447031e-002, -5.87070733e-003,
       -6.44635875e-003, -2.21463479e-002, -1.56970005e-002,
       -9.09573399e-003, -1.78598221e-002, -2.16180179e-003,
       3.43909580e-003, 5.46796713e-003, -1.26610454e-002,
       1.69348449e-003, -1.55748790e-002, -1.80263165e-002,
       -1.09995632e-002, 2.96615413e-004, -7.62261543e-003,
       -4.66747442e-003, 3.56441760e-003, -3.64664197e-003,
       1.00872992e-002, 9.11595998e-004, -2.02390905e-002,
       -4.41190461e-003, 4.98059625e-003, 9.99997277e-003,
       1.87035039e-004, -1.57545302e-002, -6.75955368e-003,
       4.46634163e-004, -7.34741217e-004, -1.82316080e-002,
       -1.35488147e-002, 6.67109387e-003, 2.17593536e-002,
       -5.82582643e-003, -4.72590467e-003, 3.50608025e-003,
       1.26518391e-003, -8.55554547e-003, -9.12605785e-003,
       -1.02714039e-002, 7.24392617e-003, 3.15681845e-003,
       -3.54975578e-003, 1.43606725e-004, -8.84257664e-004,
       2.06690209e-004, -1.77163407e-002, -9.83563531e-003,
       -8.45348462e-003, -8.63794424e-003, -7.40943383e-003,
       -8.80137086e-003, -6.71409303e-004, 1.15391258e-002,
       7.72582833e-003, -2.30910984e-004, -1.38878310e-002,
       -1.41192712e-002, -4.89390746e-004, 1.69022381e-002,
       -7.41323130e-003, 5.50271478e-003, 1.56412777e-002,
       -2.19321475e-004, -1.80990491e-002, -9.71483998e-003,
       -9.39973816e-003, -1.51735013e-002, -8.50964524e-003,
       -2.26207543e-002, -1.68227330e-002, 2.51926538e-002,
       1.64567819e-003, -2.17899773e-003, -3.49298422e-003,
       1.12072313e-002, -6.40550163e-004, 1.34003628e-003,
       -9.93668009e-003, -2.45914422e-003, -2.82012066e-003,
       -1.03095509e-002, 7.25308899e-003, 1.30915511e-002,
       8.71464517e-003, 6.69450406e-003, 3.63530079e-003,
       8.57337844e-003, 4.10328107e-003, -3.82405682e-003,
       -1.71540976e-002, -1.28483260e-003, 5.11263264e-003,
       2.86039449e-002, 6.57253806e-003, 1.75934634e-003,
       -4.06277424e-004, 6.76664757e-003, -1.31985769e-002,
       -1.50745315e-002, 3.12530948e-003, 1.99224651e-002,
       1.41199119e-002, 2.14218106e-002, 2.14543305e-002,
       5.15589025e-003, 7.54908938e-003, -1.21244974e-002,
       4.29866137e-004, 7.11505534e-004, 8.53317510e-003,
       3.93253099e-003, 1.32786129e-002, 3.15265404e-003,
       4.17630281e-003, 9.69321118e-004, -1.99073809e-003,
       -1.26801422e-002, -7.65407784e-003, -4.83022258e-003,
       7.49838911e-003, 5.52881649e-003, 5.48354024e-003,
       -1.91526627e-003, 8.25351290e-003, -7.45535363e-004,
       -4.37600771e-003, 1.33551366e-003, 1.45039996e-002,
       7.50331348e-003, 1.50654782e-002, 1.84877664e-002,
       -6.40062569e-003, 5.30898012e-003, -5.25520509e-003,
       4.01883665e-003, -1.16452854e-003, 6.25002710e-003,
       5.64456452e-003, 1.57051049e-002, 9.66307335e-003,
       -1.74105838e-002, 8.13053641e-003, 1.50273216e-003,
       -6.37493515e-003, -7.19202869e-003, 5.79789921e-004,
       3.54120531e-003, 7.82933179e-003, 6.05236134e-003,
       -4.42293659e-003, 1.46737546e-002, 8.66620988e-003,
       -1.45893851e-002, -6.57189731e-003, 6.13682298e-003,
       8.49933643e-003, 5.45747019e-003, -2.99529801e-003,
       -2.85866018e-003, 1.53870508e-002, 4.38710535e-003,
       -1.39287636e-002, -1.15365628e-003, 7.91823678e-003,
       3.82736279e-003, 3.03463638e-003, 3.16580437e-004,
       -1.62504893e-002, 4.34364704e-003, -3.15860868e-003,
       -1.54474610e-002, -9.09069739e-003, 1.55638380e-004,
       -2.25052889e-003, 1.58174429e-002, 3.80448252e-003,
       -1.81362331e-002, -8.60464573e-003, 1.18886121e-002,
       -8.92684143e-003, 5.30109974e-005, -4.32671234e-003,
       9.63242084e-004, -7.02576013e-003, -8.32522009e-003,
       1.29416108e-003, 6.65734103e-003, -3.01677152e-003,
       -8.88399221e-003, 7.43331248e-003, 9.28377267e-003,
       1.41151315e-002, -1.33892556e-003, 7.50291441e-003,
       8.67354404e-003, 1.33150835e-002, -1.37672676e-002,
       -1.30065333e-003, -5.20654954e-003, -9.44793131e-003,
       -4.03376203e-003, -5.78909228e-003, -1.46004604e-004,
       -6.54002884e-003, -6.99181622e-003, 1.57147963e-002,
       1.24708284e-002, -4.68890066e-004, -1.53420854e-003,
       1.06484201e-002, -5.23231737e-003, 9.59195010e-003,
       3.01884534e-003, -2.80029257e-004, 1.67051814e-002,
       -1.95029508e-002, 2.12447029e-002, 2.39707083e-002,
       8.57550744e-003, -5.39795589e-003, 1.10880733e-002,
       9.55239311e-003, 1.05515737e-002, -7.96174537e-003,
       -1.86839011e-002, 1.93528980e-002, 2.34804731e-002,
       1.28526278e-002, 6.99456828e-003, 1.12300245e-002,
       4.22305381e-003, 4.11707954e-003, -8.28730874e-003,
       -2.34020152e-003, -1.58082021e-005, 2.31689750e-003,
       5.48978522e-003, 8.49796459e-003, 8.60826205e-003,
       -1.38964970e-005, -4.58872505e-003, 1.96573208e-003,
       -2.70495703e-003, 3.84944282e-003, 8.32873583e-003,
       4.97699389e-003, -5.51539753e-003, -3.97527870e-003,
       -1.92417130e-002, -7.16226595e-003, 4.69053723e-003,
       -1.39719332e-002, 1.56339165e-002, 1.28865996e-002,
       6.04147231e-003, -5.14269341e-003, -1.22755384e-002,
       -8.70763976e-003, -2.30447855e-003, -1.35604786e-002,
       -6.85436139e-003, 1.51796881e-002, -1.01353601e-003,
       -2.48680590e-003, -5.63990651e-003, -9.65030491e-003,
       -1.95681211e-003, 1.87523272e-002, -2.39106780e-003,
       1.84222381e-003, 2.50710733e-002, 2.09529269e-002,
       -1.37673851e-004, -7.92760588e-003, -1.70212183e-002,
       -2.23122612e-002, -2.95836199e-003, -2.19345093e-003,
       -3.09164114e-002, 1.02599049e-002, 1.27938921e-002,
       -2.07009111e-002, 3.25808907e-003, 1.25557859e-003,
       -5.14491752e-004, 7.86478445e-003, -5.62133826e-003,
       1.28871389e-002, 1.55747635e-002, 1.72446668e-002,
       -7.18646543e-003, -9.76836425e-004, -4.60841553e-003,
       -9.13588447e-005, 1.72756370e-002, 1.98727939e-002,
       1.06187416e-002, 8.41853768e-003, 2.23969240e-002,
       -2.92800576e-003, 7.49620236e-003, -6.83383131e-003,
       -5.03021665e-003, -8.73068813e-003, -4.69642831e-003,
       -1.61422696e-002, 9.49955266e-003, 1.31987445e-002,
       -9.15619265e-003, 5.13096852e-003, -2.56917463e-003,
       -1.91590562e-003, 2.83507747e-003, -4.40555764e-003,
       5.87274740e-003, -2.33239471e-003, 1.18495058e-002,
       1.45600841e-003, -3.85672576e-003, -1.45587567e-002,
       -1.11391619e-002, -1.26889013e-002, -6.60402421e-003,
       2.84333481e-003, 2.21793726e-002, 1.69806890e-002,
       -5.20766014e-003, 3.49591020e-004, -1.43393744e-002,
       -7.55883707e-003, -1.32803265e-002, 1.25397593e-002,
       2.79457681e-003, 2.26018298e-002, 6.15016744e-003,
       -1.65340491e-002, -1.72329659e-003, -2.63530924e-003,
       -2.19763424e-002, -1.51618551e-002, 1.00407461e-002,
       -1.97828468e-003, 6.62974641e-003, 2.25148583e-003,
       -1.06994668e-002, -6.42085855e-004, -2.16187388e-002,
       -1.47957942e-002, 4.38494841e-004, 2.40510441e-002,
       -1.65995746e-003, -2.97076511e-003, -9.29679722e-003,
       -1.16401408e-002, 2.74301798e-004, -8.27718992e-003,
       -1.97858680e-002, -1.96856586e-003, 2.14033648e-002,
       4.39351751e-003, 1.13327149e-002, 1.25109097e-002,
       -1.23719696e-003, -1.96709437e-003, -2.85167061e-003,
       -1.43439192e-002, -4.84003831e-004, -2.66046310e-003,
       -1.62551794e-002, 3.52638983e-003, 1.60412658e-002,
       1.26593029e-002, 2.19849925e-002, 2.71227583e-003,
       -4.03433945e-003, 4.38376330e-003, -6.11725729e-003,
       -7.10003951e-004, 8.10500793e-003, 1.07935509e-002,
       7.19477143e-003, 1.46898171e-002, 1.33285122e-002,
       -1.01611856e-002, 5.47900423e-003, -1.08332820e-002,
       -9.98737756e-003, 4.57749283e-003, 1.50776235e-002,
       5.40022738e-003, 1.10421712e-002, 1.96792986e-002,
       -2.05362868e-003, -2.52037635e-003, -1.32176392e-002,
       -4.85003053e-004, 1.24542033e-002, 4.35634563e-003,
       4.88569168e-003, 1.52567448e-002, 1.90690067e-002,
       -1.64837122e-003, 7.67743681e-003, -5.08173648e-003,
       -1.38688972e-002, 1.39348768e-003, -1.58414636e-002,
       -1.60442796e-002, 1.82381936e-003, -5.67762298e-004,
       -6.65390748e-004, 1.85119687e-003, -7.59863411e-004,
       2.14724671e-002, 9.30200424e-003, 1.50983373e-003,
       -6.83835591e-004, 1.85749102e-002, 2.14223377e-002,
       6.32763281e-003, 8.60356074e-003, -6.05466170e-003,
       5.83112333e-003, 1.74292317e-003, -1.05982851e-002,
       -1.30957840e-002, 1.72472745e-002, 9.64132696e-003,
       5.89647423e-003, 6.65558176e-003, 7.42007745e-003,
       3.18153598e-003, 1.10504695e-003, -1.16524510e-002,
       -1.18427416e-002, -1.84719916e-002, -4.21229284e-003,
       1.63578172e-003, -3.18812579e-003, -2.82371370e-003,
       -7.11166591e-004, 5.25517482e-003, 7.86898844e-003,
       2.10743733e-002, -1.42866210e-003, -5.10979583e-003,
       -8.60333536e-003, -8.70418176e-003, -8.68822914e-003,
       1.87341981e-002, 1.17599866e-005, -1.00655193e-002,
       -1.18176201e-002, -6.00070693e-003, -4.62571019e-003,
       1.67074020e-003, -1.25754541e-002, 1.83682945e-002,
       1.85597148e-002, 1.22118881e-002, 2.17586360e-003,
       1.86633617e-002, 7.39552034e-003, -2.37477780e-003,
       -1.55790104e-002, -1.84187163e-002, 6.95025921e-003,
       -1.02982065e-002, 1.63178204e-003, 8.50438513e-003,
       1.94057114e-002, 1.32824192e-002, -1.30266440e-003,
       -1.94426533e-002, 3.56655149e-003, 2.69065262e-003,
       -1.00471554e-002, -5.76065807e-003, -4.89824032e-003,
       4.14350256e-003, 2.13046861e-003, -1.69229740e-003,
       -3.78324254e-003, 7.42319273e-003, 6.27283147e-003,
       1.87336933e-002, 1.41585702e-002, 5.95794199e-003,
       1.64528191e-002, 7.63377035e-003, 7.86611752e-004,
       -1.55070666e-002, -1.10211084e-002, 4.93263081e-003,
       4.82939417e-003, -1.67215485e-002, -1.06897242e-002,
       4.96703340e-003, -4.58296062e-003, -3.41634220e-003,
       1.82519050e-003, -1.18242041e-003, 4.75890329e-003,
       -4.10117721e-003, -1.56404509e-003, 4.10686771e-004,
       8.83064885e-003, 1.17981993e-002, 4.00160992e-004,
       -3.66925448e-003, -4.82156919e-003, 4.49721643e-004,
       1.47051821e-002, 6.89543551e-003, 8.86177458e-003,
       4.62149270e-003, -9.15271509e-003, 5.68694528e-003,
       -1.48654599e-002, -1.10444650e-002, -7.52367172e-003,
       9.37575102e-003, -2.17345208e-002, -2.52832309e-003,
       1.00919763e-002, -1.10712573e-002, -5.88168902e-003,
       4.21545468e-003, -5.47680305e-003, 6.93408353e-003,
       1.19988108e-002, -3.05518880e-003, 1.05680451e-002,
       -3.40258307e-003, -2.42371652e-002, 4.67710756e-003,
       -2.52658967e-003, -1.70833543e-002, 6.90360693e-003,
       1.43906604e-002, 2.96150707e-003, -5.46329049e-003,
       -1.30066834e-002, -2.83155572e-002, 1.06718845e-003,
       -1.40272640e-002, 3.15852161e-003, -3.38038662e-003,
