%YAML:1.0
frame_detect_svm: !!opencv-object-detector-hog
   winSize: [ 112, 96 ]
   blockSize: [ 16, 16 ]
   blockStride: [ 8, 8 ]
   cellSize: [ 8, 8 ]
   nbins: 9
   derivAperture: 1
   winSigma: 4.
   histogramNormType: 0
   L2HysThreshold: 2.0000000000000001e-001
   gammaCorrection: 1
   nlevels: 64
   signedGradient: 0
   SVMDetector: [ -7.46518979e-003, 1.14069954e-002, 3.56102549e-003,
       1.61456056e-002, 3.53376335e-003, 1.90035556e-003,
       7.01117609e-003, -7.69068720e-004, -1.09478580e-002,
       -1.24360332e-002, 3.94342095e-003, 1.44221121e-004,
       1.25172734e-002, 1.24477735e-003, 8.78318042e-006,
       -2.03317334e-003, -5.60452463e-003, -1.64169315e-002,
       -2.75800610e-003, 1.01914350e-002, 2.93483539e-003,
       1.17459493e-002, 1.67728620e-004, 1.55400811e-003,
       1.41313882e-003, -7.20097916e-004, -7.44776661e-003,
       -1.34055631e-003, 1.98923354e-003, -1.70274766e-003,
       1.15826530e-002, 5.80551755e-003, 3.05530475e-003,
       -1.39763439e-003, -3.10846837e-003, -8.80271103e-003,
       -1.64473914e-002, 4.52020811e-003, 7.16289040e-003,
       1.90824158e-002, 1.69425493e-003, 4.22004116e-004,
       -3.76995653e-003, 2.86943978e-003, -1.19516458e-002,
       -1.18234996e-002, -4.71566059e-003, 5.18908724e-003,
       9.74746142e-003, -4.33836412e-003, -3.11129889e-003,
       -8.45732633e-003, 2.95728259e-003, -8.40413757e-003,
       4.69104201e-003, 1.23086257e-003, 1.09497095e-002,
       2.07866393e-002, 1.30176879e-002, 4.24602954e-003,
       -7.56043184e-004, 3.29909544e-003, -1.87948428e-003,
       8.60521477e-003, 5.05917799e-003, 4.49414132e-003,
       1.33024920e-002, -1.73605897e-003, -7.34702637e-003,
       -8.06666072e-003, 3.15590017e-003, 1.76858064e-003,
       -4.81497170e-003, 7.61599513e-003, 4.85716574e-003,
       5.44945477e-003, -3.76182422e-003, 2.77920836e-003,
       1.97210582e-004, 2.88470299e-003, -6.23063231e-003,
       -4.61686775e-003, 9.89759993e-003, 6.66076131e-003,
       3.15735955e-003, -2.93463352e-003, 1.14257568e-002,
       8.43503047e-003, 4.88856016e-003, -8.20650626e-003,
       7.39696994e-003, -1.35339447e-003, -9.94814094e-003,
       -4.94551752e-003, -8.29788577e-003, -2.90914648e-003,
       1.87522522e-003, 8.49794410e-003, 5.93027752e-003,
       -1.33913774e-002, -1.28365951e-002, -7.54218968e-003,
       4.95157583e-005, -1.93525618e-003, 1.54120270e-002,
       1.43418461e-002, 1.11473799e-002, -3.13844602e-003,
       -5.68619231e-003, 7.41756847e-003, 8.38386826e-003,
       8.45424086e-003, 6.10894384e-003, 4.85974830e-003,
       7.10746506e-004, -2.45766970e-003, -9.69270710e-003,
       -6.40942156e-003, -2.13507377e-003, 4.20206133e-003,
       2.40522139e-002, 1.46689666e-002, 3.43297033e-005,
       -8.60950071e-003, -6.70958078e-003, -4.23854450e-003,
       -2.07846016e-002, -1.00028720e-002, -8.83878325e-004,
       1.42322499e-002, 1.52566591e-002, 1.44139510e-002,
       3.67100304e-003, -2.86297151e-003, -1.60435773e-002,
       -3.60144628e-003, 1.09512801e-003, 4.46716975e-003,
       2.51827929e-002, 1.38692781e-002, 1.05371960e-002,
       -6.77210884e-003, -8.75151157e-003, -1.36834113e-002,
       -1.33914044e-002, -7.62978662e-003, -3.98621336e-003,
       1.81521587e-002, 1.09759783e-002, 3.54010798e-003,
       -7.68924272e-003, -6.49678195e-003, -9.15031007e-004,
       -7.45578250e-003, -4.09181230e-003, -1.00346759e-003,
       4.51515196e-003, -5.04549826e-003, 2.79769185e-004,
       -2.50200415e-003, 1.72075757e-003, 5.73530607e-003,
       -3.73172318e-003, 2.37574289e-003, 4.39958880e-003,
       1.53231872e-002, 1.02560651e-002, 5.25320135e-003,
       -7.73558207e-003, -8.86538159e-003, -6.15116907e-003,
       1.40504669e-002, 9.25080013e-003, 1.77687325e-003,
       4.59822919e-003, 7.76136620e-003, 7.47567415e-003,
       -1.76038698e-003, -8.74079939e-004, 1.18418681e-002,
       -7.73770874e-003, -6.99570449e-003, -5.64568117e-003,
       -9.77510866e-003, -8.33882671e-003, -1.26361183e-003,
       2.91709579e-003, -1.58463279e-003, 6.67447969e-003,
       -5.72073180e-003, -9.03744809e-003, -8.54788441e-003,
       -1.02504399e-002, -4.93777264e-003, -1.57086609e-003,
       4.51692240e-003, -5.58906468e-003, 5.71667543e-003,
       1.62220262e-002, 7.42716249e-003, -4.11399174e-003,
       -8.21388792e-003, 7.13252882e-003, 1.02244159e-002,
       6.66731456e-003, -2.27927254e-003, 1.21281864e-002,
       1.53327072e-002, 1.20049631e-002, 2.82662991e-003,
       9.37575765e-004, 6.12909021e-003, 9.56829172e-003,
       1.22991065e-002, -2.95958761e-003, 8.97450000e-003,
       -6.46342663e-003, -1.08441971e-002, -4.47713630e-003,
       -2.88260286e-003, 1.80889759e-003, 3.06090014e-003,
       7.30317179e-003, 4.33269003e-003, 8.69828835e-003,
       -1.07342983e-002, -1.02661867e-002, -8.88094306e-003,
       -5.90578560e-003, -1.00374883e-002, -8.83223489e-003,
       -2.81422958e-003, 2.00334936e-003, 5.72519144e-004,
       2.28360482e-002, 1.46584064e-002, 1.33536039e-002,
       1.31457085e-002, 1.39995031e-002, 3.69423698e-003,
       1.22715561e-002, 1.13976852e-003, 1.67673118e-002,
       8.31201114e-003, 7.66175613e-003, 4.23393771e-003,
       -1.46850850e-003, -6.27226476e-003, -1.13073317e-002,
       -7.32149370e-003, -2.23191455e-002, 6.05063699e-003,
       1.44660217e-003, -6.17454411e-004, -6.26616785e-003,
       -2.61167716e-003, -1.47928502e-002, -1.40497945e-002,
       -8.21366790e-004, 5.15990052e-003, 5.34304092e-003,
       7.13582966e-004, 1.47310246e-004, -4.70846833e-004,
       4.25592577e-003, 5.06198267e-003, -4.42499120e-004,
       8.78645014e-003, 1.99664733e-003, -1.01991245e-004,
       1.56533252e-002, 5.86226117e-003, -4.98415483e-003,
       -8.00872780e-003, -6.51696650e-003, -1.30674532e-002,
       -7.44446227e-003, -1.82961784e-002, 5.16323699e-003,
       9.93065070e-003, 4.75682598e-003, 2.99196481e-003,
       6.94268988e-003, 4.42095846e-003, -1.19474280e-004,
       7.14037614e-003, -1.46663093e-004, 9.44443140e-003,
       -6.88864477e-003, -1.71886338e-003, -2.99485726e-003,
       8.03448842e-004, 1.06252395e-002, 6.93898834e-003,
       4.83880704e-003, 2.68261693e-003, -7.49632809e-003,
       -4.09917440e-004, 9.18769278e-003, -1.38179550e-003,
       2.80837272e-003, 4.82748076e-003, -1.27229420e-003,
       4.21160785e-003, -2.93853838e-004, -7.04793399e-003,
       7.52304797e-004, -4.74564265e-003, -2.64581013e-003,
       8.46595131e-003, 1.06174573e-002, 9.98370443e-003,
       1.12426728e-002, 5.52514475e-003, 2.57316441e-003,
       -8.74001533e-003, -4.36402205e-003, -5.32134809e-003,
       -6.12047326e-004, 4.63470025e-003, 1.19880377e-003,
       1.73482462e-003, -5.93206892e-003, -4.92237601e-003,
       -3.78283509e-003, 5.79922367e-003, 6.88599702e-003,
       7.35657581e-004, 1.48261350e-003, -2.28379783e-003,
       7.21838791e-003, -2.46122642e-003, -6.84850104e-003,
       -2.03172304e-003, 8.04408826e-003, 1.06006190e-002,
       4.69847536e-003, 9.10384022e-003, 7.66275264e-003,
       1.18229687e-002, 5.95184835e-003, -5.48959430e-003,
       -5.91867324e-003, -1.01955235e-003, -1.85575895e-003,
       -4.28591995e-003, -4.13908577e-003, -2.75145099e-003,
       -4.69037448e-004, -6.89257169e-003, -7.22975284e-003,
       1.02725788e-003, -2.84512946e-003, 7.55964220e-003,
       -1.39095809e-003, 7.01134151e-004, 4.39317804e-003,
       6.06226921e-003, 2.45163636e-003, -5.18466765e-003,
       -7.49161374e-003, 8.74991808e-003, 5.36116911e-003,
       3.37229948e-003, 8.06638598e-003, 4.84992098e-003,
       8.68470501e-003, -1.49272569e-003, -1.20711764e-002,
       -1.55499959e-002, 9.72967420e-004, 6.62603835e-003,
       1.75298576e-003, 3.52131459e-003, -5.63255278e-004,
       -5.46542509e-003, -5.95061341e-003, -1.22853797e-002,
       -4.07535443e-003, -2.81075179e-003, 2.64189579e-003,
       -2.68072495e-003, 3.85717169e-004, 3.80012486e-003,
       7.15711666e-003, 2.57127627e-004, -1.03897033e-002,
       -1.05442358e-002, -2.29443167e-003, 2.25754757e-003,
       1.70991896e-003, -2.12755776e-003, 2.17378419e-003,
       1.45718772e-002, 6.22146996e-003, -6.85217464e-003,
       -9.91303590e-004, 7.36605935e-003, 6.80300524e-004,
       4.42952290e-003, -2.70470674e-003, -3.16361169e-004,
       -1.39139220e-003, -6.89999387e-003, -4.18362586e-004,
       9.38047539e-004, 4.42253798e-003, -7.50949280e-003,
       8.20460729e-003, 4.19726409e-003, 1.75667088e-003,
       -2.48612906e-003, -5.09052724e-003, -1.91379851e-003,
       1.32577843e-004, 2.89744651e-003, -2.93790037e-003,
       -3.14097176e-003, 6.48017623e-004, 3.16404738e-004,
       6.16786128e-004, -5.40410308e-003, 1.82147871e-003,
       -5.14830835e-003, -4.52124048e-003, -6.93620648e-003,
       3.74599872e-003, 5.80660766e-003, 6.12292392e-003,
       -2.61285040e-003, -1.15268929e-002, -5.54108946e-003,
       2.49154936e-003, 6.80182455e-003, 3.60575318e-003,
       1.55224707e-002, 7.40958517e-003, 9.19043960e-004,
       -2.06018868e-003, -2.48210435e-003, -1.33840786e-003,
       1.85973637e-004, -5.20802708e-003, -6.35222485e-003,
       6.14339765e-003, -4.88970382e-003, -6.30091364e-003,
       -4.98510292e-003, -2.69162608e-003, 1.16259977e-003,
       -2.62928428e-003, 5.64825814e-003, 8.69308505e-003,
       1.33628491e-002, 6.98082801e-003, -1.60159427e-003,
       -8.29917379e-003, -8.44567176e-003, -6.08566869e-003,
       4.01609484e-003, 9.54341609e-003, 5.71683887e-003,
       8.32755864e-003, -4.56812838e-003, -8.82043131e-003,
       -1.07937343e-002, -4.79866378e-003, -5.45070507e-004,
       6.14962867e-003, -4.66573983e-003, -1.20350569e-002,
       -4.56972048e-003, -7.96640664e-003, -2.28949147e-003,
       4.08119196e-003, 7.05328351e-003, 9.71634593e-003,
       -2.55407416e-003, -1.02677690e-002, -6.88758818e-003,
       2.47770129e-003, -2.63787131e-003, 1.30418865e-002,
       1.57240983e-002, 1.11708194e-002, 5.03153214e-003,
       1.45426076e-002, 1.00023625e-002, 3.22578035e-006,
       -5.58878295e-004, -8.23414885e-003, -3.70282237e-003,
       -1.17017084e-003, 4.71753441e-003, 9.50264465e-003,
       4.60906606e-003, 9.03129578e-003, -2.20492063e-003,
       -2.23021489e-003, -3.33325611e-003, 1.01482719e-002,
       6.89378241e-003, 1.50841735e-002, 3.19392839e-003,
       -1.70238893e-002, -1.21780112e-002, -5.19114872e-003,
       7.71142729e-003, 1.07103735e-002, 1.07238516e-002,
       -8.58934945e-004, -5.58106042e-003, -1.31290657e-002,
       -6.95357379e-003, -4.56983224e-003, 3.72605328e-003,
       1.37139065e-002, 1.30590331e-002, 5.40733384e-003,
       -1.49192614e-002, -1.02867540e-002, -9.82339866e-003,
       -1.45187192e-002, -5.39084896e-003, 3.60519020e-003,
       1.06085427e-002, 1.50940297e-002, 9.64992959e-003,
       -7.90132117e-003, -8.29047244e-003, -1.57001894e-002,
       -1.21968444e-002, -6.66979875e-004, 1.16781238e-002,
       2.16737576e-002, 2.34120432e-002, 1.21014044e-002,
       -1.66885909e-002, -1.78805012e-002, -9.87479091e-003,
       -2.16186134e-004, -2.72697001e-003, 2.38916534e-003,
       4.25373437e-003, 4.87546623e-003, 2.55319313e-003,
       -1.18820788e-002, -8.92843399e-003, 8.33313912e-004,
       2.17988202e-003, -4.67498030e-005, -5.96088497e-003,
       -8.84032901e-003, -3.97592317e-003, 4.06551873e-003,
       -2.12899665e-003, -2.50858022e-003, 3.87288746e-003,
       -1.26294680e-002, -3.96471145e-003, 3.75394616e-003,
       1.31146265e-002, 1.74950622e-002, 1.73244495e-002,
       -9.16494429e-003, -1.27953840e-002, -7.77185615e-003,
       -4.02939087e-003, -1.94778759e-003, -1.22023243e-002,
       4.23366297e-003, 4.05005226e-003, 2.16344874e-002,
       9.79951210e-003, 3.28402757e-003, -8.08160566e-003,
       4.97329049e-003, -5.29733370e-004, -9.02657397e-003,
       -1.46896867e-002, -6.54748548e-003, 5.43381367e-003,
       6.02145866e-003, 2.62638717e-003, 8.96255672e-003,
       1.45205539e-002, 1.10872490e-002, -2.12073186e-003,
       -6.21479424e-003, -1.54806981e-002, -1.64208340e-003,
       8.07580445e-003, -5.76571852e-004, 6.68640621e-003,
       -2.54603277e-004, 3.60944960e-003, -5.58457151e-003,
       2.68503488e-003, 2.87963613e-003, 1.13164913e-002,
       1.12278145e-002, 7.79286260e-003, -4.50300565e-003,
       5.02243079e-003, 9.86262131e-003, 5.26774023e-003,
       6.86061056e-003, -1.54423574e-003, 3.67386057e-003,
       1.25527550e-002, 8.01246054e-003, -8.79710307e-004,
       1.62109062e-002, 1.34986499e-002, 1.66550837e-003,
       3.99290724e-003, -7.13948114e-003, -3.91226728e-003,
       2.08119326e-003, -6.77735079e-003, 2.37304252e-003,
       3.67870391e-003, 2.17153737e-003, -1.07011094e-003,
       -7.86557735e-004, -5.96091338e-003, -8.89005978e-003,
       -7.47313816e-003, -1.53815057e-002, 6.00915449e-003,
       5.25114965e-003, 8.65157880e-003, 8.46638810e-003,
       8.35540332e-003, 7.41748512e-003, 6.84366934e-003,
       9.88033414e-003, -2.86657712e-003, 1.74804695e-003,
       -5.82903065e-003, 8.38735199e-004, 4.56814282e-003,
       8.16225633e-003, 1.38330813e-002, 7.52107659e-003,
       4.10635024e-003, -8.58987123e-003, -1.71634089e-003,
       8.29785690e-003, -2.78310594e-003, -2.21130811e-003,
       -3.88931879e-003, -5.72500564e-003, -1.22217946e-002,
       -9.47633106e-003, -1.20825646e-002, 8.06258339e-003,
       3.13346507e-003, -3.96981277e-003, -1.07433985e-003,
       3.38783138e-003, 8.65523051e-003, -1.88351271e-003,
       2.20215734e-004, -1.13453455e-002, 4.99877241e-003,
       -7.81833380e-003, -5.28912758e-003, 6.24711253e-003,
       1.06621515e-002, 1.00925574e-002, -2.47670105e-003,
       4.56474442e-003, -6.83737779e-003, 3.91829107e-003,
       -9.34269000e-003, -6.62327837e-003, 7.13947276e-003,
       1.87659394e-002, 1.27643449e-002, 6.74648723e-003,
       9.31214821e-003, -9.64110717e-003, -4.94047720e-003,
       -2.12988327e-003, -1.16385464e-002, -3.37052275e-003,
       5.65147074e-003, 1.32338963e-002, 9.30433162e-003,
       2.53119622e-003, -6.21450227e-003, -1.84634945e-003,
       -1.21708401e-002, -1.22045288e-002, -5.02047827e-003,
       5.04883646e-004, 9.88226943e-003, -4.80934605e-003,
       -9.44748428e-003, -1.40258837e-002, -1.01693422e-002,
       -1.37076173e-002, -1.06757097e-002, 1.38257155e-002,
       2.90042646e-002, 2.28384491e-002, 2.10796408e-002,
       -3.15334857e-003, -1.87035184e-002, -1.95028242e-002,
       -1.30518917e-002, -1.16122989e-002, -2.20263959e-003,
       1.69915613e-002, 1.27861360e-002, -3.38472106e-004,
       -1.45459846e-002, -2.62446627e-002, -2.13020518e-002,
       -4.69135679e-003, -4.56057210e-003, -4.24584420e-003,
       1.49907439e-003, -5.02496259e-003, -1.49409694e-003,
       6.51586568e-003, -5.26041677e-003, -5.77279506e-003,
       -5.99923823e-003, -6.17901981e-003, -2.52998760e-003,
       -1.04361717e-002, -1.21477088e-002, 2.06054072e-003,
       1.65420808e-002, 2.08233506e-003, -4.77781333e-003,
       -3.39035457e-003, -4.33551846e-003, -1.95355504e-003,
       -4.65858058e-004, -1.58471303e-005, 3.03560519e-003,
       6.21968647e-003, -1.11568477e-002, -1.15823457e-002,
       2.56399927e-003, 3.34510300e-003, 4.03882237e-003,
       -1.09652271e-002, -7.27635436e-003, 7.57579925e-003,
       9.40522272e-003, 4.34017135e-003, 2.81090429e-003,
       -1.09612048e-002, -4.14464949e-003, -5.93284424e-003,
       -1.27064483e-002, -1.31648742e-002, -5.52706979e-003,
       1.32563962e-002, -1.14245934e-003, -1.11536784e-002,
       -9.37830098e-003, -3.77679896e-003, -6.13967096e-003,
       -5.78258792e-003, -1.64137464e-002, -1.11763028e-003,
       9.61296447e-003, 3.59811098e-003, -1.15435775e-002,
       -5.16363047e-003, -4.23141028e-004, -1.25448685e-003,
       -1.10035017e-002, -5.60358446e-003, 1.98425678e-005,
       9.00904270e-005, -3.65579431e-003, -4.27073380e-003,
       -5.99579839e-003, -1.75330590e-003, -7.37754861e-003,
       -4.02117334e-003, -1.69474503e-003, 1.13402791e-002,
       1.79446880e-002, 2.94113113e-003, -7.64944684e-003,
       1.40325446e-003, -6.09590393e-003, -6.61305618e-003,
       -8.85679014e-003, -1.19441757e-002, -7.49992486e-003,
       4.05314052e-003, 3.02048423e-003, 2.79181264e-003,
       -5.45216957e-003, -4.31360723e-003, -1.52225536e-003,
       -2.57614092e-003, -1.31069974e-003, 2.92684324e-003,
       5.09160710e-003, 7.42331031e-005, -3.71467439e-003,
       8.44231155e-003, 7.13002915e-003, -3.34000215e-003,
       -7.19404686e-003, -2.22714320e-002, -1.26128932e-002,
       3.00066033e-003, 1.29716322e-002, 1.26279155e-002,
       5.77960769e-003, 1.31752435e-002, 8.56166054e-003,
       -5.81975281e-003, -1.16267158e-002, 2.76745181e-003,
       1.81109384e-002, 2.16401909e-002, 1.10381907e-002,
       -6.67040469e-003, 3.20883142e-003, 8.04029219e-003,
       6.46715704e-003, -5.73516591e-003, -2.33387575e-003,
       -2.13546772e-003, -1.91321503e-003, -9.81604867e-003,
       -8.86136387e-003, 2.09055911e-003, 2.50547985e-003,
       6.45537954e-003, -8.29623546e-003, -3.91639071e-003,
       -7.28516094e-003, -4.88966657e-003, -6.42625429e-003,
       2.32276018e-003, 8.12175404e-003, 8.31376947e-003,
       3.38496990e-003, -1.60766337e-002, 6.10335683e-003,
       1.89229921e-002, 2.05468964e-002, 9.05515905e-003,
       6.66920748e-003, 3.44588025e-003, 1.70053856e-003,
       4.39002644e-003, -1.07128005e-002, 5.69186313e-003,
       4.97177057e-003, 1.19569926e-002, 1.00776833e-002,
       -2.81457510e-003, 2.57505500e-003, 3.54306353e-003,
       3.58059397e-003, -7.81870075e-003, 1.73404801e-003,
       -5.38858864e-003, -2.88072927e-003, -2.53926497e-003,
       -4.13390109e-003, 3.04917060e-003, 1.72684574e-003,
       -2.01705541e-003, -1.46966930e-002, -8.97671469e-003,
       -1.34832095e-002, -3.38312285e-003, -7.52877584e-003,
       2.28203330e-002, 3.57651850e-003, 5.43154078e-003,
       1.04291266e-005, -1.38246808e-002, 7.62957521e-003,
       3.26970662e-003, 6.54031523e-003, 1.97921228e-002,
       1.48258125e-002, 1.78697780e-002, 1.33728776e-002,
       -1.34627533e-003, -2.12023631e-002, -1.15121072e-002,
       -1.19287921e-002, -2.21177959e-003, 3.55536793e-003,
       -1.04601793e-002, -6.43263164e-004, 5.81770809e-003,
       9.38751549e-003, 1.26618252e-003, -2.29836418e-003,
       -1.19373621e-002, -6.89227926e-003, -1.14121493e-002,
       -6.30588364e-003, -4.55185352e-003, 5.15221432e-003,
       1.58129334e-002, 1.63622573e-002, 1.05046853e-002,
       -5.16428519e-003, -5.71720162e-003, -5.69623226e-005,
       -2.66218581e-003, 1.07565820e-002, 1.30133824e-002,
       9.27550904e-003, -9.91331530e-004, -3.57812713e-003,
       -1.19127017e-002, -1.02653727e-002, -7.11817946e-003,
       -6.78356178e-003, 3.26417794e-004, 5.28075127e-003,
       1.23494156e-002, 1.83320753e-002, 1.46186929e-002,
       2.14116546e-004, -2.04021623e-003, 7.65579462e-004,
       -7.58672785e-003, -8.97023361e-003, -8.94357392e-004,
       1.02968672e-002, 1.65889636e-002, 1.53907910e-002,
       -2.63106194e-003, -5.73358266e-003, -1.74941740e-003,
       -4.13885992e-003, -5.50349895e-003, -4.93363058e-003,
       -2.36013508e-003, -7.06500432e-004, 1.05193527e-002,
       -2.96593906e-004, -1.33730029e-003, -1.37796893e-003,
       -5.54982992e-003, 2.40267371e-004, 1.78153478e-002,
       5.17119607e-003, 6.08229591e-003, 1.23375412e-002,
       -5.20225614e-003, -1.03543624e-002, 5.55914128e-003,
       7.55611388e-003, -2.00243993e-003, 8.06753803e-003,
       -9.91732581e-004, -8.14311113e-003, 9.85580147e-004,
       -5.94250020e-003, -1.13718575e-002, 1.13746058e-002,
       9.16493125e-003, -1.43523107e-003, -4.81592352e-003,
       -1.96505571e-003, -1.72608322e-003, 2.69483635e-003,
       3.78058059e-004, 2.35874183e-003, 8.47671553e-003,
       7.23030884e-003, -1.50562031e-003, 9.39366315e-003,
       -2.57432694e-003, -4.40872554e-003, -5.63428737e-003,
       -1.13201339e-003, 1.83332502e-003, 1.26798498e-002,
       9.92864463e-003, -1.36066573e-002, 2.42524478e-003,
       -3.54291010e-003, -7.37935677e-003, -1.03387435e-003,
       1.94822752e-003, -7.05552381e-003, 9.06763878e-003,
       1.85945351e-003, -1.45389764e-002, 1.47987471e-003,
       -9.19951475e-004, -3.20745725e-003, 1.87033834e-003,
       5.91768650e-003, -2.19982583e-003, 6.33497816e-003,
       5.87713905e-003, -5.50039532e-003, 1.03063881e-002,
       -1.22165284e-003, -6.38062228e-003, -4.31901170e-003,
       -3.81008722e-003, -5.62393339e-003, 1.48160728e-002,
       -4.17027809e-003, -6.71770377e-003, 6.04293216e-003,
       4.36546374e-003, 5.26876282e-003, 3.41187813e-003,
       -3.74745391e-003, -8.99222307e-003, 4.17628186e-003,
       9.18743853e-003, -1.16153881e-002, 5.32905990e-003,
       -2.23761192e-003, -6.07013935e-003, 1.92776439e-003,
       1.08006969e-003, -6.27994910e-003, 1.57412961e-002,
       6.64791791e-003, -1.10435355e-002, -5.11266117e-004,
       -5.72322914e-003, -6.35154406e-003, 1.83404179e-003,
       -4.19992814e-003, -1.23855649e-002, 7.64786033e-003,
       -7.28829345e-003, -1.05057452e-002, 4.42344986e-004,
       1.42960972e-003, 4.09284281e-003, -1.79902464e-003,
       5.28426375e-003, -5.59651991e-003, 4.18446446e-003,
       -1.15526677e-003, -7.61072943e-003, 4.48646815e-003,
       7.22145801e-003, 9.46243666e-003, 5.78211097e-004,
       8.00863188e-003, -4.83289873e-003, 1.32413080e-003,
       8.31413176e-003, -6.34067599e-003, 1.21676491e-003,
       -6.27611065e-003, -3.35975969e-003, -4.29455750e-003,
       7.74091750e-004, -1.06553873e-002, 7.48289702e-003,
       5.63842244e-003, -7.49855209e-003, -1.25920307e-003,
       -1.98268238e-003, -1.84950558e-003, -1.84670405e-003,
       -3.48075177e-003, -1.01232268e-002, 6.68282807e-003,
       6.11002045e-003, 2.47663306e-003, 1.96105912e-002,
       2.69776992e-002, 1.24427658e-002, 5.33350091e-003,
       -9.31643695e-003, -1.64285637e-002, 3.11131403e-003,
       6.96837856e-003, -2.65785027e-003, 4.90328111e-003,
       1.23378513e-002, 5.54034347e-003, -1.20060798e-003,
       -2.09244043e-002, -2.52364893e-002, -3.12234252e-003,
       6.47016149e-003, -3.17017199e-003, 6.08107122e-003,
       -1.34946225e-004, -9.95665416e-003, -7.82386342e-004,
       -1.32971695e-002, -7.41530349e-003, 4.27807495e-003,
       9.04741976e-003, -4.06726310e-003, -1.07205973e-003,
       -1.24495178e-002, -8.70125368e-003, -6.42300164e-003,
       -1.93544198e-002, -3.09037743e-003, 3.89607530e-003,
       -6.84881001e-004, -7.78144971e-003, -6.79176068e-003,
       -7.71068456e-003, -6.09673385e-004, 8.75073485e-003,
       -3.21873289e-004, -3.16813262e-003, -6.32348296e-004,
       6.07034657e-003, 5.01662958e-003, 1.12364115e-002,
       -1.20209635e-003, -1.92143512e-003, 6.74309349e-003,
       1.09413108e-002, 9.74138360e-003, 6.37243269e-003,
       -9.17541678e-004, -1.01724761e-002, -7.16555398e-003,
       -1.92219485e-003, -8.25610012e-004, 8.07190221e-003,
       3.28384223e-003, 1.14366822e-002, 5.28520113e-003,
       -5.56150451e-003, -3.79191316e-003, 1.91325147e-003,
       3.58763128e-003, 5.31745981e-003, 3.34570115e-003,
       -1.27513311e-003, -3.14509077e-003, -8.65733158e-003,
       1.10611441e-002, 1.09294727e-002, 1.41555760e-002,
       4.71096858e-003, 5.24179777e-003, -1.53986458e-003,
       1.13815826e-003, 1.29977539e-002, 3.66960210e-003,
       -5.79072349e-003, 1.12475164e-003, -3.20062786e-003,
       8.09872290e-004, 4.45290795e-003, 5.94885042e-003,
       9.98317823e-003, 2.81915441e-003, -3.72481742e-003,
       -4.08939738e-003, 2.40309676e-003, 7.15907710e-003,
       4.02805721e-003, -4.10226453e-003, -6.90524606e-003,
       4.60774638e-004, -4.74619301e-004, -9.55850631e-003,
       -2.02758461e-002, -3.27955396e-003, -6.74979109e-003,
       -4.38915519e-003, -9.87290964e-003, -3.86352814e-003,
       -1.91486883e-003, -4.23293887e-003, -2.22302787e-002,
       8.61332472e-003, 7.87784066e-003, 1.39702787e-003,
       -6.26903400e-003, -2.32545715e-002, -6.18382962e-003,
       1.39182783e-003, 8.32427386e-003, 9.74565651e-003,
       7.45135034e-003, 9.28305928e-003, 3.04721692e-003,
       -4.53935331e-003, -1.02534853e-002, 4.49133385e-003,
       1.90140754e-002, 2.04085968e-002, 1.03760250e-002,
       -3.30453552e-003, -8.80498963e-004, 3.86260333e-003,
       -2.16765935e-003, -9.63217579e-003, 8.65056179e-003,
       -3.40364262e-004, 3.95838823e-003, -1.00868428e-003,
       -8.76027718e-003, -5.01606427e-003, 2.23110011e-003,
       -7.50330882e-003, -8.63715075e-003, 8.29545502e-003,
       6.15537539e-003, 6.59563346e-003, -6.03674306e-003,
       1.83560187e-004, 4.38235002e-003, 5.33269765e-003,
       -8.42853158e-004, -1.43722473e-002, 6.41659833e-003,
       1.96137968e-002, 2.48327367e-002, 1.04067381e-002,
       1.14876889e-002, 2.22594966e-003, 4.05663066e-003,
       2.36312277e-003, -1.17129367e-002, 4.55092452e-003,
       1.36537878e-002, 1.58489700e-002, 1.22840358e-002,
       -1.73015483e-002, -1.10859117e-002, -6.69430883e-004,
       -5.11081889e-003, -1.26373367e-002, 6.60502911e-003,
       8.92449263e-003, 1.16639407e-002, -1.39933534e-003,
       -9.15099680e-003, -1.70475245e-002, 1.30400597e-003,
       6.18962478e-003, -5.43653034e-003, 1.51379462e-002,
       1.34919807e-002, 6.50963467e-003, -7.19249947e-003,
       1.88082010e-002, -8.13595310e-004, -7.40635500e-004,
       -3.98951676e-003, -1.65462028e-002, 1.45449908e-003,
       7.48521136e-003, 7.24239321e-003, 2.16305666e-002,
       2.30387393e-002, 1.49620939e-002, 4.63197520e-003,
       -2.48185522e-003, -1.76322777e-002, -1.03059085e-002,
       -6.02672575e-003, 3.26005439e-003, 1.72312949e-002,
       5.16113685e-003, -1.76925473e-002, -5.73770981e-003,
       -8.18258850e-004, -8.10150430e-003, 8.22162256e-003,
       8.62722006e-003, -1.82072178e-003, 2.52650166e-003,
       9.73127224e-003, -8.31458345e-003, -1.55363940e-002,
       -8.92640278e-003, -9.90931410e-003, -3.68004385e-003,
       -3.28520685e-003, 1.45771005e-003, 1.51568968e-002,
       1.25756199e-002, 1.38820512e-002, 6.78771222e-003,
       6.86330302e-003, -5.69103379e-003, -9.57326870e-003,
       -8.01300537e-003, -5.34352381e-003, 6.81618182e-003,
       1.55706482e-003, 6.78367214e-003, -3.30195297e-003,
       3.11155827e-003, 2.82623153e-003, 5.77317458e-003,
       1.72309205e-003, 1.70427922e-003, 7.01926881e-003,
       2.73056538e-003, 4.00815252e-003, -4.49410547e-003,
       -2.21897126e-003, -8.66902620e-003, -8.34850688e-003,
       -4.95910598e-003, -2.30618007e-003, 1.01530030e-002,
       2.05951568e-004, 3.46888695e-003, -1.27501991e-002,
       3.47559544e-004, 7.52490060e-003, 1.27555411e-002,
       9.22244508e-003, 9.61216353e-003, 8.29342660e-003,
       9.65162995e-004, 8.08212627e-003, 6.10003807e-003,
       -3.50069495e-005, 4.00624517e-003, 1.18712382e-002,
       3.96588584e-003, 2.18422920e-003, 1.39297899e-002,
       -1.35074113e-003, 7.87566230e-003, 2.21944135e-002,
       -5.93691180e-003, -1.98759846e-002, -1.01991287e-002,
       -5.15442155e-003, -5.77281322e-003, 1.77710364e-003,
       -7.17952475e-003, 7.61020649e-003, -8.03618133e-003,
       -3.52725037e-003, 1.30992830e-002, 1.93077903e-002,
       1.33620817e-002, 5.09547396e-003, 8.75643920e-003,
       -1.24953790e-002, 9.00572995e-005, 7.84356240e-003,
       -6.46037608e-003, -8.13781098e-003, -8.06403905e-003,
       -5.05764643e-003, -6.28930936e-003, -8.81512649e-003,
       1.76140647e-002, 3.03494628e-003, 2.50138026e-002,
       4.17918153e-003, -1.44945560e-002, -5.34232566e-003,
       1.37732062e-003, -6.58595018e-005, 1.46611454e-002,
       1.30079677e-002, -1.28745679e-002, -3.50334030e-003,
       4.04089224e-003, -1.50779448e-003, 4.65346314e-003,
       3.39446357e-003, -1.53433881e-003, 1.67241879e-002,
       -1.11624692e-003, -3.91438109e-004, 1.17741572e-002,
       -3.85698717e-004, -1.01615945e-002, -1.10072047e-002,
       -4.37312853e-003, 1.43237630e-004, 6.95769151e-004,
       1.11637544e-002, -5.38899936e-003, -1.18084103e-002,
       -5.62138343e-003, -1.08146202e-002, -7.34247733e-003,
       -5.87104494e-003, -6.12629438e-003, 3.95935262e-003,
       2.75571216e-002, -3.90521064e-003, 3.21907573e-003,
       -1.75797509e-003, -4.31323797e-003, 3.06209922e-003,
       1.14793272e-003, -1.20862946e-002, 2.44311523e-002,
       2.66345274e-002, -3.66286421e-003, -3.78316641e-003,
       -1.08851055e-002, -9.96899419e-003, -2.43656832e-004,
       2.76849489e-003, -1.39871584e-002, 1.99284703e-002,
       1.50209609e-002, 1.34503655e-003, -3.24277650e-003,
       -6.07343670e-003, -1.11125782e-002, -4.36648214e-003,
       -3.93813057e-003, -1.03455996e-002, 1.31949142e-004,
       1.12529155e-002, -5.97050739e-003, -8.93432274e-003,
       -1.70885921e-002, -1.20573370e-002, -9.75373725e-004,
       -4.59530251e-003, -1.54846879e-002, -8.10933299e-004,
       2.79106926e-002, -1.57959363e-003, -2.80110631e-003,
       -1.02167167e-002, -1.13034779e-002, -4.86853207e-003,
       4.08607163e-003, -7.99193513e-003, 1.93026010e-002,
       2.55385805e-002, 2.61253607e-003, -3.66481574e-004,
       -6.06538355e-003, 7.42033008e-004, -6.22434914e-003,
       -5.30648418e-003, -9.10678599e-003, 1.34006906e-002,
       3.46569531e-003, -9.06366203e-003, -1.16125001e-002,
       -1.85237937e-002, -1.00826221e-002, -2.48799962e-003,
       -3.74845369e-003, -1.12197455e-002, -4.91225999e-003,
       3.23586375e-003, 2.04950012e-003, -6.96262624e-003,
       -1.36488676e-002, -1.01573076e-002, -5.51136676e-003,
       -4.82708728e-003, -1.36946505e-002, -1.12766437e-002,
       2.02027746e-002, 8.41039419e-003, 9.05537046e-003,
       4.49321757e-004, -4.63056052e-003, -9.01840627e-003,
       -9.40191932e-003, -4.35173418e-003, 1.12659335e-002,
       1.90001931e-002, 4.99635702e-004, 2.86765210e-003,
       -4.84927651e-003, -8.67289957e-004, -3.39174806e-003,
       9.14796547e-004, 1.55239999e-002, 2.71958876e-002,
       5.47782145e-003, 7.11677084e-003, 6.03773491e-003,
       -5.24514029e-003, -1.53900590e-002, -1.79180875e-002,
       -6.75066048e-003, -8.52565374e-003, -8.25656019e-003,
       2.94698402e-003, -8.57710466e-003, 7.29092804e-004,
       1.69747858e-003, -3.65954963e-003, -5.00747981e-003,
       2.36512232e-003, 2.92563182e-003, 3.04597081e-003,
       -8.89926567e-004, -8.86224955e-003, -4.19718353e-003,
       -1.65491062e-003, 3.67247779e-003, -2.09967280e-003,
       5.12302062e-003, 1.06051406e-002, 1.48581108e-002,
       -7.11513171e-003, -3.45660793e-003, 4.42413613e-003,
       4.14962415e-003, 1.24127623e-002, -7.40357675e-003,
       -1.00886440e-002, -8.99442565e-003, -6.47203857e-003,
       -5.20240609e-003, -1.31971380e-002, -5.34588285e-003,
       4.61050821e-003, 1.94149744e-002, 9.26471781e-003,
       5.49541228e-003, -1.82453275e-003, 1.20636413e-003,
       -6.90497691e-003, -5.44178253e-003, -1.96676352e-003,
       6.79396791e-003, 2.52254624e-002, -1.10371551e-002,
       -1.91123690e-002, -1.62502248e-002, -7.23301060e-003,
       7.99581103e-005, 2.51360284e-003, 1.19434148e-002,
       1.29020102e-002, 9.56468843e-003, -3.96843487e-003,
       -1.45604645e-004, 2.29802472e-003, -1.75993657e-003,
       -8.03117547e-003, 7.25132704e-004, 1.80982787e-003,
       2.36882782e-003, 3.26245720e-003, 1.03494432e-002,
       1.81612968e-002, 6.15468947e-003, -1.45048620e-002,
       3.43617820e-003, -2.14195973e-003, -1.34391338e-003,
       6.60020392e-003, 1.10573741e-002, -1.48030138e-002,
       -1.05367824e-002, -1.28368754e-003, 9.12629301e-004,
       -9.98746790e-003, -1.33089079e-002, -3.14806239e-003,
       1.59545685e-003, 3.89177701e-003, -6.73901336e-003,
       1.25209689e-002, 8.41201982e-004, -1.25771575e-002,
       -4.72249975e-003, -2.67657707e-003, 5.49436547e-003,
       6.26110099e-003, 8.60431790e-003, 2.02674810e-002,
       2.41791084e-003, -7.10126944e-004, -8.54718592e-003,
       -1.05735464e-002, -3.15088662e-003, 5.25653875e-003,
       9.57484078e-003, 1.12551739e-002, 1.91298164e-002,
       4.13036440e-004, 3.29005416e-004, -7.21679721e-003,
       -9.66330431e-003, -5.03915269e-003, -6.32793782e-003,
       2.00587348e-003, -3.49695259e-003, 1.09273354e-002,
       -2.35894299e-003, -6.60554972e-003, -1.58178993e-002,
       -1.86023116e-002, -4.01702570e-003, -1.49585109e-003,
       2.62145442e-003, 4.58688941e-003, 5.48757380e-003,
       -7.28122052e-003, -7.38042314e-003, -1.96142290e-002,
       -2.26723738e-002, -6.77365391e-003, 3.27751762e-003,
       1.87539891e-003, 3.42545172e-005, 7.28606060e-003,
       -2.72081327e-003, 2.81085749e-003, -1.19689489e-002,
       -8.43871571e-003, -7.61340139e-003, 1.07587418e-002,
       1.37657057e-002, 1.62521412e-003, 2.17755791e-002,
       1.17863966e-002, 9.67821386e-003, 9.42259934e-003,
       -2.22850647e-002, -2.70181033e-003, 1.22689130e-003,
       4.37046401e-003, 6.31117588e-003, 4.74433368e-003,
       -1.05864517e-002, -2.97668553e-003, -1.68379191e-002,
       -8.47626105e-003, 1.37872424e-003, 1.22020515e-002,
       2.33424231e-002, 6.13313681e-003, 1.72984712e-002,
       -2.75492761e-003, 3.71107808e-003, 1.33105377e-002,
       5.77207282e-003, -1.48602696e-002, -3.65043036e-003,
       -2.05281610e-003, -4.06714389e-003, 1.46612739e-002,
       5.37702860e-003, -5.68653969e-003, 1.75162330e-002,
       1.60636250e-002, -1.94221158e-002, -1.53434593e-002,
       -8.44727270e-003, -1.36757605e-002, -2.40081875e-003,
       -5.41161047e-003, -1.28787933e-002, 1.41173918e-002,
       1.04571031e-002, -4.41730022e-003, -1.00186456e-003,
       6.08677603e-003, 1.07057544e-003, 8.61929823e-003,
       -4.89789061e-003, -1.56895258e-003, 3.49067897e-002,
       2.52174195e-002, -9.71833244e-003, -6.03929674e-003,
       -9.01649613e-003, -1.67593975e-002, -6.44750660e-003,
       -8.97491258e-003, -1.26197012e-002, 2.29392480e-002,
       7.62754399e-003, -7.54461670e-003, -1.15043288e-002,
       -1.38641149e-003, -8.04373622e-003, -9.17080045e-003,
       -6.04321295e-003, -9.74971708e-003, 1.25463335e-002,
       8.43115989e-003, -3.88311833e-004, -9.14426427e-003,
       7.84630328e-003, 1.19254580e-002, 7.94875436e-003,
       1.73961243e-003, 1.57172221e-003, 2.03114059e-002,
       1.85957924e-002, -8.80341418e-003, -8.45387205e-003,
       -8.52070935e-003, -2.00161710e-002, -1.22087318e-002,
       -1.21576292e-002, -1.28471917e-002, 1.97788347e-002,
       1.89780444e-002, -6.28507650e-003, -9.73804947e-003,
       -4.75116819e-003, -6.62577245e-003, -1.08122481e-002,
       -9.76645108e-003, -1.71458372e-003, 2.17111222e-002,
       -1.76546827e-003, 7.04024406e-003, -1.03994105e-002,
       -4.57838214e-005, 1.48191592e-002, 2.05498524e-002,
       3.05142603e-003, 3.96144111e-003, 9.20324773e-003,
       -2.84871813e-002, -1.20974483e-003, 2.20163446e-003,
       -6.00306178e-003, 6.75898977e-003, 3.66495736e-003,
       -2.72748619e-003, -2.99250451e-003, -2.46971510e-002,
       1.38950311e-002, 1.16638711e-003, -7.43939728e-003,
       4.08799999e-004, 1.20207164e-002, 2.77142646e-003,
       -7.75635475e-003, 3.04784486e-003, 1.28990132e-002,
       -1.83481649e-002, -3.65371979e-003, -1.41563844e-002,
       -4.11760341e-003, 1.66365709e-002, 6.07920205e-003,
       -2.56396970e-003, -3.95803992e-003, -1.87285561e-002,
       -6.08306704e-003, 1.71121508e-002, 3.11171692e-002,
       1.05051417e-002, 3.66930524e-003, -1.34402735e-003,
       -9.94988135e-004, 5.67791890e-003, -1.23881781e-002,
       3.58238746e-003, 5.67821180e-003, 6.47167722e-003,
       3.13386298e-003, -4.93602408e-003, -6.23937137e-003,
       3.41671170e-003, 7.32267043e-003, -6.54027172e-005,
       -1.93717272e-003, 9.11996979e-003, 6.00606902e-003,
       1.07933776e-002, 1.56973954e-002, 1.22177852e-002,
       5.76433819e-003, 1.25219086e-002, -6.34269230e-003,
       -5.25253639e-003, 6.74157264e-003, 5.55251306e-003,
       3.17800720e-003, -1.00149773e-002, -3.96342308e-004,
       3.11689964e-003, 1.37778558e-002, -3.94381210e-003,
       6.20344095e-003, 9.12226178e-003, 4.37511597e-003,
       3.65790143e-003, -9.93244117e-004, 4.14433982e-003,
       1.03819808e-002, 9.61750187e-003, 1.46882888e-003,
       3.04177566e-003, 1.20648229e-002, 5.09038055e-003,
       -5.51619846e-003, 9.02754953e-004, 8.20800383e-003,
       7.98516348e-003, 4.13805479e-003, 6.51541282e-004,
       -3.07212817e-003, 4.29578545e-003, -2.20589296e-004,
       4.42085229e-003, -4.63607023e-003, 6.86052954e-003,
       7.62536796e-003, 1.56401712e-002, -2.82464456e-003,
       -8.31205025e-003, 1.00513240e-002, 3.48299998e-003,
       -2.56237155e-003, 1.06828425e-004, 1.05965212e-002,
       8.89276806e-003, 1.08029684e-002, -2.05918355e-003,
       -5.64460224e-003, 9.65533964e-003, 2.77329353e-003,
       -1.29533615e-002, -7.17135670e-004, 2.54979823e-003,
       5.06001106e-003, 5.56233758e-003, -8.73386115e-003,
       2.64903437e-003, 1.43363662e-002, 5.10013569e-003,
       -1.82263530e-003, -4.04194789e-003, 4.96226421e-004,
       3.72837135e-003, 5.71666751e-003, -4.67990246e-003,
       -7.07046315e-003, 1.48631930e-002, 5.01910970e-003,
       -7.32171349e-003, 1.74796535e-003, 6.48568338e-003,
       6.31932542e-003, 7.57391099e-003, -3.63044976e-003,
       8.13357718e-003, 1.63753144e-002, 1.00701088e-002,
       1.32068601e-002, 3.16504040e-003, 7.70029938e-003,
       6.89482875e-003, 1.08564040e-002, 6.99975237e-004,
       -1.11171498e-003, 1.18233189e-002, 1.15327053e-002,
       -1.35487609e-003, -1.73436850e-002, -1.20175183e-002,
       2.42311694e-003, -2.38304865e-003, -1.15324920e-002,
       4.73099854e-003, 1.50685962e-002, 1.92262921e-002,
       2.43398007e-002, 1.15331225e-002, -5.98359504e-004,
       1.32037653e-003, -6.95843110e-003, 8.18312634e-004,
       -5.89670904e-004, 1.32785831e-002, 1.01179853e-002,
       5.86482882e-003, -8.58335942e-003, -4.63921530e-003,
       4.08715243e-003, 5.17052365e-003, -1.00131324e-002,
       2.61352956e-003, 1.83134098e-002, 1.98291130e-002,
       2.94077601e-002, 1.37019316e-002, -5.25620067e-004,
       4.36401274e-003, 7.27525307e-003, -7.52403028e-003,
       -6.86886767e-003, -6.60740677e-003, -1.45979412e-003,
       1.95995681e-002, 2.91172192e-002, 2.47777160e-003,
       -7.54901255e-003, -1.60670765e-002, -1.45292198e-002,
       -1.79443939e-003, -4.77819797e-003, -5.73901413e-003,
       6.40005281e-004, 2.02681404e-002, -1.48675535e-002,
       -2.32259911e-002, -1.55390399e-002, -4.99863271e-003,
       -1.05788000e-002, -4.66014305e-003, -1.45955512e-003,
       2.20268089e-002, 2.80528776e-002, 1.15412171e-003,
       -1.22245159e-002, -5.76228695e-003, -1.46822566e-002,
       -6.90015778e-003, -7.75553938e-003, -9.79323871e-003,
       -3.57572595e-003, 1.58350281e-002, -1.19881360e-002,
       -1.10690286e-002, -9.43646301e-003, -3.24332807e-003,
       1.19453380e-002, 6.37451373e-003, 3.35369399e-003,
       -1.07490097e-003, 6.58295723e-003, -1.44639825e-002,
       -9.46337357e-003, 2.18543527e-003, 1.26093468e-002,
       8.30950798e-004, -1.36862381e-003, -1.30014797e-003,
       1.90340716e-003, 3.43887415e-003, -1.05050337e-002,
       3.36202350e-003, 5.35790296e-003, 9.10913385e-003,
       8.22855812e-003, 4.31700889e-003, 2.58019846e-003,
       -6.43878896e-003, 7.58700678e-003, -7.44540105e-003,
       2.59105815e-003, 3.58722289e-003, 8.86147842e-003,
       1.29270256e-002, 6.65705744e-003, 3.88726778e-003,
       5.78065345e-004, -1.32893035e-002, -2.14443784e-002,
       -5.22506936e-003, 4.04786039e-003, 8.49701837e-003,
       -9.12941759e-005, -2.67060939e-004, -1.59133738e-003,
       -3.35500023e-004, -7.16856774e-003, -2.38761236e-003,
       -4.39264113e-003, -7.22847617e-005, -9.92132816e-004,
       -8.33931938e-003, 1.84315853e-004, 2.90191936e-004,
       1.44639052e-003, 9.34337557e-004, 4.66153026e-003,
       -4.28090664e-003, -4.05763369e-003, -8.23985506e-003,
       -9.48036832e-005, 4.71825246e-003, 5.33423014e-003,
       1.02646919e-002, -4.59580589e-003, -4.05519357e-004,
       -2.27883225e-003, 1.99869857e-003, 7.97088258e-004,
       -5.84755233e-003, 1.82713347e-003, 4.22290247e-003,
       4.10067150e-003, 2.14702822e-003, 1.17527936e-002,
       -4.04275168e-004, -5.40103429e-005, -5.76193852e-004,
       -1.59333497e-002, -3.22309462e-003, -9.67292953e-003,
       -1.15869958e-002, 6.89595938e-003, -5.36194490e-003,
       -1.05583146e-002, -6.28869934e-003, -1.43319489e-002,
       -7.27427658e-003, -8.83302884e-004, -2.12475960e-003,
       1.89746004e-002, 1.51538188e-002, 7.99232069e-003,
       -1.09063340e-002, -4.84768488e-003, 6.60678325e-003,
       -1.10906819e-002, -6.38620881e-003, -1.00922389e-002,
       -9.71393008e-003, 1.10497354e-002, -6.65254332e-003,
       -6.57918816e-003, -6.70256512e-003, -9.40104946e-003,
       -8.30034632e-003, -8.21942464e-003, -4.22927598e-003,
       1.91684328e-002, 1.39306886e-002, 4.95159021e-003,
       -1.23275034e-002, -9.37077962e-003, 1.86023500e-003,
       1.38327796e-002, -3.50451097e-003, -3.96712311e-003,
       6.21833745e-003, 2.46730028e-003, 5.99212981e-005,
       -9.06110648e-003, -2.82051857e-003, 3.91724221e-002,
       1.45546701e-002, -1.46300215e-002, -6.27593929e-003,
       -6.66910456e-003, -1.28203211e-002, -1.65546108e-002,
       -1.84629764e-002, -1.43133607e-002, 3.76793407e-002,
       -7.59874005e-003, -8.86243582e-003, -5.45792002e-003,
       7.74258794e-003, 8.29342566e-003, -4.13242058e-004,
       -9.17655788e-003, -3.25414771e-003, 8.70893337e-003,
       -1.30913341e-002, -1.90948062e-002, -7.55043002e-003,
       9.10664967e-004, 6.39388862e-004, -7.64904870e-003,
       -1.23553611e-002, -9.82717145e-003, 1.30183398e-004,
       9.73211043e-003, -1.83091797e-002, -6.79016998e-003,
       5.11435652e-003, -3.13050882e-003, -6.61151903e-003,
       -6.89160172e-003, -1.27128391e-002, 2.62704808e-002,
       1.32017490e-002, -1.55672692e-002, -5.54772047e-003,
       3.55390180e-003, 7.68724177e-003, -1.39407143e-002,
       -9.95980669e-003, -1.28049580e-002, 2.17669103e-002,
       -1.05893128e-002, -1.64774954e-002, -7.08300620e-003,
       1.12992441e-002, 3.41992872e-003, 3.25621874e-003,
       -5.51794702e-003, -6.86222361e-003, 3.51110846e-003,
       1.06602165e-004, -9.40892287e-003, -7.88105372e-003,
       8.40825029e-004, 1.04839588e-003, -3.62345669e-003,
       -6.43362151e-003, -5.75474836e-003, 9.97169223e-003,
       1.57063343e-002, 2.22253078e-003, 8.86053871e-003,
       1.08950762e-002, 1.34051880e-002, -3.49388644e-003,
       -8.38042703e-003, -1.30408667e-002, 1.10016335e-002,
       -1.32899052e-002, 2.06808536e-003, 1.19985989e-003,
       8.62406474e-003, 2.21311171e-002, 5.74628543e-003,
       -1.19955721e-003, -5.24377357e-003, -1.77563298e-002,
       1.39425723e-002, 8.46322800e-004, 4.70452523e-003,
       3.28585273e-003, 1.04401018e-002, -8.86869617e-004,
       -3.72180110e-003, -4.99236071e-003, 1.18434122e-002,
       -6.27780147e-003, 2.57884298e-004, 4.53090342e-003,
       -1.16613181e-003, 1.72736053e-003, -1.81463372e-003,
       -2.49966420e-003, -1.00023707e-003, -8.48585553e-003,
       -1.10153956e-002, 7.46712228e-003, 2.68543186e-003,
       1.01800989e-002, 1.75639503e-002, 1.09108426e-002,
       9.16129723e-003, 1.00494660e-002, -1.01805022e-002,
       -9.91313346e-003, 1.07171172e-002, 7.03152129e-003,
       5.45722572e-003, -8.47442448e-003, 2.62873876e-003,
       2.71228212e-003, 9.83771961e-003, -9.20465775e-003,
       -2.33894476e-004, 6.16068672e-003, 1.07782139e-002,
       4.13132645e-003, 8.65240674e-003, 1.10301608e-002,
       1.33705139e-002, 1.02628525e-002, 4.73467959e-003,
       3.22190532e-003, 1.44471936e-002, 1.37086632e-002,
       3.93649656e-003, -4.69478499e-003, 1.78870850e-003,
       5.77245047e-003, 5.28202811e-003, 3.29599902e-003,
       -7.45662348e-003, 8.18538945e-003, 2.96718837e-003,
       7.53356656e-003, -4.49341629e-003, 5.65218879e-003,
       5.42414328e-003, 1.18715111e-002, -7.11928168e-003,
       -1.17646409e-002, 6.15984574e-003, 1.76812708e-003,
       4.94771637e-003, 3.41794523e-003, 9.27428715e-003,
       1.14251496e-002, 9.96219181e-003, -6.43962435e-003,
       7.97164440e-003, 1.29555399e-002, 6.77437615e-003,
       7.82449171e-003, -2.32141628e-003, 1.45021197e-003,
       7.55515369e-003, 1.27979936e-002, 4.04304080e-003,
       3.66817391e-003, 5.98685443e-003, 9.55842086e-004,
       2.40825233e-003, 2.77881511e-003, 6.74053386e-004,
       1.74539108e-002, 2.09818576e-002, 1.48955628e-003,
       -3.50238313e-003, 1.21608321e-002, 1.05495588e-003,
       1.80971721e-004, 8.02617241e-003, 6.38655759e-003,
       6.05847081e-003, 2.16146675e-003, -6.60193618e-003,
       7.15797395e-003, 1.20344525e-002, 3.47626675e-003,
       1.15804905e-002, 6.06255513e-003, 1.15388008e-002,
       7.52724474e-003, 4.00558067e-003, -7.00586056e-003,
       8.13826919e-003, 6.95126457e-003, -6.69086934e-004,
       6.34896278e-005, 9.65925283e-005, -6.78353885e-004,
       1.31657552e-002, 1.04088755e-002, -8.58161657e-004,
       1.40960785e-002, 9.73404199e-003, 2.97152228e-003,
       5.21173701e-003, 3.86194763e-004, 3.96263367e-003,
       1.10457102e-002, 1.05531057e-002, 6.28711248e-004,
       -4.37839236e-003, 4.05151723e-003, 5.76241873e-003,
       1.02700368e-002, -3.61542916e-003, 2.59348354e-003,
       6.27392204e-003, 3.21643683e-003, -1.23812780e-002,
       -9.34131071e-003, 6.76709786e-003, 1.27166389e-002,
       2.80405469e-002, 1.61036793e-002, 4.43146518e-003,
       1.76580262e-003, 2.69147311e-003, -9.55683272e-003,
       4.19554487e-003, 3.83079308e-003, 4.95496066e-003,
       2.10316037e-003, -2.67679221e-003, -7.13205838e-004,
       2.50432407e-003, 1.22840132e-003, -4.26211255e-003,
       -1.06916903e-003, 4.70629800e-003, 9.98478010e-003,
       1.87555347e-002, 4.04450390e-003, 3.34494677e-003,
       4.16253548e-004, -1.43919187e-003, -3.57233686e-003,
       -9.71430819e-003, -1.61229586e-003, -3.40184220e-003,
       1.83609668e-002, 2.56297179e-002, 1.92333467e-003,
       -4.38500009e-003, -5.44721610e-004, -1.09015293e-002,
       -7.33995764e-003, -3.23967729e-003, -6.40907837e-003,
       -3.54843913e-003, 1.95805486e-002, -8.69198528e-004,
       9.66114865e-004, 2.10129377e-003, -3.35640274e-003,
       -6.16302527e-003, -4.28181374e-003, -6.84556132e-003,
       6.35680556e-003, 1.67370252e-002, -1.94791274e-003,
       -7.00666895e-003, -1.89988944e-003, -8.92567728e-003,
       -1.54474303e-002, -8.03289469e-003, -1.05663156e-002,
       -1.08201867e-002, 4.18425072e-003, -6.46192208e-003,
       1.45713077e-003, 2.93482654e-003, -1.10657653e-002,
       -5.97881852e-004, 2.16406444e-003, 4.87649534e-003,
       -8.51231907e-003, 2.09931913e-003, -5.94758661e-003,
       6.01464417e-003, 3.69252847e-003, -7.41883778e-005,
       1.12406621e-002, 9.65545326e-003, 9.51974280e-003,
       1.99031504e-003, -1.10146822e-002, -2.90185399e-002,
       -3.28138098e-003, 1.50394670e-004, 4.62208036e-003,
       -3.68144200e-003, 3.28583294e-003, 9.37062968e-003,
       4.85159428e-004, 7.58792565e-004, -1.02693560e-002,
       6.60284422e-003, 2.19409331e-003, -5.66791836e-003,
       9.97170899e-003, 1.09123364e-002, 8.33103899e-003,
       9.68147814e-003, 5.05663548e-003, -1.89924426e-002,
       8.19539838e-003, 1.04221003e-003, 2.36780569e-003,
       1.42218967e-004, 1.65787549e-003, 3.86532396e-003,
       1.02778468e-002, -5.54812234e-003, 7.17558432e-003,
       1.23141741e-003, 3.22972587e-003, 1.22439954e-003,
       -2.31068907e-003, 1.57605961e-003, 9.61763959e-004,
       5.64233074e-003, -7.54870591e-004, 1.09565407e-002,
       -3.58102145e-004, 1.13349583e-003, 7.68985483e-004,
       9.17648897e-004, 3.80065758e-003, 1.16174249e-003,
       8.05280637e-003, -7.22300913e-003, 1.25916004e-002,
       5.07179275e-003, 1.21872337e-003, -6.56166871e-004,
       6.98027725e-004, 8.40327586e-004, -1.21900439e-003,
       1.29831685e-002, -3.35812941e-003, 7.55896559e-003,
       4.98667592e-004, 2.10377411e-003, -2.88614770e-003,
       -1.08532030e-002, -5.43138105e-003, -5.78326965e-003,
       -7.89519399e-003, 1.40395593e-002, -5.25685539e-003,
       -2.83378386e-003, -4.44933167e-003, -8.90320446e-003,
       -2.62527633e-002, -1.28766662e-002, -6.91066962e-003,
       1.80377495e-002, 2.05633938e-002, 7.81529862e-003,
       -1.02075497e-002, -1.16425669e-002, -2.20421050e-002,
       -9.64487437e-003, -4.66553168e-003, -3.78023833e-003,
       -5.07742725e-003, 1.24206152e-002, -8.75890255e-003,
       -8.00346490e-003, -6.27329387e-003, -1.18432259e-002,
       -2.24037059e-002, -1.26668755e-002, -1.13721350e-002,
       8.83046631e-003, 1.80276521e-002, 2.07590554e-002,
       -8.16958491e-003, -1.42340465e-002, -2.64170635e-002,
       -2.00395584e-002, -9.61005408e-003, -9.95570794e-004,
       1.81328375e-002, 2.82767899e-002, 9.80503764e-003,
       -5.99945197e-003, -6.10813359e-003, -1.60613097e-002,
       -2.49774028e-002, -1.52702117e-002, -3.78602091e-003,
       7.45427981e-003, 1.73593406e-002, 4.88181133e-003,
       -5.82708931e-003, -1.05017507e-002, -1.22286584e-002,
       -1.39129991e-002, -7.28907203e-003, -7.38298520e-003,
       1.26751112e-002, 2.62266900e-002, 2.32641008e-002,
       1.75418449e-004, -9.08979960e-003, -1.81959271e-002,
       -1.11860987e-002, -1.19038522e-002, -8.06413032e-003,
       6.02155225e-003, 1.91886947e-002, 8.56702123e-003,
       -4.59071575e-003, -1.70060601e-002, -2.42373012e-002,
       -1.88894328e-002, -1.35195591e-002, -5.52248862e-003,
       1.44555625e-002, 1.89336147e-002, 1.36595592e-002,
       -3.35717341e-003, -8.35520215e-003, -7.91533105e-003,
       -1.22049470e-002, -7.71320332e-003, -7.40520004e-003,
       6.36275206e-003, 2.74859252e-003, 5.02591673e-003,
       -3.63642722e-003, -5.17512579e-003, -2.88348482e-003,
       -7.16579845e-003, -9.45079885e-003, -4.16745758e-003,
       1.50607545e-002, 1.77684128e-002, 1.64731573e-002,
       -6.75728451e-003, -1.56783834e-002, -1.75813083e-002,
       -7.90903186e-007, -4.93377307e-003, -3.44586815e-003,
       4.97066416e-003, 1.58656645e-003, 5.41594159e-003,
       -8.39660130e-003, -9.11639910e-003, -1.06515847e-002,
       -6.95713097e-003, 2.71479439e-005, 6.82835048e-003,
       8.82928632e-003, 6.23411499e-003, 6.48829574e-003,
       7.28860032e-004, -3.10550514e-003, -6.61647739e-003,
       -1.01956632e-002, 7.19483709e-004, 6.64621778e-003,
       7.77620240e-004, -9.95081384e-003, 1.90121995e-004,
       2.70677451e-003, 1.04308936e-004, -8.25995486e-003,
       -4.00323048e-003, -2.60175136e-003, 7.20546755e-004,
       6.67106360e-003, 4.57103783e-003, 7.73057947e-003,
       7.06418976e-003, 7.05095299e-004, -3.96619551e-003,
       -7.77550787e-003, 8.59337742e-004, 2.94443243e-003,
       1.22196681e-003, -8.56745616e-003, 1.96860707e-003,
       8.91324133e-003, 1.13960926e-003, -9.97752510e-003,
       3.52016978e-005, 2.77774897e-003, 6.85386593e-003,
       8.73559038e-004, -5.60556957e-003, 3.98774585e-003,
       8.97373352e-003, 6.94784103e-003, 4.26846975e-003,
       6.72666915e-003, 7.15620909e-003, 8.99564009e-003,
       -2.18197834e-004, -6.32953737e-003, -4.57170652e-003,
       2.39714398e-003, 1.59935874e-003, 6.14044722e-003,
       5.82040939e-003, 8.84156860e-003, 1.04929395e-002,
       5.11064054e-003, -4.46446193e-003, 8.13723891e-004,
       8.43589287e-003, 2.75924546e-003, 4.77584166e-004,
       7.71091273e-003, 2.03427114e-003, 2.77115311e-003,
       -4.46471944e-003, -4.86599142e-003, -2.59774552e-005,
       1.12197008e-002, 8.87237489e-003, 8.85534100e-003,
       7.88623374e-003, 9.40066855e-003, 4.72352933e-003,
       8.33058381e-004, -4.31211479e-003, -3.90587584e-003,
       3.67764290e-003, 7.97051378e-003, 4.01533907e-003,
       1.04867108e-003, 3.38732172e-003, 2.33849930e-003,
       -1.92337425e-003, -5.58262458e-003, -3.07604251e-003,
       9.92809888e-003, 1.22369882e-002, -1.20090356e-003,
       5.92420343e-003, 8.86553992e-003, 4.03523399e-003,
       -4.18207143e-003, -2.65812408e-003, 1.90618460e-003,
       5.70724020e-003, 1.19515471e-002, 1.02107348e-002,
       8.44946306e-004, 1.48676913e-002, 1.16047068e-002,
       -3.01987492e-003, -4.44521615e-003, -1.35955750e-003,
       1.81617693e-003, 4.71775606e-003, 2.93913484e-003,
       1.09450496e-003, 6.51071500e-003, 5.68816066e-003,
       -2.21903343e-003, -1.97009649e-003, -2.48287851e-003,
       1.03257988e-002, 1.12177227e-002, -1.63998292e-003,
       2.83167907e-003, 8.30930099e-003, 6.61886437e-003,
       2.25195009e-003, 2.02287850e-003, -2.75486428e-003,
       6.64354721e-003, 1.05548892e-002, -9.81090358e-004,
       -1.28643401e-003, 1.33321732e-002, 1.20935608e-002,
       -1.65196043e-003, -1.62999844e-003, -2.82981899e-003,
       5.82346320e-003, 7.32563389e-003, 2.87600770e-003,
       -1.64726248e-006, 1.25161652e-002, 8.34000576e-003,
       -1.96532276e-003, 3.26101715e-003, 3.41062015e-003,
       8.33341852e-003, 9.46636591e-003, 5.64394100e-003,
       7.74590531e-004, 4.66412865e-003, 5.85294235e-003,
       1.79597584e-003, -4.70894203e-003, -1.09218527e-003,
       2.06407113e-003, 4.31743078e-003, -4.47766564e-004,
       -3.69466585e-003, 4.66495194e-003, 9.22298525e-003,
       4.67941491e-003, 3.25340382e-003, 8.35359469e-003,
       1.63662620e-003, 4.81802039e-003, -4.60083690e-003,
       -9.74766517e-005, 4.43490408e-003, 2.43382994e-003,
       -1.00431289e-003, -2.04657693e-003, 2.67987000e-003,
       7.88788032e-003, 6.21356675e-003, 1.78274675e-003,
       -4.15479345e-003, 4.23899246e-003, 1.86799176e-003,
       1.04107810e-002, 2.36721733e-003, 8.65038298e-003,
       1.12485643e-002, 5.75751625e-003, -3.41500994e-003,
       -6.87939161e-003, -3.09628271e-003, -6.03970466e-003,
       -2.56974623e-003, 2.26642210e-002, 1.28904404e-003,
       -4.99246642e-003, -8.88115319e-004, -7.44041149e-003,
       -5.83574129e-003, -1.19404495e-003, -5.40275068e-004,
       -7.46123726e-003, 1.01215411e-002, -2.29772623e-003,
       3.91833717e-003, 2.90736416e-003, -5.59834950e-003,
       -7.69788632e-003, -9.66891821e-004, -5.50438790e-003,
       3.72854993e-003, 2.06939634e-002, 1.76082438e-004,
       -6.45369850e-003, -2.91030854e-003, -7.06140371e-003,
       -5.95086114e-003, 3.40706110e-003, 3.90338362e-003,
       -3.40936822e-004, 8.46064556e-003, -8.03834945e-003,
       -2.19878182e-003, -1.40216330e-003, -6.66934485e-003,
       -5.34780975e-003, -2.54033250e-003, 4.70938999e-003,
       1.38917717e-003, -1.16554019e-003, -4.97581298e-003,
       5.64505113e-003, -3.12149036e-003, -8.07359256e-003,
       3.30916513e-003, 2.46280397e-004, 2.04793666e-003,
       1.08871013e-002, 8.28980561e-003, -3.08549032e-003,
       2.62907078e-003, -5.69311343e-003, -1.37511443e-003,
       -1.02083236e-002, -3.47616966e-003, 5.20315068e-003,
       -8.07673484e-003, -2.49872380e-003, 2.13955343e-003,
       3.67649784e-003, -2.76936148e-003, -6.77528884e-003,
       -2.09827675e-003, -5.65457484e-003, 3.00600287e-003,
       -6.86513958e-003, 8.18219688e-003, 1.11176306e-002,
       1.49630534e-003, 1.03212730e-003, 3.80560546e-003,
       1.74505962e-003, 2.00526556e-003, -2.72572809e-003,
       -3.70056112e-003, -1.70113228e-003, 8.02144315e-003,
       5.27288578e-003, 4.09985520e-003, 5.04436684e-005,
       -3.76383774e-004, -8.09553967e-005, -6.84767612e-004,
       8.04360863e-003, 7.09512271e-003, 1.46779721e-003,
       4.62939357e-003, 1.64174533e-003, -4.60415427e-003,
       -1.73680135e-003, 6.38564552e-006, -4.73182043e-003,
       6.34651587e-006, -7.39184208e-003, 1.51611038e-003,
       -3.62778502e-003, -1.26600836e-003, -7.20855140e-004,
       -9.48265195e-003, -4.83962195e-003, -5.03607793e-003,
       6.08696183e-003, -5.65434340e-004, 1.84078224e-003,
       -4.51621629e-004, 1.75910216e-004, -9.07151308e-003,
       -7.81015679e-003, -5.62022021e-003, -5.46704745e-003,
       -6.23373128e-003, 1.47032747e-002, -1.00457557e-002,
       -8.33073352e-003, -4.37149266e-003, -8.63438193e-003,
       4.56889533e-003, -7.06409523e-003, -1.03424257e-002,
       3.81945539e-003, 1.57345589e-002, 1.87849421e-002,
       -2.57697306e-003, -6.25182875e-003, -5.84644033e-003,
       -1.60060767e-002, -6.54192129e-003, -1.33199235e-002,
       -5.64109161e-003, 5.73424436e-003, -1.18673323e-002,
       -1.03685735e-002, -4.24261950e-003, -1.88923683e-002,
       5.09530026e-003, -5.25077526e-003, -1.21347001e-002,
       1.08188549e-002, 1.31024411e-002, 2.07645092e-002,
       -1.52852305e-003, -3.35596269e-004, -9.33957007e-003,
       1.12175131e-002, -2.30800523e-003, -7.75584159e-003,
       -2.53733527e-003, 9.70474724e-003, 3.45677068e-003,
       -4.77150362e-003, -8.22282862e-003, -5.28781768e-003,
       2.87240651e-003, -8.24398827e-003, -1.09038707e-002,
       -8.60158168e-003, -1.06025138e-003, -7.48055114e-004,
       -7.29550887e-003, -1.72236525e-002, -1.09114554e-002,
       4.28542756e-002, -3.25436541e-003, -1.09095266e-002,
       -1.57413725e-003, 6.84202649e-004, 7.02421693e-003,
       -3.98084568e-003, -3.28666577e-003, 1.71799976e-002,
       3.69034372e-002, -1.54484138e-002, -2.00252067e-002,
       -1.79352425e-002, -1.33163612e-002, -8.31321534e-003,
       -7.58080883e-003, -1.65028013e-002, 1.73516404e-002,
       4.84648999e-003, -6.26634201e-003, -4.56548529e-003,
       1.58012239e-003, 4.85312939e-003, 8.90379399e-003,
       -5.78662520e-003, -1.49689717e-002, -9.90239158e-003,
       1.13068661e-002, -5.80368098e-003, -6.11720188e-003,
       -4.98169335e-003, 9.56315082e-004, -1.91857704e-004,
       -6.13323553e-003, -9.57328454e-003, 1.62659341e-003,
       2.68741790e-002, -1.34303253e-002, -8.37293174e-003,
       -6.91119814e-003, -5.67857502e-003, 2.77210330e-003,
       -8.21937993e-003, -1.90260075e-002, 1.27174659e-002,
       2.34663188e-002, -1.26159983e-002, -1.15908422e-002,
       -1.46654686e-002, 7.63901090e-003, 3.38468933e-003,
       -6.40624855e-003, -1.71808898e-002, 1.66041367e-002,
       1.20626036e-002, -5.97693166e-003, -5.26069291e-003,
       -2.38785567e-003, 1.05301905e-002, 1.91093748e-003,
       3.57882143e-003, -5.59915788e-004, 1.44382622e-002,
       -8.02836195e-003, -2.12856499e-003, -3.30978958e-003,
       -2.27587903e-003, 8.73278943e-004, -1.22354273e-003,
       3.19452677e-003, -3.76636512e-004, -5.55117149e-003,
       1.43787302e-002, -1.29821263e-002, -9.47782770e-003,
       -3.01298173e-003, 1.38519835e-002, 9.65487026e-003,
       7.82228727e-003, 1.59536069e-003, 1.66108143e-002,
       -1.85884535e-002, -6.32888125e-003, -8.74486053e-004,
       6.30375184e-003, 2.40984168e-002, 9.01821721e-003,
       4.26793034e-004, 2.13846378e-003, -1.38305761e-002,
       3.18215275e-003, 7.89135136e-003, 1.10071339e-002,
       9.99315176e-003, 7.14145508e-003, 3.59576452e-003,
       8.95187259e-003, 5.01522748e-003, -7.56978581e-004,
       1.96728902e-003, 3.84697015e-003, 4.22810484e-003,
       2.32295250e-003, -7.33936578e-003, 3.90037871e-003,
       1.16376365e-002, 1.23505034e-002, 2.28426605e-003,
       -8.81651323e-003, 1.18168835e-002, 1.02039864e-002,
       1.24010881e-002, 1.98229849e-002, 1.22241862e-002,
       2.35401490e-003, 8.27738736e-003, -1.01766251e-002,
       -7.80155417e-003, 1.12553751e-002, 2.40394427e-003,
       2.77445186e-003, -8.09308980e-003, 6.40266808e-003,
       7.44742528e-003, 1.19994516e-002, -8.02152604e-003,
       2.82501336e-003, 1.07963411e-002, 6.32112613e-003,
       2.04857928e-003, -4.21978720e-003, 7.70286517e-003,
       5.89786842e-003, 1.12476423e-002, 6.24501286e-003,
       -6.02749526e-004, 1.78105514e-002, 1.52438106e-002,
       1.37986941e-003, 2.20215484e-003, 2.32607732e-003,
       5.86210263e-006, 5.07309195e-003, 1.64857705e-003,
       -5.18787373e-003, 1.40716601e-002, 6.08803285e-003,
       7.07435934e-003, -3.52150039e-003, 7.94304628e-003,
       2.99785845e-003, 9.32279136e-003, -5.53187681e-003,
       -4.30458970e-003, 1.17012775e-002, 1.21526662e-002,
       1.11534363e-002, 5.70669118e-003, 5.80105186e-003,
       2.53081298e-003, 7.41175655e-003, -1.14751775e-002,
       -2.29464262e-003, 8.25583376e-003, 1.08171618e-002,
       -3.06254340e-004, -9.13779484e-004, -1.13431469e-003,
       -2.21631257e-003, 5.64682903e-003, 5.89605421e-003,
       -1.36695674e-003, 7.96461012e-003, 9.11236182e-003,
       3.80928162e-003, -3.40393651e-003, 3.53700505e-003,
       1.42207905e-003, 7.51176057e-003, 1.14234407e-002,
       -5.38789760e-003, 2.98617827e-003, 6.55296911e-003,
       7.43111456e-003, 9.79821570e-003, -3.26057139e-004,
       9.51672671e-004, 1.36620672e-002, -3.36315902e-003,
       -5.62952878e-003, 4.71665571e-003, 8.42801668e-003,
       1.26292510e-002, 9.52483434e-003, 1.45376632e-002,
       4.33528749e-003, 1.32795237e-002, 1.00606959e-002,
       -5.89336595e-003, -5.84377092e-004, 1.32359134e-003,
       -1.21559517e-003, -5.61278639e-003, 1.51582982e-003,
       4.26326226e-003, 3.29308584e-003, 2.92897667e-003,
       -4.61558811e-003, -2.34124647e-003, 1.41623008e-004,
       7.89788755e-005, 8.10318068e-003, 1.62964407e-002,
       8.93243961e-003, 4.64821747e-003, -1.46375026e-003,
       -1.35057354e-002, 3.40403616e-003, 6.77159801e-003,
       1.68067368e-003, -1.76502194e-003, 1.19227767e-002,
       6.87737158e-003, 5.80245396e-003, -3.64975422e-003,
       -1.03450343e-002, 2.43392191e-003, 1.32015767e-003,
       5.71830990e-003, 1.55199664e-002, 3.16246450e-002,
       1.48822330e-002, 7.91986194e-003, -1.04400180e-002,
       -8.63190740e-003, -2.10583489e-003, -6.74753217e-003,
       -3.98456771e-003, 1.89112835e-002, 4.61348239e-003,
       -6.58888509e-003, -3.88427847e-003, -6.37241127e-003,
       -1.07064508e-002, 2.66476860e-003, 1.07077288e-003,
       -7.32440362e-003, 5.10320300e-003, -1.26978653e-002,
       -1.00720515e-002, -8.04893579e-003, -1.62056722e-002,
       -1.27310818e-002, -1.56732707e-003, -5.98213216e-003,
       5.29786758e-003, 2.48401463e-002, 2.08320785e-002,
       -4.14432772e-003, -2.54896050e-003, -1.18918875e-002,
       -4.29935008e-003, 8.45917675e-004, -6.48972928e-005,
       -2.75036757e-004, 1.97747834e-002, -3.33136879e-003,
       -8.34062044e-003, -4.52796929e-003, -7.89437164e-003,
       -4.95570200e-003, 3.15147196e-003, 6.48288801e-003,
       -9.29408055e-003, 7.60976749e-004, -7.60481635e-004,
       9.07831267e-003, 3.36808828e-003, -4.86845430e-003,
       3.09544848e-003, 1.82545849e-003, 7.83480797e-003,
       -1.96413863e-002, 3.45134991e-003, 9.12062824e-003,
       8.32157582e-003, 1.03636878e-002, 9.61395353e-003,
       1.72280721e-004, 4.63795196e-003, 7.57811917e-003,
       -5.63424174e-003, 2.60076229e-003, -8.16341583e-003,
       4.30654688e-003, 2.22696061e-003, 1.03737623e-003,
       3.38844792e-003, -2.73838930e-004, -4.11452167e-003,
       -2.88270488e-002, -1.17204767e-002, 2.55100708e-003,
       1.09956134e-002, 1.10277086e-002, 1.17337415e-002,
       -1.57609954e-002, -7.66363041e-003, -3.36817326e-003,
       1.03525948e-002, -5.51433908e-003, 1.14421837e-003,
       -5.74504584e-003, -5.18037518e-003, -1.04265800e-002,
       -1.76727921e-002, -6.81165652e-003, -7.44259590e-003,
       3.95865319e-003, 7.50859268e-003, 2.53238203e-003,
       -1.27083156e-003, -5.15064737e-003, -1.89935882e-002,
       -7.65877962e-003, -1.17589405e-003, 1.47150515e-003,
       2.08342504e-002, 8.02479126e-003, 7.13726273e-003,
       5.42646414e-003, -3.53988935e-003, -4.86173667e-003,
       -8.19747150e-003, -1.52732784e-004, 1.70687179e-003,
       2.20135897e-002, 8.50703008e-003, 8.81398655e-003,
       5.28218690e-003, -4.23106737e-003, -1.11744767e-002,
       -1.52020557e-002, -2.19945097e-003, -9.98792145e-003,
       3.07281525e-003, 5.52931195e-003, 4.37719561e-003,
       2.13674130e-003, -2.72627128e-003, -2.14689597e-002,
       9.87661071e-003, 4.07098187e-003, -2.93384516e-003,
       1.85148120e-002, 7.46909296e-003, 2.07414664e-002,
       1.16758980e-002, 1.44986552e-003, -9.13042016e-003,
       -1.07725495e-002, 4.50897869e-003, -1.28263037e-003,
       9.37173888e-003, -2.09297845e-003, 1.82495872e-003,
       2.84160883e-003, -7.49291619e-003, -2.20098905e-002,
       8.86181742e-003, 1.09205395e-002, 1.16899367e-002,
       2.29804218e-002, -8.17545340e-004, 1.52782109e-002,
       9.80747957e-003, -8.51124153e-003, -6.41711755e-003,
       3.05584818e-002, -1.46150193e-003, -3.30808363e-003,
       9.66130942e-003, 2.86700600e-003, 2.74701579e-003,
       -1.53630055e-004, -3.71845486e-003, 7.31870905e-003,
       2.13686880e-002, -1.28231319e-002, -7.15237996e-003,
       -4.72320523e-003, -1.48560032e-002, -7.90985487e-003,
       -4.98093572e-003, -8.70763883e-003, 2.27073710e-002,
       1.84478462e-002, -5.24685206e-003, 6.96915481e-003,
       1.60003807e-002, -4.18157270e-003, -1.49543420e-003,
       -4.93210787e-003, -1.60977971e-002, 1.01038506e-002,
       1.31623866e-002, -1.10279638e-002, -4.90460871e-003,
       -4.85059980e-004, -1.12199206e-002, -9.40939039e-003,
       -1.62495933e-002, -1.88611913e-002, 1.76561028e-002,
       1.80716477e-002, -1.29181771e-002, -1.02365594e-002,
       -1.15585700e-002, -1.74168274e-002, -7.38027552e-003,
       -8.53150524e-003, -8.10188148e-003, 1.35062775e-002,
       2.18237881e-002, -1.44290377e-003, -8.96432251e-003,
       -1.05600040e-002, -4.18079365e-003, -3.65731516e-003,
       -8.85503739e-003, -4.86852089e-003, 1.81810204e-002,
       1.13881808e-002, -9.05835722e-003, -5.57990139e-003,
       -7.85178412e-003, -9.49670374e-003, -2.73022777e-003,
       -1.21296970e-002, -7.37576466e-003, 8.53365101e-003,
       1.90149304e-002, 1.80738268e-003, 2.80741137e-003,
       1.08261732e-002, 1.13274539e-002, 6.60015130e-003,
       -1.05357841e-002, -8.36678490e-004, 7.62545364e-003,
       1.03031863e-002, 4.70074546e-003, -5.61902812e-003,
       2.91796401e-003, 1.47528127e-002, 1.00811660e-004,
       -6.69626612e-003, 1.52523455e-003, 1.27734663e-002,
       -1.75654944e-002, -2.53507053e-003, -1.62733847e-003,
       4.89375833e-003, 1.50970668e-002, -4.84209042e-003,
       -1.26309926e-002, -2.95012281e-003, -1.81454141e-002,
       8.78305268e-003, 4.41284571e-003, 4.70853830e-003,
       2.33493932e-002, 1.30053684e-002, 1.82249394e-004,
       -1.22474078e-002, 6.03435002e-003, -3.71059333e-003,
       -2.64485683e-002, -3.53525137e-003, -3.13703809e-003,
       2.95542274e-003, 6.31637732e-003, -5.77484071e-003,
       2.19344092e-003, -3.79461359e-004, -3.11945342e-002,
       -7.29745999e-003, 1.02851214e-002, 4.53641033e-003,
       9.79043264e-003, 1.30517315e-002, 8.05300474e-003,
       7.14271190e-003, 8.19344353e-003, -3.72600625e-003,
       -5.14468597e-003, 1.08662080e-002, 2.38377810e-003,
       -1.65549701e-003, -1.10427616e-002, 1.85250316e-003,
       4.98633366e-003, 4.51031094e-003, -6.59670355e-003,
       -9.46686976e-003, 6.85520563e-003, -7.93873216e-004,
       -1.37517683e-003, 4.07190248e-003, 1.40740927e-002,
       3.15182433e-002, 2.02860199e-002, -5.00404043e-003,
       1.97760062e-003, 8.06892104e-003, 4.46403213e-003,
       -6.00587856e-003, -3.43188690e-003, 2.59207096e-003,
       5.68698673e-003, 7.45202228e-003, 6.31487416e-003,
       -4.33799997e-003, 1.24402503e-002, 6.62576407e-003,
       5.35213808e-003, -6.46501128e-003, 2.34713405e-003,
       -9.49255365e-004, 2.50651920e-003, -4.15815692e-003,
       -3.12437606e-003, 9.26323608e-003, 7.88571779e-003,
       8.54511000e-003, -1.42264063e-003, -4.13166918e-003,
       3.33287474e-003, 8.48312303e-003, -8.48987140e-003,
       2.55516637e-003, 9.66946594e-003, 1.16072437e-002,
       4.38909046e-003, -1.13573915e-004, 3.24183423e-003,
       5.48610883e-003, 1.16226245e-002, 9.84669197e-003,
       4.73649334e-003, 3.76371993e-003, 8.74547195e-003,
       8.40280298e-003, 2.19540251e-003, -6.36117952e-003,
       5.90013806e-003, 1.48600973e-002, 5.76718245e-003,
       -5.03748003e-003, 7.99863040e-003, 6.25415146e-003,
       6.40159985e-003, 6.35225384e-004, -7.64071615e-003,
       5.12403389e-003, 1.28155788e-002, -8.88332352e-003,
       -1.03385374e-003, 1.12236962e-002, 6.53953524e-003,
       6.64244266e-003, 5.07941470e-004, 1.10142780e-002,
       9.49369464e-003, 1.53083866e-002, 4.46659792e-003,
       -4.75726742e-003, 5.96706849e-003, 5.42997103e-003,
       2.45814538e-003, 1.22089917e-003, -1.38428304e-002,
       3.16637428e-003, 1.15724010e-002, -1.34346331e-003,
       -3.65773193e-003, 5.53345727e-003, 3.58796841e-003,
       1.19504216e-003, -6.66940701e-004, -1.42281409e-003,
       5.03258361e-003, 1.72129609e-002, 4.68508014e-003,
       -1.00146066e-002, 5.63302543e-003, 3.79993976e-003,
       -3.79873440e-003, -9.69345775e-003, 4.28052479e-003,
       8.99033807e-003, 1.18401097e-002, -2.15659081e-003,
       -6.04006741e-003, 7.75027089e-003, 5.48209809e-003,
       -2.39375816e-003, 1.32337287e-002, 2.60003563e-002,
       1.72796641e-002, 1.62914395e-002, 2.15282966e-003,
       -1.04942545e-002, -2.50884448e-003, 1.88669190e-003,
       -1.37455435e-002, -1.68913249e-002, -1.70223240e-003,
       1.14356158e-002, 1.26416516e-002, 2.02855049e-003,
       3.67334858e-003, -6.55942876e-003, 2.45140167e-003,
       2.33484292e-003, 1.10350642e-002, 2.51899678e-002,
       2.00446006e-002, 1.54317776e-002, 6.15379261e-003,
       -1.32764569e-002, -4.85090772e-003, -1.12243602e-002,
       -2.41707801e-003, 3.03735938e-002, 1.89829394e-002,
       -1.32853107e-003, -4.13949881e-003, -1.00455787e-002,
       -3.64048313e-003, -9.33241379e-003, -1.05411895e-002,
       -1.18205901e-002, 1.69506557e-002, -5.22597041e-003,
       -8.82312004e-003, -6.33469271e-003, -5.68450475e-003,
       -1.23373289e-002, -1.78636815e-002, -8.35250411e-003,
       5.80374384e-003, 2.57963538e-002, 2.04196628e-002,
       -2.20414507e-003, -7.82227796e-003, -6.59673614e-003,
       -6.90190587e-003, -1.75233651e-002, -2.45605577e-002,
       -1.31380074e-002, 1.99619867e-002, 3.26523371e-003,
       -6.48908969e-003, -5.51575981e-003, -3.14851804e-003,
       8.60624574e-003, 2.65621836e-003, 1.57730991e-003,
       -8.65879748e-003, 5.81766479e-003, -6.92069717e-003,
       2.58911145e-003, 4.73525887e-003, 7.63019361e-003,
       8.61831289e-003, 3.94984381e-003, -4.40432783e-003,
       -2.06594449e-002, -1.36706289e-002, 3.75296368e-004,
       3.12165683e-003, 5.12159336e-003, 1.04263667e-002,
       1.23406444e-002, 1.55005266e-003, -8.84489808e-003,
       -1.27062313e-002, 6.77649677e-003, 6.76539727e-004,
       4.01318586e-003, 6.64988067e-003, 1.21047227e-002,
       8.80616158e-003, 4.36021667e-003, 4.30508750e-003,
       -8.93995631e-003, 5.60908206e-003, 3.66382673e-003,
       -5.25331299e-004, -2.85952399e-003, 2.09492588e-004,
       1.07208593e-003, 4.77889273e-003, -1.85835917e-004,
       7.00289011e-003, -1.07073663e-002, -2.67687161e-003,
       3.61910136e-003, 4.75799607e-004, -2.15184502e-003,
       -2.21760618e-003, 9.25261993e-003, 6.56926073e-003,
       7.36564863e-003, -7.26219499e-003, -6.97467290e-003,
       3.20173078e-003, -3.77237494e-003, -6.01099897e-003,
       9.30295326e-003, 9.53481998e-003, 8.06931697e-004,
       -8.89655016e-003, -2.60785874e-002, -6.36173878e-003,
       -2.04498996e-004, 7.32385507e-003, 6.96397852e-003,
       1.04679950e-002, 2.16343217e-002, 1.91879123e-002,
       1.79766910e-003, -1.26088336e-002, -5.67884976e-003,
       2.06541945e-003, 9.35817603e-003, 5.87979518e-003,
       -1.15264978e-004, 1.19470758e-002, 8.93645454e-003,
       5.61604369e-003, -1.11550419e-002, -5.25944261e-003,
       -9.70734909e-005, -1.00248009e-002, -1.44399507e-002,
       -6.99529424e-003, 5.12448279e-003, 1.31486654e-002,
       1.24618541e-002, -5.89028047e-003, 5.07516274e-003,
       1.51834253e-003, -1.67527627e-002, -8.77864566e-003,
       1.22797005e-002, 2.61950269e-002, 1.90071315e-002,
       4.42566536e-003, -1.71483681e-002, -1.16370886e-003,
       5.24851447e-003, 4.48171329e-003, 6.49667985e-004,
       1.17976181e-002, 1.61624718e-002, 1.24218762e-002,
       3.05118971e-003, -1.15153082e-002, 2.24731723e-003,
       1.85079651e-003, 2.11757491e-003, 1.07540702e-002,
       1.67365815e-003, -1.99916470e-003, 8.16273782e-003,
       6.62966492e-003, -8.84775724e-003, -1.44966715e-003,
       -6.50523836e-003, -1.64333023e-002, 5.73790865e-003,
       1.70313586e-002, 2.04785392e-004, -3.23857181e-003,
       -5.62515669e-003, -1.20222420e-002, -8.13710410e-003,
       -1.36694992e-002, -6.93906378e-003, 1.08768921e-002,
       2.28857938e-002, 6.52887952e-003, 6.30761497e-003,
       6.55395328e-004, -1.74627341e-002, -6.14374131e-003,
       -1.88804290e-003, -8.80628184e-004, 2.02799644e-002,
       1.48248244e-002, 8.78229446e-004, -7.92952068e-003,
       -1.16054052e-002, -2.04973780e-002, -4.28280886e-003,
       4.41198051e-003, 1.58093851e-002, 2.11631935e-002,
       1.03894714e-002, -2.89958273e-003, -4.72113397e-003,
       -9.00786929e-003, -7.19850697e-003, -1.97415054e-003,
       -3.15527152e-003, 5.53882727e-003, 4.00371756e-003,
       1.06731383e-002, 8.25870875e-003, 7.75107276e-003,
       1.16467690e-002, 9.54599958e-003, 7.94130669e-004,
       -1.08225942e-002, 4.61711595e-003, 8.33705184e-004,
       3.74008203e-003, -6.13294262e-003, -9.65906866e-003,
       -1.03549184e-002, -6.27322122e-003, 7.32713984e-003,
       6.95858756e-003, 1.37353148e-002, 1.06776711e-002,
       6.52993610e-003, 1.54278858e-003, 1.35558221e-004,
       5.81245357e-003, 3.86454654e-003, 3.84956342e-003,
       -2.43601692e-003, 6.08670525e-003, -4.96694818e-004,
       1.07367449e-002, 5.75043028e-003, 1.14833824e-002,
       1.73222069e-002, 1.38066094e-002, -3.17085208e-003,
       -6.76985737e-003, 8.25955905e-003, -6.75365422e-003,
       -6.28179964e-003, -4.96618450e-003, -4.66274191e-003,
       -9.81727522e-003, -9.95828863e-003, -6.62505208e-003,
       8.94324295e-003, 3.36198602e-004, -1.00205103e-002,
       1.32747926e-002, 1.73605443e-003, 2.95728561e-003,
       1.19087063e-002, 2.96566472e-003, 2.25664256e-003,
       7.94617739e-003, 7.46186031e-003, -8.87239730e-005,
       2.19974550e-003, -6.19143527e-003, -6.25749491e-003,
       -1.08686266e-002, -1.91407073e-002, -6.14772132e-003,
       1.99899338e-002, 7.44816009e-003, 1.50232212e-004,
       5.82664739e-004, -4.29086504e-004, -4.06211009e-003,
       -1.09430971e-002, -1.33733395e-002, -1.91096961e-003,
       7.84086622e-003, -2.54360167e-003, -1.25438534e-003,
       2.95652775e-003, -6.99629635e-003, -6.07196521e-003,
       -6.72550034e-003, -1.20484121e-002, -6.29988033e-003,
       -1.23671358e-002, -6.50876341e-003, 1.05338506e-002,
       1.73355751e-002, -9.24986089e-004, 1.31464179e-003,
       -5.33272885e-003, -1.38195343e-002, 4.14839946e-003,
       2.49153636e-002, 1.19060441e-003, 1.83026921e-002,
       1.55293122e-002, -1.66385516e-003, 3.78358318e-003,
       5.42201800e-003, 4.06551189e-005, 4.92862565e-003,
       -1.85583124e-003, -1.41478246e-002, 1.17382957e-002,
       -7.92226521e-004, -1.05204005e-002, -4.51170933e-003,
       -4.26819455e-003, -1.13600614e-002, -6.18588366e-003,
       -3.53065366e-003, 6.83173479e-004, 1.30993687e-002,
       -2.21484713e-003, -1.46777350e-002, -4.85330028e-003,
       -2.29529338e-003, -1.21448999e-002, -1.65485628e-002,
       -8.38618632e-003, -5.55361900e-003, 1.07959686e-002,
       2.41161324e-002, -1.32874604e-002, 6.95147668e-004,
       3.54201905e-003, -4.47913725e-003, -2.44401628e-003,
       3.62815382e-003, -6.60524145e-003, 2.80376114e-002,
       1.78582910e-002, -1.46274092e-002, 1.10597431e-003,
       -5.56890038e-004, -1.03014922e-002, -1.19086578e-002,
       -4.90542967e-003, -6.14808919e-003, 2.53615379e-002,
       -6.46509370e-003, -1.10588754e-002, -3.86731653e-003,
       -3.13980901e-003, -1.05374781e-002, -1.69340335e-002,
       -1.08206943e-002, -8.60775262e-003, 3.16325924e-003,
       -1.21572623e-002, -1.39082447e-002, -4.51715803e-003,
       -5.74283674e-003, -9.74802114e-003, -1.30486442e-002,
       -6.51680399e-003, 5.71418321e-004, 3.68699618e-003,
       1.71886869e-002, -8.16932693e-003, 3.48410592e-003,
       -6.27796492e-003, -1.16927922e-002, -1.05717694e-002,
       -2.21731886e-003, -2.08971277e-003, 2.68733092e-002,
       1.32782087e-002, -1.00967512e-002, -7.73881609e-003,
       -7.18365237e-003, -4.39490832e-004, -6.30459562e-003,
       -1.37271988e-003, 5.03098883e-004, 2.53780093e-002,
       -8.40284117e-003, -9.33090318e-003, -6.51280815e-003,
       -1.65548231e-002, -1.50883291e-002, -5.55741321e-003,
       5.08522801e-003, 5.58673358e-003, 5.41384006e-003,
       2.36580940e-003, 3.08854645e-003, 1.84303627e-003,
       -9.29038320e-003, -6.28813449e-003, -2.17258581e-003,
       -9.34747630e-004, -8.86963028e-003, 1.14027562e-003,
       1.38819851e-002, -4.91887517e-003, -1.22993216e-002,
       -9.19224322e-003, -8.13879631e-003, -3.33035277e-004,
       8.76766350e-003, 7.21828081e-003, 2.10051220e-002,
       2.86790375e-002, 1.49505064e-002, -8.22883681e-004,
       -2.44422024e-003, -2.53674667e-003, -6.42731739e-003,
       1.99996354e-003, 2.00391019e-004, 1.99259780e-002,
       7.60663315e-005, 2.63042486e-004, 5.40008070e-003,
       4.25736420e-003, 1.90839209e-002, 1.07847666e-003,
       -4.93540242e-003, -1.26263453e-002, -5.21866651e-003,
       -6.35337364e-003, -1.35273905e-002, -1.68162938e-002,
       -1.21574709e-002, 2.57385690e-002, 6.07961463e-003,
       -1.21260399e-003, -5.01589291e-003, -7.32383458e-003,
       1.62057728e-002, 1.25749782e-002, 5.13854763e-003,
       -1.54137961e-003, 3.44116637e-003, -5.49375021e-004,
       -5.77581069e-003, -1.01638436e-002, -6.45199325e-004,
       -6.95502898e-003, -9.19641834e-003, -8.31679907e-003,
       -6.39255485e-003, 1.28531903e-002, 3.64793534e-003,
       3.52386851e-003, -3.23568447e-003, -6.95085712e-003,
       -1.14009553e-003, -5.95952151e-004, -1.00727659e-002,
       -1.57640651e-002, 1.17801707e-002, 6.73987158e-003,
       -1.86941330e-003, -3.24317534e-003, 5.87680493e-004,
       -1.43195093e-002, 1.57933129e-004, 1.18005043e-002,
       -6.75486960e-003, 1.02936500e-003, 2.15560966e-003,
       -2.33544922e-003, -1.27008297e-002, -1.18403696e-002,
       -1.06324581e-003, 2.94389599e-003, 1.47679669e-003,
       -2.70587904e-003, 1.06861386e-002, 1.27363782e-002,
       1.18174581e-002, 3.22746928e-003, 5.50440396e-004,
       -1.57389995e-002, 7.84345344e-003, 1.73550677e-002,
       1.09109962e-002, 4.21539508e-003, 2.15442595e-003,
       4.46705555e-004, 5.44873939e-004, -1.01967081e-002,
       1.25365444e-002, 1.42530119e-002, 4.41049412e-003,
       -9.90826078e-003, -2.12528296e-002, -7.47524574e-003,
       -2.93645170e-003, 6.72220346e-003, 9.46343224e-003,
       1.19120898e-002, 2.03745421e-002, 1.84951071e-002,
       4.19655768e-003, -1.04332631e-002, -4.93217539e-003,
       8.25764704e-003, 1.21118110e-002, 5.29193645e-003,
       3.43445642e-003, 2.61313980e-003, 3.97366798e-003,
       -5.87931974e-003, -1.06031075e-002, -8.99832137e-003,
       -4.70531406e-003, -5.22603607e-003, 2.17013550e-003,
       -3.10945278e-003, -2.42176611e-004, 4.85144276e-003,
       3.36186634e-003, -3.59369587e-005, -1.30030641e-003,
       -2.59430660e-003, -5.24698291e-003, -5.29620284e-003,
       8.57608952e-003, 1.89059544e-002, 1.85567513e-002,
       7.29870377e-003, -1.35235144e-002, 3.65202432e-003,
       9.67503060e-003, 7.18025770e-003, 1.78000203e-003,
       1.10438066e-002, 1.04968036e-002, 4.54909587e-003,
       6.22817874e-003, -7.94449821e-003, 5.47523005e-003,
       3.10997106e-003, 3.15588363e-003, 7.61699816e-003,
       -9.12105385e-003, -1.72581396e-003, -3.89297656e-003,
       -2.33425153e-003, -3.70926084e-003, 8.81253835e-003,
       9.05407406e-003, 3.91949061e-003, -7.15191849e-003,
       -5.89639693e-003, -4.49808547e-003, -9.06375796e-003,
       -5.08616399e-003, -9.70189646e-003, 7.51404278e-003,
       2.74757389e-003, 4.16123960e-003, -9.73014161e-003,
       2.01043766e-002, 6.17865613e-003, 2.77725095e-003,
       8.64846911e-003, -1.13949999e-002, 1.89500814e-003,
       6.76670624e-003, 3.81124159e-003, 2.36444362e-002,
       5.08708553e-003, -1.64345896e-003, -1.08818104e-002,
       -1.14737470e-002, -2.00677384e-002, -6.61941071e-004,
       1.32353958e-002, 1.61119495e-002, 1.62325893e-002,
       -6.90621149e-004, -2.58838572e-003, -5.73469233e-003,
       9.70481313e-004, -8.25994089e-003, 3.77251790e-003,
       2.36330787e-003, 4.54629771e-003, -1.59824209e-003,
       -5.99932531e-003, -1.63852086e-003, -1.27745895e-002,
       -7.13248132e-003, -1.45543898e-002, -2.63487874e-003,
       9.84949642e-004, 4.79487516e-003, -3.32001108e-003,
       -5.16641885e-003, -9.37116239e-003, -1.05581488e-002,
       -3.90500436e-003, -1.54231233e-003, 8.60420894e-003,
       1.18118608e-002, 7.94161297e-003, -3.05333844e-004,
       1.04554195e-003, -1.41234335e-003, 1.64825295e-003,
       1.31808678e-002, 2.03219168e-002, 1.32150194e-002,
       4.50870628e-003, -1.80252711e-003, -6.34522690e-003,
       -1.27274906e-002, -8.58187582e-003, -1.24879470e-002,
       -3.23597924e-004, 2.57819891e-003, 9.34299361e-003,
       4.95695882e-003, -1.54430571e-003, -1.15743708e-002,
       -1.84654759e-003, -8.07144493e-003, -7.39292707e-003,
       1.16429841e-002, 1.73438396e-002, 1.61431152e-002,
       5.09219617e-003, -4.25418513e-003, -7.33155012e-003,
       6.10649260e-003, -9.06127226e-003, -5.15599269e-003,
       1.10904593e-002, 8.60759057e-003, 6.90387795e-003,
       1.62762161e-002, -1.89282838e-003, -6.36712881e-003,
       1.02993771e-002, -1.03449794e-002, -5.99158881e-003,
       1.04233052e-003, -7.46541843e-003, -2.09419429e-003,
       8.48458800e-003, -4.00003139e-003, 6.01388561e-003,
       -3.04035004e-003, -7.21095921e-003, -3.45503003e-003,
       1.53860282e-002, 1.58984214e-002, 1.18044624e-002,
       -9.95345530e-004, -9.03398357e-003, -9.72592924e-003,
       -2.52472470e-003, -9.39739344e-004, 1.20575377e-003,
       1.38588389e-002, 1.26810896e-003, 1.06703583e-003,
       -5.84913790e-003, -5.43100340e-003, -5.61272539e-003,
       7.93811958e-003, -5.82637126e-003, 1.59420620e-003,
       -7.45111029e-004, -6.44324860e-003, -4.81422851e-003,
       3.07479713e-005, -1.22921616e-002, 8.97857547e-003,
       8.95431545e-003, -1.59928051e-003, 5.47022372e-003,
       1.22168756e-004, -4.60091140e-003, -2.38328078e-003,
       1.25180173e-003, -1.43457092e-002, 4.09932295e-003,
       5.39225433e-003, 3.94948199e-003, 2.17444357e-003,
       4.46848478e-003, 1.14259915e-003, 4.28539148e-004,
       -5.13924891e-003, -3.46286433e-005, 7.72750191e-003,
       9.73922014e-003, 3.63557506e-003, 5.90638025e-004,
       -5.36073837e-003, -2.41039181e-003, -4.32858069e-004,
       1.12718064e-002, 8.18369153e-005, 5.44556370e-003,
       1.57857221e-002, -5.66433836e-003, 5.27096039e-004,
       1.03753514e-003, -7.73702236e-003, -1.93109224e-003,
       5.37668029e-003, -1.09916916e-002, 9.42551997e-003,
       9.06793680e-003, -1.14618037e-002, -4.41271672e-003,
       1.41299353e-003, -5.95068559e-003, -4.48615989e-003,
       1.01096625e-003, -8.94073863e-003, 7.65667111e-003,
       1.06323594e-002, -5.40539855e-003, -2.07992969e-003,
       -4.25542705e-003, -4.97350609e-003, 6.64785213e-004,
       1.24255326e-002, -3.67145729e-003, 4.55339765e-003,
       2.24872329e-003, -8.98635108e-003, -2.83871242e-003,
       4.20686649e-003, 7.56428158e-003, 5.68791246e-003,
       7.03422399e-003, -4.96415375e-003, -5.91734843e-003,
       6.89385179e-003, -8.15622322e-003, 1.64729217e-003,
       -2.42603594e-003, -2.10902304e-003, -5.04928129e-003,
       2.00064480e-003, -5.84435090e-003, 8.54371861e-003,
       5.03502460e-003, -7.18798256e-003, 8.60572300e-007,
       -2.01402028e-004, -9.68811160e-004, -1.83087809e-003,
       -7.55932590e-004, -6.55200332e-003, 5.54689765e-003,
       1.22539583e-003, -5.79650514e-003, 5.35089336e-003,
       -1.62511831e-003, 6.77658524e-003, 2.21378449e-003,
       1.06820837e-003, -1.03232963e-002, -9.83858854e-003,
       -1.66737847e-003, -5.99169079e-003, 8.27382412e-003,
       -1.12052585e-004, 8.54297727e-003, 8.93153250e-003,
       5.31799532e-003, -8.26700777e-003, -3.11752805e-003,
       4.09316411e-003, -7.33512640e-003, -1.15701128e-002,
       -9.37100674e-004, -7.55221304e-003, 1.29471207e-003,
       6.81444816e-003, -2.42527318e-003, 9.54784360e-003,
       5.20889135e-003, -5.52658411e-003, -1.83036961e-002,
       -6.07555034e-003, -8.91027600e-003, -1.18464660e-002,
       -9.92389614e-005, -3.04866955e-003, 8.77468474e-003,
       -2.53414270e-003, -1.92663763e-002, -1.04262801e-002,
       7.87853543e-003, 1.21609662e-002, 2.96542365e-002,
       2.04468276e-002, 5.98968240e-004, 2.52302876e-003,
       -5.91387320e-003, -2.72868630e-002, -2.13841908e-002,
       -1.47499528e-003, 6.78126654e-003, 1.33426702e-002,
       4.05224552e-003, -4.53888206e-003, 3.92920058e-003,
       3.14556970e-003, 8.36976804e-003, 2.03558663e-003,
       9.07319039e-003, 1.36383914e-003, -4.77996189e-003,
       -7.18084397e-003, -9.16037709e-003, -1.36941671e-003,
       -6.88319327e-003, -1.65099418e-003, -5.95881662e-004,
       3.21544521e-003, 3.28058610e-003, 3.02529265e-003,
       2.18983926e-003, -2.93667312e-003, -4.58028261e-003,
       -2.36429018e-003, -5.01243258e-003, 2.23896917e-004,
       7.67161697e-003, -2.05107988e-003, -7.94074405e-003,
       -5.60907228e-003, -8.40726495e-003, -1.60234293e-003,
       6.93027209e-003, 9.18520149e-003, 1.18528325e-002,
       6.76543778e-003, -4.90985531e-003, -2.43114145e-003,
       1.07993986e-002, 5.65823587e-003, 6.66689081e-003,
       -9.93701722e-003, 1.17998745e-003, 2.35931308e-004,
       -7.25302193e-003, -4.22143890e-003, 5.10098971e-003,
       8.40455107e-003, 3.49804480e-003, -2.98126251e-003,
       -2.14615036e-002, -3.67845874e-003, -2.48406571e-003,
       -6.26204396e-003, -9.63591412e-003, -3.95716168e-003,
       -6.23867335e-003, -2.78952066e-003, -1.96598973e-002,
       3.41038778e-003, 1.15737412e-002, -2.23777769e-003,
       -1.46925449e-003, 4.63233422e-003, 2.93516275e-003,
       1.43981725e-002, 1.12220729e-002, 1.07773459e-002,
       -3.88708687e-003, 2.86326651e-003, 9.75837931e-003,
       5.17585780e-003, 4.71036090e-003, 4.48246108e-004,
       -3.28306784e-003, 3.78197234e-004, -6.05959259e-003,
       5.06934630e-005, -6.02600770e-003, -3.87918670e-004,
       2.81147455e-004, -7.59605551e-004, -8.71971482e-004,
       -4.14637645e-004, 4.06716717e-003, -5.10156679e-004,
       -6.14205841e-003, -1.15693882e-002, -2.08945083e-003,
       5.43078687e-003, 6.80708094e-003, 4.08318406e-003,
       -6.92330766e-003, -4.22970997e-003, -5.83319692e-003,
       -1.42668479e-003, -7.51128420e-003, -9.91207198e-004,
       -7.33604829e-004, -3.92471114e-003, 3.12814745e-003,
       1.48716528e-004, 4.99326829e-003, -2.07305118e-003,
       -2.94294488e-003, -5.31436736e-003, -2.59878044e-003,
       1.74534007e-003, 9.54892195e-004, 8.07569455e-003,
       -7.99349602e-003, 2.94156536e-003, 7.71472987e-004,
       -6.41915062e-003, -8.24149325e-003, -8.12001433e-003,
       -2.17011198e-003, 8.05939827e-003, 1.23030441e-002,
       7.93066714e-003, 3.56560084e-003, -3.16420454e-003,
       -7.00493925e-004, -5.07272966e-003, -9.86883137e-003,
       -9.06578638e-003, -4.09585005e-003, 6.03639148e-003,
       5.05993189e-003, 6.69905962e-003, 4.49990295e-003,
       -1.26372010e-003, -2.11658259e-003, -2.31834897e-003,
       1.28787907e-003, 7.58508220e-003, 1.76487919e-002,
       2.56790617e-003, 5.44007495e-003, 4.23887046e-003,
       1.72868522e-003, -2.32053152e-003, -6.48620166e-003,
       -7.51212798e-003, -4.66877827e-003, 6.85886526e-003,
       -5.47054503e-003, -4.54832986e-003, 6.96575560e-004,
       9.08036157e-003, 4.52496018e-003, -4.19289776e-004,
       -3.87097895e-003, -8.49760976e-003, -1.77000847e-003,
       -6.92295362e-005, 7.28047080e-003, 1.37842111e-002,
       3.13005084e-003, 1.43271768e-002, 7.02763442e-003,
       9.60115064e-003, -2.40542088e-003, -1.40103733e-003,
       -1.58868136e-003, 6.40961947e-003, 4.14029788e-003,
       1.12988120e-002, 8.23540054e-003, 4.52248473e-003,
       -1.93891907e-003, -8.15599505e-003, -4.95014060e-003,
       -1.21080400e-002, -4.53950698e-003, 7.28938868e-003,
       5.11244079e-003, 1.18513703e-002, 1.65975690e-002,
       1.60292238e-002, -2.61041539e-004, 2.82035163e-003,
       -7.86951557e-003, -1.25692710e-002, -3.88982450e-003,
       -1.37765137e-002, -6.86681969e-003, -6.12410903e-003,
       7.96094537e-003, 1.56471450e-002, 9.34264250e-003,
       3.35573987e-003, -5.26434369e-003, -1.23199364e-002,
       -1.02663031e-002, -1.61477122e-002, -1.70444530e-002,
       1.07089011e-002, 2.51985379e-002, 1.96659938e-002,
       1.01085939e-002, -3.06383095e-004, -9.66025330e-003,
       -1.41905043e-002, -6.60795858e-003, -2.00035656e-003,
       1.07150273e-002, 1.06488401e-002, 7.59788463e-003,
       -6.17013965e-003, -1.43578928e-002, -1.88052785e-002,
       -1.13391308e-002, -1.22348731e-002, -1.60508528e-002,
       3.24725593e-003, 1.30891837e-002, 1.41928196e-002,
       3.31861177e-003, -4.28129034e-003, -6.09058188e-003,
       -6.62648631e-003, -1.20536154e-002, -9.03764833e-003,
       1.67401675e-002, 1.73778981e-002, 1.22006414e-002,
       4.48624231e-003, -3.23201600e-003, -1.03345122e-002,
       -5.83057990e-003, 3.55948717e-003, 9.89351235e-003,
       1.88375823e-002, 2.01229914e-003, 2.31441739e-003,
       -9.81857348e-003, -1.51194690e-003, -4.35939943e-003,
       4.32525179e-004, -9.78405029e-003, -1.27551090e-002,
       1.51015178e-003, 4.08994593e-003, 4.58436413e-003,
       2.12375773e-003, -2.64284294e-003, -6.94172923e-004,
       3.87666142e-003, -3.59534263e-003, -3.80736543e-003,
       3.00002214e-003, -6.60560932e-003, -7.63727026e-003,
       -6.14730781e-003, 3.71553673e-004, 3.24893370e-003,
       -3.15098627e-003, 6.67497702e-003, 1.03105139e-002,
       1.04323830e-002, 1.75080774e-003, -6.79808552e-004,
       -5.03550470e-003, 3.44643719e-003, -1.23434537e-003,
       -7.74763583e-004, 6.68732822e-003, 1.28735537e-002,
       3.68900527e-003, -2.35981611e-003, 5.37453080e-003,
       2.87575996e-003, 9.69817303e-003, 4.36721789e-003,
       8.56388081e-003, 2.20976979e-003, 6.36182632e-003,
       5.66525059e-003, -5.47081279e-003, -1.44324349e-002,
       -9.34155006e-003, -5.44683193e-004, 6.63694786e-003,
       6.13194332e-003, -9.00540792e-004, 8.57742317e-003,
       -1.07061339e-003, -1.22006452e-002, -5.65386936e-003,
       -1.00107305e-003, 1.14344731e-002, 1.30399792e-002,
       1.30877574e-003, -2.67658220e-003, 1.03414338e-002,
       6.37562387e-003, 5.48459543e-003, 6.98824646e-003,
       6.57514250e-003, 8.18121247e-003, 5.52892918e-003,
       4.26773448e-004, -8.59093852e-003, 3.80485225e-003,
       5.70069067e-003, 1.20111406e-002, 7.21843448e-003,
       4.15148167e-003, 7.75852124e-004, -4.72568953e-003,
       3.74685926e-003, -7.54930731e-003, 2.29536789e-003,
       -4.24491428e-003, -5.87396650e-003, 5.14444849e-003,
       4.73689428e-003, 1.54841412e-002, 1.93420406e-002,
       5.09559130e-003, -1.75232869e-002, -8.86242744e-003,
       -9.30752233e-003, -6.20820047e-003, -6.88525266e-004,
       4.66914173e-007, 2.89265136e-003, 3.09785316e-003,
       4.55994066e-003, -6.60228450e-003, 3.71517777e-003,
       -3.61544220e-003, 8.98360088e-003, 1.05017684e-002,
       6.50497712e-003, -4.16328060e-003, -5.45582687e-003,
       -1.11398962e-003, -9.49384458e-003, 9.94633418e-003,
       7.12983031e-003, 1.53080802e-002, 1.64896790e-002,
       6.10838737e-003, -6.22728420e-003, -4.37844312e-003,
       9.03281476e-003, -1.35846781e-002, -1.11229364e-002,
       -1.21583575e-002, -5.01843961e-003, -5.98108768e-003,
       -3.62187624e-003, -2.63129524e-003, 9.51429270e-003,
       3.18875723e-003, -1.14572160e-002, -4.33505284e-006,
       -3.13801132e-003, 6.90869102e-003, 2.03746557e-003,
       -2.29205796e-003, -4.56938613e-003, 2.78822822e-003,
       -1.70427188e-002, -1.54634062e-002, -1.39264611e-003,
       1.96637046e-002, 2.59418283e-002, 2.49024238e-002,
       1.10969236e-002, -1.06417462e-002, -1.29130939e-002,
       -1.93117559e-002, -2.25018244e-002, -1.14359912e-002,
       6.33693475e-004, 1.45503934e-002, 1.66227296e-002,
       -2.13802932e-003, -1.00856144e-002, -1.05881421e-002,
       -2.29446962e-003, -6.66129636e-003, 3.35804909e-003,
       9.16430727e-003, 1.26012200e-002, 4.41662967e-003,
       -4.95864311e-003, -1.34442998e-002, -1.64387259e-003,
       -9.31136031e-003, -1.33103132e-002, -8.37026257e-003,
       -6.00306084e-003, 8.97364318e-003, -4.49995132e-005,
       -6.70544012e-003, -1.50298234e-002, -1.35799833e-002,
       -1.15681635e-002, -8.35199468e-003, 7.17744930e-003,
       2.52876873e-003, -1.65822552e-004, 2.01488310e-003,
       -1.29267992e-003, -3.00383894e-003, -2.76285736e-003,
       1.62638933e-003, 3.54634598e-003, 9.97459702e-003,
       5.68713387e-003, -8.71003885e-003, -1.10122841e-002,
       2.66659772e-003, 2.07819650e-003, 1.04688189e-003,
       -5.19778347e-003, -9.17524844e-003, 6.09348249e-003,
       -2.38622539e-003, -5.82173141e-003, 1.07092678e-003,
       -4.63709934e-003, -5.08101517e-003, -5.75795816e-003,
       -5.53973438e-003, 6.94955606e-003, 1.74818542e-002,
       2.40180083e-003, -1.14984121e-002, -1.03156352e-002,
       -2.47061322e-003, -6.83783973e-003, -5.67774568e-003,
       -3.73297441e-003, -3.01234494e-003, 8.89909628e-004,
       4.70797473e-004, -4.82300390e-003, -1.01365047e-002,
       -1.70173508e-003, -5.36624051e-004, -5.22395130e-003,
       -6.49142638e-003, 9.23283689e-004, 1.92959867e-002,
       9.56713594e-003, 3.36402183e-004, -2.94681871e-003,
       -6.17834600e-003, -7.52001477e-004, -4.26198961e-003,
       -1.33648422e-002, 9.34884185e-004, 1.51852351e-002,
       -6.34479290e-003, -1.47468448e-002, -1.35021973e-002,
       -6.54100347e-003, -4.72864881e-003, -1.19931474e-002,
       -1.24555202e-002, 3.03873280e-003, 8.89687147e-003,
       -2.01004348e-003, -1.74609143e-002, -5.87956607e-003,
       -6.39336603e-003, -4.46266681e-003, -1.11160800e-002,
       -6.77329162e-003, -9.67528467e-005, 1.65870122e-003,
       2.28314288e-003, 2.25242181e-003, 1.19567784e-002,
       2.26504821e-003, 1.04514519e-002, -1.94987154e-003,
       -8.36748630e-003, -2.56013102e-003, -8.92125710e-004,
       3.07433959e-003, 5.18486137e-003, 1.12102767e-002,
       -1.69666682e-003, 2.51852022e-003, -1.84414524e-003,
       -1.12139722e-002, -4.46800695e-004, 9.38756205e-003,
       1.34106958e-003, 3.92923970e-003, 1.66143533e-002,
       4.27655550e-003, 1.16794175e-002, -9.35354270e-003,
       -1.73762478e-002, -5.66453021e-003, -1.57029100e-003,
       -1.06848223e-004, 2.30651558e-003, 1.32289100e-002,
       1.80989574e-003, 5.72840171e-003, -1.28092077e-002,
       -1.27986318e-003, 3.35968100e-003, 2.61079083e-004,
       3.91618628e-003, 1.23319225e-002, 2.13104840e-002,
       1.22853080e-002, 2.99990317e-003, 4.42380039e-003,
       1.17288588e-003, 3.59659595e-003, -6.54493226e-003,
       -6.65333355e-003, -1.64166722e-003, 1.22461626e-002,
       5.70772123e-003, 4.22025239e-003, 8.67106114e-003,
       -1.29729975e-002, 3.94240441e-003, -4.41547530e-003,
       1.14274712e-003, 3.01792519e-003, 2.14789044e-002,
       7.75021594e-003, 5.42505505e-003, -1.38396788e-002,
       -8.23324081e-003, 5.41613996e-003, -8.02498218e-003,
       -1.75236177e-003, -3.85989482e-003, 1.10938028e-002,
       5.92303183e-003, -3.14936717e-003, -1.26724457e-002,
       2.73498637e-003, 7.26760738e-003, 1.36046577e-003,
       -2.63583730e-003, -7.71188503e-003, -4.13304288e-003,
       -9.21318028e-003, -7.66737794e-004, 6.18060818e-003,
       -3.35863209e-003, 1.06698470e-002, 1.28961178e-002,
       1.29053127e-002, -1.84352126e-003, 3.96282354e-004,
       -5.79683203e-003, -1.01905977e-002, -1.14984587e-002,
       -7.85084907e-003, 4.16336535e-003, 5.68568183e-004,
       4.25976375e-003, -4.80578979e-003, 6.26446865e-003,
       5.88968210e-003, 6.22052327e-003, -6.00194000e-003,
       -9.07013100e-003, 5.95643884e-003, 8.52971058e-003,
       1.31093813e-002, -3.62980249e-003, 4.25338838e-003,
       8.56432039e-003, 9.50982049e-003, -3.80582898e-003,
       -1.37359882e-002, -1.62257266e-003, 3.19693866e-003,
       1.28539000e-002, 1.43626360e-002, 1.22100245e-002,
       1.93687883e-005, -7.92358257e-003, -1.86889954e-002,
       -1.26292882e-002, -8.06301739e-003, -7.11909542e-003,
       8.77969712e-003, 1.27064968e-002, 2.30249651e-002,
       1.77977607e-003, -9.20258404e-004, -3.00124101e-003,
       -9.13244858e-003, -1.96706643e-003, 3.24099936e-004,
       4.32985323e-003, 6.96011866e-003, 9.04230773e-003,
       9.71428677e-003, 9.61750560e-003, -5.36426390e-003,
       -2.75713881e-003, -6.22173725e-003, -8.82449467e-003,
       -1.67963537e-003, 1.40637327e-002, 2.36355364e-002,
       4.88138525e-003, -2.18000822e-003, -5.07534621e-003,
       -6.40669791e-003, -8.73477943e-003, -6.55457564e-003,
       5.30936662e-003, 9.86670610e-003, 1.53495753e-002,
       2.82982201e-003, 1.04662299e-003, -5.13431244e-003,
       1.17370049e-002, -1.06689730e-003, 2.90302763e-004,
       8.05660989e-003, 7.33815553e-003, 4.87342477e-003,
       4.44127759e-003, 7.54748564e-003, 1.14862062e-002,
       6.01963373e-004, -5.93650807e-003, -8.06510355e-003,
       3.46999359e-003, 1.35789923e-002, 1.99616719e-002,
       -4.08496521e-003, -8.18752218e-003, -1.23678809e-002,
       5.00584394e-003, 3.57202394e-003, -2.52120616e-003,
       -6.35150413e-004, -1.85340689e-003, 6.40909001e-003,
       -9.76093521e-004, -4.63801110e-003, -7.63654709e-003,
       1.23598557e-002, -1.58675748e-003, 6.77299965e-003,
       1.04042552e-002, 6.84500346e-003, -7.46039348e-003,
       -3.12723895e-003, 7.59988744e-003, 1.59753524e-002,
       1.14254486e-002, -9.98849631e-004, 1.34598641e-002,
       1.10463416e-002, 7.32473377e-003, 1.37496029e-003,
       4.54763789e-003, 1.35392509e-002, 1.61430482e-002,
       6.68290071e-003, -1.84153396e-004, 2.46444624e-003,
       -2.93250848e-003, -9.50351357e-003, -1.08938655e-002,
       -5.40856039e-003, -6.67956984e-003, -7.41990702e-003,
       5.30528184e-003, -2.91432138e-003, 5.28875273e-003,
       -1.30679365e-003, -6.77969679e-003, -1.20404065e-002,
       -9.17964242e-003, -8.22378602e-003, -5.94480382e-003,
       1.70119405e-002, 2.37607537e-003, 1.27466889e-002,
       5.50534576e-003, 1.26932096e-002, 1.23041710e-002,
       1.33632589e-002, 1.22474898e-002, 2.19074413e-002,
       3.75616224e-003, -2.10549738e-002, -5.90360723e-003,
       -1.03914691e-002, -5.57017932e-003, -1.55426783e-003,
       3.82696930e-003, 5.32686012e-003, 7.20223878e-003,
       1.05902152e-002, 7.28634046e-003, 7.66424788e-003,
       3.51740397e-003, 2.66715558e-003, -2.62759952e-003,
       -4.59182495e-003, -1.03699127e-002, -6.98889699e-003,
       -4.58583672e-004, 4.31784010e-003, -2.35221442e-003,
       -8.78133252e-003, -1.14565175e-002, -6.11032825e-003,
       -8.28154385e-003, -1.09469658e-002, -1.08756479e-002,
       1.89924845e-003, -1.73279420e-002, -5.97326690e-003,
       -1.24643417e-002, -7.37836352e-003, -6.79470738e-003,
       -5.14196046e-003, 4.58444888e-003, 1.49112791e-002,
       9.75890178e-003, -2.64796516e-004, 7.77605968e-003,
       2.26114248e-003, 7.71191157e-003, 7.07334653e-003,
       2.10037897e-003, 4.06183815e-003, 8.93668178e-003,
       4.97439597e-003, 6.01639645e-003, 4.99352391e-005,
       -1.44828511e-002, -1.62374228e-002, -3.82427382e-003,
